tree
version=v4
num_class=1
num_tree_per_iteration=1
label_index=0
max_feature_idx=6
objective=binary sigmoid:1
feature_names=Time_spent_Alone Stage_fear Social_event_attendance Going_outside Drained_after_socializing Friends_circle_size Post_frequency
feature_infos=[-1.0446330382228837:2.6175173557853921] [-0.56478182284430711:1.7705952273107579] [-1.912303395306481:1.7197286343257496] [-1.9608637251790175:1.4330438235066347] [-0.55237242946563847:1.8103727605800204] [-1.8934524930956105:1.6582194525011531] [-1.7304623634717544:1.7428988479948502]
tree_sizes=3377 3414 3406 3415 3437 3447 3446 3443 3460 3453 3460 3461 3472 3471 3466 3463 3479 3460 3479

Tree=0
num_leaves=31
num_cat=0
split_feature=4 1 0 2 5 0 5 0 5 3 5 5 2 5 3 6 6 2 0 3 2 5 2 0 0 6 1 0 0 5
split_gain=11170.7 1339.21 42.3735 31.0813 16.4072 10.7827 9.3427 6.51182 3.76714 3.42477 3.00075 2.95978 2.71406 2.46943 1.79979 2.13059 1.78143 1.41271 1.62137 6.72438 1.27089 1.10188 1.24787 1.99533 1.09532 1.02263 0.959697 0.966351 1.20522 1.14536
threshold=-1.0000000180025095e-35 -1.0000000180025095e-35 0.45351939568959276 1.0000000180025095e-35 -0.59117277971013016 -1.0000000180025095e-35 -1.064729039123032 -1.0000000180025095e-35 -1.064729039123032 1.0000000180025095e-35 1.3030522579414772 -0.35439465000367926 -0.64109218493520015 0.35593973911567334 -1.2335978218892349 -1.2094581817517636 0.52722242398153862 -1.0042953878984231 2.4510559742395617 -0.74875388636271312 -1.0000000180025095e-35 1.539830387647928 -0.64109218493520015 -0.21232613049373006 1.7852104480562385 0.52722242398153862 1.0000000180025095e-35 1.1193649218729158 0.78644215878125423 -0.827950909416581
decision_type=8 8 10 10 8 8 10 8 8 10 10 10 10 10 10 10 10 8 8 10 8 10 8 10 8 10 10 10 10 8
left_child=2 7 8 5 -4 6 -3 -2 16 -10 20 12 14 -13 -7 -16 -1 18 26 -20 -6 22 23 -11 -14 -25 -17 28 -28 -29
right_child=1 3 4 -5 10 11 -8 -9 9 21 -12 13 24 -15 15 17 -18 -19 19 -21 -22 -23 -24 25 -26 -27 27 29 -30 -31
leaf_value=-1.0958362957883945 -1.1061764573677879 -0.87258387561072137 -0.95728743641202652 -1.007278126897214 -1.024582596680548 -0.86133288174343381 -0.95894495267479796 -1.0433918029667808 -1.1084069771597997 -1.1021100479375647 -1.098126593259718 -0.91925104147764469 -0.90345130819720931 -0.86451625118470754 -0.86293052130242698 -0.85730605544165162 -1.0574014186834231 -0.8639639808724735 -0.86451625118470754 -0.94182208902112396 -1.0591915362472162 -1.0983941881532746 -1.1050558186242478 -1.0925644422579321 -0.87150459475105402 -1.061188205837601 -0.87378650285435078 -0.87492231747333415 -0.89768315160276457 -0.8515378988472071
leaf_weight=6.5493675768375379 60.870592772960663 7.1272529512643814 5.2009683698415756 3.8525691628456107 4.0451976209878922 428.79094782471657 5.586225286126135 4.4304545372724524 889.55821970105171 38.910948544740677 3.8525691628456107 4.4304545372724515 5.7788537442684156 3.8525691628456116 162.38579021394253 8.6682806164026243 5.5862252861261368 36.214150130748749 7.7051383256912231 4.4304545372724515 7.7051383256912249 74.739841759204865 1008.4099783748388 5.3935968279838544 5.008339911699295 5.008339911699295 13.483992069959641 21.381758853793144 8.668280616402626 6.9346244931221035
leaf_count=34 316 37 27 20 21 2226 29 23 4618 202 20 23 30 20 843 45 29 188 40 23 40 388 5235 28 26 26 70 111 45 36
internal_value=-1.04349 -0.88493 -1.10519 -0.865633 -1.0342 -0.864886 -0.91053 -1.10192 -1.10592 -1.10609 -1.05983 -0.864077 -0.86373 -0.893793 -0.863346 -0.866545 -1.07814 -0.872006 -0.876092 -0.892739 -1.04728 -1.10426 -1.10468 -1.09691 -0.888619 -1.07746 -0.872675 -0.875315 -0.883137 -0.869196
internal_weight=2854.56 799.601 2054.96 734.3 20.8039 730.447 12.7135 65.301 2034.16 2022.02 15.6029 717.734 709.451 8.28302 698.663 269.872 12.1356 107.487 71.2725 12.1356 11.7503 1132.46 1057.72 49.3129 10.7872 10.4019 59.1369 50.4687 22.1523 28.3164
internal_count=14819 4151 10668 3812 108 3792 66 339 10560 10497 81 3726 3683 43 3627 1401 63 558 370 63 61 5879 5491 256 56 54 307 262 115 147
is_linear=0
shrinkage=1


Tree=1
num_leaves=31
num_cat=0
split_feature=4 1 0 0 5 6 0 2 5 3 5 5 3 6 6 2 2 1 5 2 0 5 5 0 6 6 6 4 2 4
split_gain=9647.63 1066.05 40.4763 22.0622 14.255 12.8638 6.24639 4.67497 3.68502 3.40233 3.03044 2.81262 1.73931 1.69173 1.33867 1.25336 1.14731 1.13877 1.08823 1.23113 1.93843 0.97477 1.50095 1.24488 1.10499 0.971038 0.954866 1.68883 0.928701 0.997292
threshold=-1.0000000180025095e-35 -1.0000000180025095e-35 0.45351939568959276 -0.21232613049373006 -0.59117277971013016 -1.2094581817517636 -1.0000000180025095e-35 -0.27788898197197709 -1.064729039123032 1.0000000180025095e-35 -0.35439465000367926 1.3030522579414772 -1.2335978218892349 0.52722242398153862 -1.2094581817517636 -1.3674985908616462 -1.0000000180025095e-35 1.0000000180025095e-35 1.539830387647928 -0.64109218493520015 -0.21232613049373006 -1.3015071688294826 -1.7750634282423847 0.78644215878125423 -1.5567943028984239 0.52722242398153862 -1.5567943028984239 1.0000000180025095e-35 -1.0042953878984231 1.0000000180025095e-35
decision_type=8 8 10 8 8 10 8 10 8 10 10 10 10 10 10 10 8 10 10 8 10 10 8 8 10 10 8 10 8 10
left_child=2 6 8 5 -4 -3 -2 10 13 -10 12 16 -5 -1 21 -12 -6 -16 19 20 -11 22 23 -14 -25 -22 27 -23 29 -19
right_child=1 3 4 7 11 -7 -8 -9 9 18 15 -13 14 -15 17 -17 -18 28 -20 -21 25 26 -24 24 -26 -27 -28 -29 -30 -31
leaf_value=-0.05104845675715796 -0.061458541423268787 0.13799515132770804 0.078612373826194348 0.15922152099133349 0.017800666098377063 0.013531324096087309 9.6939735853597417e-05 0.11366447456298508 -0.063718796799345431 -0.057351352070097644 0.14866468155293108 -0.053344664470782066 0.12494098953635369 -0.01330333815239854 0.16232042260620561 0.11130781392925436 -0.015029058920905154 0.15947838127709307 -0.053613305277742822 -0.060324932150834634 -0.047777529035067615 0.16850480738196338 0.16377934719068712 0.1685048073819633 0.13725250327533031 -0.016957539887123608 0.15781258868537562 0.1419987385823592 0.15473999698346086 0.142172184849432
leaf_weight=6.3838454186916334 59.025702595710754 4.0848844051361084 5.4123894721269608 474.08630713820457 4.0817290395498276 4.2212885022163373 4.4306711405515662 6.2722129821777335 861.62940964102745 37.808731079101562 4.1095122992992401 3.7509107589721671 4.5909659862518311 5.5489248037338257 16.705653131008148 4.9496296942234022 7.6470512151718157 9.7671725898981077 72.757932424545288 978.39765451848507 5.2658635973930341 7.5124897956848136 73.657462999224663 6.8864489793777484 4.799646258354187 4.9657675325870514 50.897768169641495 30.036559581756592 35.652461111545563 56.359472900629044
leaf_count=34 316 20 27 2271 21 21 23 31 4618 202 20 20 22 29 80 24 40 47 388 5235 28 36 353 33 23 26 244 144 171 272
internal_value=-0.000130991 0.140053 -0.0604646 0.155802 0.00876501 0.0747413 -0.0571606 0.156659 -0.0611978 -0.0613664 0.157004 -0.0156567 0.157342 -0.0334964 0.154341 0.128254 -0.003604 0.150221 -0.0595224 -0.0599412 -0.0521266 0.157077 0.160743 0.147002 0.155669 -0.0328195 0.15335 0.147302 0.148235 0.144728
internal_weight=2851.7 858.046 1993.65 794.59 20.8921 8.30617 63.4564 786.284 1972.76 1960.83 780.012 15.4797 770.952 11.9328 296.866 9.05914 11.7288 118.485 1099.2 1026.44 48.0404 178.381 89.9345 16.2771 11.6861 10.2316 88.4468 37.549 101.779 66.1266
internal_count=14819 4151 10668 3812 108 41 339 3771 10560 10497 3740 81 3696 63 1425 44 61 570 5879 5491 256 855 431 78 56 54 424 180 490 319
is_linear=0
shrinkage=0.05


Tree=2
num_leaves=31
num_cat=0
split_feature=4 1 0 0 5 6 0 2 5 3 5 5 5 6 6 2 1 6 0 0 3 5 2 6 0 6 4 2 3 2
split_gain=8466.9 876.714 38.7021 17.257 12.4616 10.5716 6.00118 3.783 3.61406 3.39712 3.27652 2.63743 1.70939 1.61441 1.60759 1.33602 1.48969 1.33604 1.40374 1.13288 1.11275 1.07936 1.21881 1.9079 3.82162 1.6816 1.06044 1.03599 0.927148 0.890304
threshold=-1.0000000180025095e-35 -1.0000000180025095e-35 0.45351939568959276 -0.21232613049373006 -0.59117277971013016 -1.2094581817517636 -1.0000000180025095e-35 -0.64109218493520015 -1.064729039123032 1.0000000180025095e-35 -0.827950909416581 1.3030522579414772 -0.35439465000367926 -1.2094581817517636 0.52722242398153862 -0.64109218493520015 1.0000000180025095e-35 -1.2094581817517636 -1.0000000180025095e-35 2.4510559742395617 -0.74875388636271312 1.539830387647928 -0.64109218493520015 0.87455854512819908 -0.54524889358539141 -0.51478593945844275 1.0000000180025095e-35 -1.0000000180025095e-35 inf 0.81172062691769209
decision_type=8 8 10 8 8 10 8 10 8 10 8 10 10 10 10 8 10 10 8 10 10 10 8 10 10 8 10 8 8 8
left_child=2 6 8 5 -4 -3 -2 12 14 -10 13 27 15 -9 -1 16 -5 18 -18 26 -21 22 23 25 -25 -11 -19 -6 -28 -23
right_child=1 3 4 7 11 -7 -8 10 9 21 -12 -13 -14 -15 -16 -17 17 19 -20 20 -22 29 -24 24 -26 -27 28 -29 -30 -31
leaf_value=-0.049804780016109218 -0.060309379954178635 0.12389719030126052 0.072138254057569129 0.14509382053965938 0.016766560242260611 0.012776635953485991 9.2093149664985118e-05 0.14855119518570989 -0.062606975873171947 -0.033466340599391735 0.07841117709953517 -0.052111026491982959 0.11904154308692215 0.10989432471179238 -0.012722464451568896 0.14712641269830451 0.11412307173961821 0.14543403647966657 0.14135894591834985 0.13199579715659024 0.10689122209459799 -0.048191925344858777 -0.059159331657951966 -0.058629072796027019 -0.0032342811054277896 -0.062261072570600609 0.13433363935442819 -0.014385454515760347 0.14480105377390282 -0.059885836352328629
leaf_weight=6.2202773690223676 57.189566016197205 4.3156851828098297 5.5981285572052002 127.35856777429581 4.1158938109874725 4.2464331835508329 4.4308767765760413 5.6334954798221579 833.79115822911263 6.1942162215709686 4.2968662828207007 3.6502918601036063 9.0995583534240705 5.1882042586803427 5.5130966007709503 76.397300615906715 4.7926990240812302 34.073269858956337 366.95240943133831 18.144015029072765 5.8329996764659873 45.433470100164413 948.55039469897747 7.088498130440712 5.5522358268499357 27.944518148899078 151.33431486785412 7.5911784172058123 24.59263251721859 25.36245921254158
leaf_count=34 316 20 27 575 21 21 23 26 4618 34 20 20 42 24 29 345 22 154 1657 82 27 249 5235 39 30 153 686 40 111 139
internal_value=-0.0002266 0.126089 -0.0593046 0.139409 0.0082759 0.0687863 -0.0559662 0.140134 -0.0600454 -0.0602162 0.115351 -0.0150035 0.140592 0.130018 -0.0323811 0.140834 0.140178 0.139145 0.141008 0.136185 0.125888 -0.0583465 -0.0587708 -0.050892 -0.0342978 -0.0570365 0.137361 -0.00343324 0.135797 -0.0523812
internal_weight=2836.48 903.879 1932.61 842.258 20.9555 8.56212 61.6204 833.696 1911.65 1899.92 15.1186 15.3574 818.578 10.8217 11.7334 809.478 733.081 605.722 371.745 233.977 23.977 1066.13 995.33 46.7795 12.6407 34.1387 210 11.7071 175.927 70.7959
internal_count=14819 4151 10668 3812 108 41 339 3771 10560 10497 70 81 3701 50 63 3659 3314 2739 1679 1060 109 5879 5491 256 69 187 951 61 797 388
is_linear=0
shrinkage=0.05


Tree=3
num_leaves=31
num_cat=0
split_feature=4 1 0 0 5 6 0 5 3 2 5 6 5 6 3 5 5 2 0 6 3 2 2 6 6 2 0 3 5 3
split_gain=7518.06 738.177 37.0398 14.0684 10.9488 8.87535 5.77363 3.55239 3.40676 3.27449 2.13221 2.09172 1.97558 1.52833 1.25229 1.1186 1.07436 1.21 1.90372 0.900635 0.878401 0.8775 1.04056 0.867152 0.865771 0.7892 0.919163 4.28542 0.90223 1.50467
threshold=-1.0000000180025095e-35 -1.0000000180025095e-35 0.45351939568959276 -0.21232613049373006 -0.59117277971013016 -1.2094581817517636 -1.0000000180025095e-35 -1.064729039123032 1.0000000180025095e-35 -0.27788898197197709 1.3030522579414772 0.52722242398153862 -0.35439465000367926 0.52722242398153862 -1.2335978218892349 0.35593973911567334 1.539830387647928 -0.64109218493520015 -0.21232613049373006 0.52722242398153862 1.1906218557433741 0.81172062691769209 -0.27788898197197709 1.2218946662748598 -1.2094581817517636 -1.0042953878984231 2.4510559742395617 -0.74875388636271312 -1.3015071688294826 -0.74875388636271312
decision_type=8 8 10 8 8 10 8 8 10 10 8 8 10 10 10 10 10 8 10 10 10 8 10 10 10 8 8 10 8 10
left_child=2 6 7 5 -4 -3 -2 13 -9 12 11 -6 14 -1 -5 -14 17 18 23 -20 -19 22 -18 -10 -16 26 28 -28 29 -26
right_child=1 3 4 9 10 -7 -8 8 16 -11 -12 -13 15 -15 24 -17 21 20 19 -21 -22 -23 -24 -25 25 -27 27 -29 -30 -31
leaf_value=-0.048605716016258745 -0.0592265719885674 0.1126889977013194 0.066540311100675195 0.12939420565813542 0.01491070407557861 0.012068982027201771 8.747925443901007e-05 -0.061568558551808289 -0.058282727852708618 0.092929948365047491 -0.043257862503561506 -0.030629849772185171 0.089288452617499153 -0.012164204558463383 0.12754764343117131 0.12290523621838011 -0.060448582502876463 -0.059022351044746874 -0.045131508875414922 -0.014875605751276633 -0.055581804199135866 -0.058776474995390862 -0.042628862916217314 -0.036143052830394512 0.10702132271718785 0.1276304568680601 0.128315225688416 0.071260365756049271 0.126939731570098 0.12914365082474397
leaf_weight=6.059161961078642 55.369646430015564 4.5024484992027283 5.7611825913190842 525.22435601055622 6.6860957443714115 4.2700228095054609 4.4310721307992926 806.16271936893463 30.523651510477066 6.8557640612125388 4.502307295799258 4.0479792058467874 5.1534582823514921 5.4787039458751678 197.58494606614113 4.7604224979877472 10.850398465991018 661.10844480991364 4.9960527420043928 4.8447705656290054 257.87793558835983 24.569271728396416 33.440572321414948 5.1721820682287207 19.747593387961388 45.423242688179016 9.2074422091245633 5.1219742298126212 38.820379644632339 12.584667697548864
leaf_count=34 316 20 27 2271 35 21 23 4618 173 31 25 21 23 29 855 21 61 3766 28 26 1469 139 188 29 86 197 40 23 169 55
internal_value=-0.000298296 0.115153 -0.0582099 0.126714 0.00782453 0.0637119 -0.0548316 -0.0589589 -0.0591324 0.127349 -0.0143771 -0.00226332 0.127622 -0.0313016 0.12788 0.10543 -0.0572319 -0.0576627 -0.049707 -0.0302361 -0.0580569 -0.0511982 -0.0469943 -0.0550748 0.125458 0.122305 0.119475 0.107921 0.121801 0.115632
internal_weight=2811.14 939.057 1872.08 879.257 20.9976 8.77247 59.8007 1851.08 1839.55 870.484 15.2364 10.7341 863.628 11.5379 853.715 9.91388 1033.38 964.523 45.5367 9.84082 918.986 68.8602 44.291 35.6958 328.49 130.905 85.4821 14.3294 71.1526 32.3323
internal_count=14819 4151 10668 3812 108 41 339 10560 10497 3771 81 56 3740 63 3696 44 5879 5491 256 54 5235 388 249 202 1425 570 373 63 310 141
is_linear=0
shrinkage=0.05


Tree=4
num_leaves=31
num_cat=0
split_feature=4 1 0 0 5 3 0 5 3 2 5 5 6 6 6 2 0 5 5 2 6 0 6 1 6 0 4 3 2 2
split_gain=6734.95 632.622 35.4844 11.8434 9.66011 8.96286 5.56157 3.49845 3.42927 2.8662 2.62108 1.98895 1.90513 1.45338 1.26102 1.23254 1.60638 1.30414 1.07237 1.20447 1.85839 3.63745 1.7085 1.05103 1.04111 1.44535 1.09858 0.875517 0.867342 1.02238
threshold=-1.0000000180025095e-35 -1.0000000180025095e-35 0.45351939568959276 -0.21232613049373006 -0.59117277971013016 -1.2335978218892349 -1.0000000180025095e-35 -1.064729039123032 1.0000000180025095e-35 -0.64109218493520015 -0.827950909416581 1.3030522579414772 0.52722242398153862 0.52722242398153862 -1.2094581817517636 -1.0042953878984231 -1.0000000180025095e-35 -0.35439465000367926 1.539830387647928 -0.64109218493520015 0.87455854512819908 -0.54524889358539141 -0.51478593945844275 1.0000000180025095e-35 -1.2094581817517636 2.4510559742395617 1.0000000180025095e-35 1.1906218557433741 0.81172062691769209 -0.27788898197197709
decision_type=8 8 10 8 8 8 8 8 10 10 8 8 8 10 8 8 8 10 10 8 10 10 8 10 10 10 10 10 8 10
left_child=2 6 7 5 -4 -3 -2 13 -9 15 14 12 -6 -1 -11 16 -5 23 19 20 22 -22 -10 -18 -25 26 -26 -21 29 -20
right_child=1 3 4 9 11 -7 -8 8 18 10 -12 -13 -14 -15 -16 -17 17 -19 28 27 21 -23 -24 24 25 -27 -28 -29 -30 -31
leaf_value=-0.047446276330122938 -0.058202620226538861 0.11196655026561149 0.061641815594199116 0.090143882176260348 0.014061030491414779 0.011730975401310567 8.3103691085289303e-05 -0.060595597224911063 -0.030558058761072839 0.12461531358264628 0.06426511725674898 -0.04208332850793791 -0.029543943240306143 -0.011627854223192603 0.091700485514180932 0.12010420563215003 0.12153647569574547 0.095638512041249735 -0.059410250918371432 -0.05799091425426383 -0.056613882872107182 -0.0016015022660610001 -0.060320565195099776 0.11761235759130684 0.12356999976519333 0.099669115196225039 0.11247956061109921 -0.054501638803947809 -0.057725833826638845 -0.041473687827962319
leaf_weight=5.900917172431944 53.572267711162567 4.2461224943399429 5.9041639119386673 5.8680999577045441 6.7343354970216724 4.6974330544471723 4.4312578886747351 778.84511137008667 5.9063665568828583 6.0993987172842026 4.5772283673286465 4.3992137759923962 3.9884669482707986 5.4457096755504608 5.5647474676370603 303.94523687660694 94.085422784090042 7.4382353723049155 10.497013330459593 639.76635065674782 6.6884296238422394 5.4558745026588422 26.261030212044716 288.96099855005741 26.710270002484322 18.836045354604721 136.13726784288883 250.03908668458462 23.785558193922043 32.673106968402863
leaf_count=34 316 19 27 25 35 22 23 4618 34 26 20 25 21 29 24 1274 394 32 61 3766 39 30 153 1211 112 80 573 1469 139 188
internal_value=-0.000353004 0.106337 -0.057173 0.116573 0.00740346 0.0593197 -0.0537498 -0.057931 -0.0581074 0.117143 0.0963296 -0.0137731 -0.00215833 -0.0302556 0.108912 0.117527 0.116171 0.116438 -0.0561716 -0.0566098 -0.0485642 -0.0318994 -0.0548558 0.116712 0.115748 0.112782 0.114299 -0.0570104 -0.0500592 -0.045835
internal_weight=2777.46 965.17 1812.29 907.167 21.0262 8.94356 58.0035 1791.26 1779.92 898.223 16.2414 15.122 10.7228 11.3466 11.6641 881.982 578.036 572.168 1001.07 934.117 44.3117 12.1443 32.1674 564.73 470.645 181.684 162.848 889.805 66.9557 43.1701
internal_count=14819 4151 10668 3812 108 41 339 10560 10497 3771 70 81 56 63 50 3701 2427 2402 5879 5491 256 69 187 2370 1976 765 685 5235 388 249
is_linear=0
shrinkage=0.05


Tree=5
num_leaves=31
num_cat=0
split_feature=4 1 0 2 5 0 5 0 5 3 5 5 6 5 5 2 0 2 1 6 3 3 2 2 6 6 5 0 6 5
split_gain=6075.15 549.616 34.0204 10.8643 8.55295 5.3631 4.90144 3.78064 6.27585 3.51601 1.97057 1.85497 1.73537 1.43707 1.07294 1.20023 1.87665 1.02425 1.1172 1.14865 0.893365 0.875743 0.859326 1.00691 0.841761 0.834756 0.795269 0.755147 1.04589 0.754236
threshold=-1.0000000180025095e-35 -1.0000000180025095e-35 0.45351939568959276 -0.27788898197197709 -0.59117277971013016 -1.0000000180025095e-35 -1.064729039123032 -1.0000000180025095e-35 -1.064729039123032 1.0000000180025095e-35 -1.064729039123032 1.3030522579414772 0.52722242398153862 -1.064729039123032 1.539830387647928 -0.64109218493520015 -0.21232613049373006 -0.27788898197197709 1.0000000180025095e-35 -1.2094581817517636 -1.2335978218892349 1.1906218557433741 0.81172062691769209 -0.27788898197197709 1.2218946662748598 0.52722242398153862 -1.5382852985359337 0.45351939568959276 -0.51478593945844275 -1.5382852985359337
decision_type=8 8 10 10 8 8 8 8 10 10 8 8 8 8 10 8 10 8 10 10 10 10 8 10 10 10 10 8 10 10
left_child=2 5 9 7 -4 -2 -5 8 -3 13 -11 12 -6 -1 15 16 24 18 -9 -20 26 27 23 -16 -12 -18 -21 -17 -29 -22
right_child=1 3 4 6 11 -7 -8 17 -10 10 14 -13 -14 -15 22 21 25 -19 19 20 29 -23 -24 -25 -26 -27 -28 28 -30 -31
leaf_value=-0.031086006549464654 -0.057230924718702336 0.11153616172199894 0.05731141082557524 0.089322470581569099 0.013266413642424299 7.894925192216155e-05 0.015850333386087944 0.11274303248336939 0.046414722880416641 -0.028030980875648637 -0.056294472548729539 -0.040940817455495826 -0.028491055303883545 -0.059681110571880538 -0.058429135952121382 -0.057530856972064982 -0.042639462588227511 0.11446540856675286 0.10948652423164273 0.10273151718457299 0.10743665982190997 -0.05346559844658029 -0.056727237370010369 -0.040348879975757833 -0.034018987497613486 -0.012945653222819282 0.11031986465722328 -0.035900444647067972 -0.054550973970614917 0.098792768591485725
leaf_weight=4.419567883014679 51.802741348743439 8.7661456316709501 6.0293641984462738 4.705509141087532 6.7796143144369099 4.4314340502023688 4.3855960816144925 140.37611865997314 6.4013115018606177 6.7403935194015503 28.662956103682518 4.2984685748815563 3.9305667579174051 751.92373186349869 10.148468464612959 568.47870349884033 4.7356904745101911 84.483563438057899 413.97455947101116 52.383986607193947 38.974601522088051 242.33634859323502 23.013686060905457 31.923982501029968 4.9775574356317511 4.7316512167453766 101.28648974001408 9.2008113861083967 41.075050830841064 71.595108687877655
leaf_count=25 316 37 27 20 35 23 20 575 28 38 173 25 21 4618 61 3460 28 346 1698 215 161 1469 139 188 29 26 416 56 250 296
internal_value=-0.000395406 0.0990655 -0.0561877 0.10827 0.00701225 -0.0527147 0.0538791 0.108808 0.0840521 -0.0569552 -0.0549723 -0.0131942 -0.00205831 -0.059514 -0.0551596 -0.0556059 -0.0474642 0.109224 0.108683 0.107843 0.105267 -0.0560135 -0.0489592 -0.0447101 -0.0529985 -0.0277989 0.107733 -0.0570114 -0.0511378 0.10184
internal_weight=2736.97 983.567 1753.41 927.333 21.038 56.2342 9.09111 918.242 15.1675 1732.37 976.025 15.0086 10.7102 756.343 969.285 904.199 43.1079 903.074 818.591 678.215 264.24 861.091 65.0861 42.0725 33.6405 9.46734 153.67 618.755 50.2759 110.57
internal_count=14819 4151 10668 3812 108 339 40 3772 65 10560 5917 81 56 4643 5879 5491 256 3707 3361 2786 1088 5235 388 249 202 54 631 3766 306 457
is_linear=0
shrinkage=0.05


Tree=6
num_leaves=31
num_cat=0
split_feature=4 1 0 2 0 5 0 3 5 5 5 5 6 5 2 5 2 0 3 0 3 2 2 6 6 6 0 6 6 5
split_gain=5510.26 482.712 32.6398 9.65016 8.68204 7.59509 5.17661 3.55873 1.94267 1.72961 1.6347 3.3365 1.58084 1.43018 1.10157 1.07553 1.19946 1.8331 1.01038 2.52666 0.878693 0.853046 0.993613 0.831118 0.79229 0.76607 0.754299 1.02941 0.643425 0.763471
threshold=-1.0000000180025095e-35 -1.0000000180025095e-35 0.45351939568959276 -0.64109218493520015 0.78644215878125423 -0.59117277971013016 -1.0000000180025095e-35 1.0000000180025095e-35 -1.064729039123032 1.3030522579414772 -0.35439465000367926 0.11916160940922241 0.52722242398153862 -1.064729039123032 -0.27788898197197709 1.539830387647928 -0.64109218493520015 -0.21232613049373006 -1.2335978218892349 -1.0000000180025095e-35 1.1906218557433741 0.81172062691769209 -0.27788898197197709 1.2218946662748598 0.52722242398153862 -1.2094581817517636 0.45351939568959276 -0.51478593945844275 -0.51478593945844275 1.3030522579414772
decision_type=8 8 10 10 8 8 8 10 8 8 10 10 8 8 10 10 8 10 10 8 10 8 10 10 10 10 8 10 8 8
left_child=2 6 7 10 -5 -4 -2 13 -9 12 18 -12 -7 -1 -6 16 17 23 -3 -20 26 22 -17 -10 -19 -21 -18 -28 29 -22
right_child=1 3 5 4 14 9 -8 8 15 -11 11 -13 -14 -15 -16 21 20 24 19 25 28 -23 -24 -25 -26 -27 27 -29 -30 -31
leaf_value=-0.030048617130769645 -0.056305630864520541 0.10361300607797078 0.053449398547050435 0.019651584973872364 0.10302436322053872 0.012522476840476124 7.4996363816739171e-05 -0.027047244793117983 -0.055332610971986419 -0.039827514250733408 0.051738324633378463 0.10850895759288504 -0.027469730888824064 -0.058818932147971771 0.073372650544184653 -0.057498909123880275 -0.056607137630853011 -0.041540633866520932 0.06398002459469504 0.10259841834248894 -0.062477586870455841 -0.055774784451614649 -0.039251833168282318 -0.032961462697913724 -0.012384089889110484 0.097789668136139832 -0.034856470586577107 -0.053576183316095573 -0.051453578201840683 -0.04013209628343746
leaf_weight=4.3454558849334717 50.065503001213074 560.40598246455193 6.1388023495674133 6.5636433511972427 7.3427857607603091 6.8221344053745243 4.431601643562316 6.6388996243476868 27.726966932415962 4.20021724700928 4.7955325543880445 5.6225835829973221 3.8743270635604867 725.46980288624763 5.4623098224401474 9.8057291954755765 549.3536177277565 4.6208574175834638 4.7520722448825836 208.5131266862154 26.21174430847168 22.255633383989334 31.194168210029602 4.8828364163637152 4.699733167886734 137.39520385861397 9.0075401067733747 39.764642715454102 204.09998464584351 4.475175857543948
leaf_count=25 316 2266 27 29 30 35 23 38 173 25 20 23 21 4618 23 61 3460 28 20 843 164 139 188 29 26 558 56 250 1277 28
internal_value=-0.000428481 0.0929564 -0.0552476 0.101337 0.0664089 0.00664755 -0.0517209 -0.0560251 -0.0539992 -0.0126391 0.102071 0.082377 -0.00196296 -0.0586476 0.0903757 -0.05419 -0.0546452 -0.0463937 0.102296 0.100191 -0.0550606 -0.0478938 -0.0436159 -0.0519829 -0.026839 0.100688 -0.0560781 -0.0501189 -0.0524685 -0.0592189
internal_weight=2690.94 995.35 1695.59 940.853 19.3687 21.0355 54.4971 1674.55 944.738 14.8967 921.485 10.4181 10.6965 729.815 12.8051 938.099 874.843 41.9304 911.066 350.66 832.913 63.2555 40.9999 32.6098 9.32059 345.908 598.126 48.7722 234.787 30.6869
internal_count=14819 4151 10668 3812 82 108 339 10560 5917 81 3730 43 56 4643 53 5879 5491 256 3687 1421 5235 388 249 202 54 1401 3766 306 1469 192
is_linear=0
shrinkage=0.05


Tree=7
num_leaves=31
num_cat=0
split_feature=4 1 0 0 5 3 3 3 2 6 5 5 6 5 3 2 0 5 5 1 6 0 4 0 2 6 2 6 3 5
split_gain=5020.33 427.688 31.3358 9.06598 6.76142 6.66663 5.62976 3.61003 1.97689 2.12897 1.91717 1.61225 1.44011 1.42548 1.08039 1.04634 1.22062 1.09708 0.940754 0.863804 0.873127 1.30562 0.965398 0.853913 1.2708 1.01476 0.831406 1.29078 0.808298 0.804435
threshold=-1.0000000180025095e-35 -1.0000000180025095e-35 0.45351939568959276 -0.21232613049373006 -0.59117277971013016 -1.2335978218892349 -0.74875388636271312 1.0000000180025095e-35 -0.64109218493520015 -1.2094581817517636 -1.064729039123032 1.3030522579414772 0.52722242398153862 -1.064729039123032 1.1906218557433741 -1.0042953878984231 -1.0000000180025095e-35 -0.35439465000367926 0.35593973911567334 1.0000000180025095e-35 -1.2094581817517636 2.4510559742395617 1.0000000180025095e-35 1.0000000180025095e-35 -1.0000000180025095e-35 0.87455854512819908 0.44851742395446897 -0.51478593945844275 inf 0.59271786882212429
decision_type=8 8 10 8 8 8 10 10 10 8 8 8 8 8 10 8 8 10 10 10 10 10 10 10 8 8 8 8 8 10
left_child=2 6 7 5 -4 -3 -2 13 15 -10 -9 12 -6 -1 18 16 -5 19 -12 -18 -21 22 -22 26 -25 -26 -16 -28 -24 -29
right_child=1 3 4 8 11 -7 -8 10 9 -11 14 -13 -14 -15 23 -17 17 -19 -20 20 21 -23 28 24 25 -27 27 29 -30 -31
leaf_value=-0.029038547666940168 0.014041628927061412 0.090077823484106534 0.049978731363686829 0.072878855778834878 0.011825269259710188 0.0058770736298806442 -0.054876989079530994 -0.026090743555729823 0.096607881085753189 0.061291506428336633 -0.056229286497140402 -0.038740981593541841 -0.026478682317111719 -0.058003581408477833 -0.054393694363367287 0.098576927154240088 0.099787080901386105 0.076702006203725429 -0.052434328720426138 0.096324771232117967 0.10191392788964906 0.079849039641463948 0.090174039767337247 -0.021536916707186937 -0.032558463607181024 -0.061873447291511056 -0.061813868191265123 -0.050294104592541647 0.1007569554015908 -0.041562036875107858
leaf_weight=4.273634135723114 3.1512626707553855 4.5553674846887589 6.2342623025178909 6.1543475538492203 6.8620831519365284 4.857505723834036 49.644695594906807 6.5407146513462067 8.5987980067729932 8.4714969992637652 327.07972365617752 4.1045743227005032 3.8197823017835626 699.54229766130447 113.0646109431982 317.65222325921059 98.285037666559219 7.8587071895599356 326.14535380899906 301.94290059804916 27.921602919697762 19.804932713508606 121.38785107433796 6.1374632865190506 5.1168273985385895 6.9777254462242144 15.764426738023758 60.56567257642746 21.192672163248062 46.721716985106468
leaf_count=25 18 19 27 25 35 22 321 38 35 35 2126 25 21 4618 728 1274 394 32 2114 1211 112 80 488 39 33 45 102 391 85 301
internal_value=-0.000454481 0.0877439 -0.054348 0.0954521 0.00630657 0.0466261 -0.0507634 -0.0551361 0.0959414 0.0790814 -0.0530637 -0.0121065 -0.00187203 -0.0578277 -0.053258 0.0962535 0.0950327 0.0952605 -0.0543345 0.0955075 0.094653 0.0920005 0.093412 -0.0504934 -0.0400676 -0.0494712 -0.0512985 -0.0484544 0.091747 -0.0464914
internal_weight=2640.43 1001.48 1638.95 948.683 21.0207 9.41287 52.796 1617.93 939.271 17.0703 914.114 14.7864 10.6819 703.816 907.574 922.2 604.548 598.394 653.225 590.535 492.25 190.307 170.502 254.348 18.232 12.0946 236.116 123.052 142.581 107.287
internal_count=14819 4151 10668 3812 108 41 339 10560 3771 70 5917 81 56 4643 5879 3701 2427 2402 4240 2370 1976 765 685 1639 117 78 1522 794 573 692
is_linear=0
shrinkage=0.05


Tree=8
num_leaves=31
num_cat=0
split_feature=4 1 0 2 5 2 2 3 5 0 5 5 5 2 3 0 5 2 6 0 6 3 2 2 0 6 6 5 2 5
split_gain=4590.88 381.72 30.1009 8.32721 6.03216 5.613 4.16386 3.67229 3.10028 2.1508 1.89318 1.50235 1.42256 1.40043 1.19756 2.79755 1.11636 1.26106 1.88508 3.57284 1.87526 0.888495 0.888051 1.01826 0.783503 1.05291 0.645855 0.791252 0.763736 1.09614
threshold=-1.0000000180025095e-35 -1.0000000180025095e-35 0.45351939568959276 -0.27788898197197709 -0.59117277971013016 -0.64109218493520015 1.0000000180025095e-35 1.0000000180025095e-35 -0.35439465000367926 1.1193649218729158 -1.064729039123032 1.3030522579414772 -1.064729039123032 1.0000000180025095e-35 -1.2335978218892349 -1.0000000180025095e-35 1.539830387647928 -0.64109218493520015 0.87455854512819908 -0.54524889358539141 -0.51478593945844275 1.1906218557433741 0.81172062691769209 -0.27788898197197709 0.45351939568959276 -0.51478593945844275 -0.51478593945844275 1.3030522579414772 0.81172062691769209 -0.59117277971013016
decision_type=8 8 10 10 8 10 10 10 10 10 8 8 8 8 10 8 10 8 10 10 8 10 8 10 8 10 8 8 8 8
left_child=2 5 7 8 -4 -2 -5 12 14 -10 -9 13 -1 -6 -3 -16 17 18 20 -20 -12 24 23 -18 -19 -26 27 -23 29 -28
right_child=1 3 4 6 11 -7 -8 10 9 -11 16 -13 -14 -15 15 -17 22 21 19 -21 -22 26 -24 -25 25 -27 28 -29 -30 -31
leaf_value=-0.028054750544524411 0.015277513749317984 0.092597596236066421 0.046838880370401216 0.075682676023375819 0.022187256789974307 -0.054037499342818984 0.0091506413472129747 -0.025160626996894222 0.041813970661986076 0.085122883335772448 -0.024070761581030775 -0.037679124840584985 -0.057230193255287311 -0.015477148757153072 0.051948098661084123 0.089439690189673751 -0.055828601002314848 -0.054900244481293603 -0.053072089539434167 0.00388682310658127 -0.057089760457003924 -0.061070862401995787 -0.054066651056765017 -0.03675112085245124 -0.03222537660295146 -0.05170297390673894 -0.036345229997275706 -0.037609398498382365 -0.045688105644630161 -0.053637797275884837
leaf_weight=4.2041214555501938 3.1097177267074576 572.32104821503162 6.3173248171806335 4.8785129189491254 3.8775426149368259 48.03904002904892 4.5402816832065582 6.4458398222923279 5.3333119004964811 6.1985068172216415 5.2837233543395996 4.0116249322891262 674.18931686878204 6.7890438735485086 5.0467282980680466 353.29278965294361 9.1639430969953519 512.72342389822006 5.9272181242704391 5.1412139385938627 23.097323387861255 24.339629784226418 20.852656617760658 29.545899569988251 8.5296252965927106 37.194146037101746 10.041318237781523 4.2162488102912929 76.846729561686516 104.88956232368946
leaf_count=25 18 2290 27 20 20 321 20 38 22 25 34 25 4618 36 21 1414 61 3460 39 30 153 164 139 188 56 250 67 28 511 699
internal_value=-0.00047484 0.0832394 -0.0534831 0.0903915 0.00598693 -0.0498233 0.0436112 -0.0542821 0.0908591 0.0650931 -0.052159 -0.0115952 -0.0570494 -0.0017853 0.0911784 0.0889117 -0.0523573 -0.0528384 -0.044117 -0.026615 -0.0509426 -0.0532802 -0.0457484 -0.0412674 -0.054341 -0.0480695 -0.0505915 -0.0576068 -0.0495469 -0.052127
internal_weight=2586.39 1002.76 1583.63 951.611 20.9955 51.1488 9.41879 1562.63 942.192 11.5318 884.239 14.6782 678.393 10.6666 930.661 358.34 877.793 818.23 39.4495 11.0684 28.381 778.781 59.5625 38.7098 558.447 45.7238 220.333 28.5559 191.778 114.931
internal_count=14819 4151 10668 3812 108 339 40 10560 3772 47 5917 81 4643 56 3725 1435 5879 5491 256 69 187 5235 388 249 3766 306 1469 192 1277 766
is_linear=0
shrinkage=0.05


Tree=9
num_leaves=31
num_cat=0
split_feature=4 1 0 0 6 5 3 3 5 2 5 5 5 6 5 2 0 6 2 0 5 3 2 2 6 1 6 0 4 0
split_gain=4211.08 342.728 28.9365 8.07417 6.18772 5.39127 5.36647 3.7378 1.87088 1.8012 2.01074 1.42108 1.39962 1.33792 1.12246 1.26075 1.87707 1.03639 1.00155 1.12276 0.943894 0.897154 0.883352 1.00707 0.847063 0.845625 0.887846 1.24445 0.918444 0.786755
threshold=-1.0000000180025095e-35 -1.0000000180025095e-35 0.45351939568959276 -0.21232613049373006 -1.2094581817517636 -0.59117277971013016 -0.74875388636271312 1.0000000180025095e-35 -1.064729039123032 -0.64109218493520015 -0.827950909416581 -1.064729039123032 1.3030522579414772 0.52722242398153862 1.539830387647928 -0.64109218493520015 -0.21232613049373006 -1.2094581817517636 -1.0042953878984231 -1.0000000180025095e-35 -0.35439465000367926 1.1906218557433741 0.81172062691769209 -0.27788898197197709 1.2218946662748598 1.0000000180025095e-35 -1.2094581817517636 2.4510559742395617 1.0000000180025095e-35 0.45351939568959276
decision_type=8 8 10 8 10 8 10 10 8 10 8 8 8 8 10 8 10 10 8 8 10 10 8 10 10 10 10 10 10 8
left_child=2 6 7 4 -3 -4 -2 11 -9 18 17 -1 13 -7 15 16 24 -11 19 -5 25 29 23 -16 -10 -21 -27 28 -28 -17
right_child=1 3 5 9 -6 12 -8 8 14 10 -12 -13 -14 -15 22 21 -18 -19 -20 20 -22 -23 -24 -25 -26 26 27 -29 -30 -31
leaf_value=-0.02709632646491781 0.014403592770539148 0.079330228152417484 0.043981657356391729 0.064432678292692558 -0.0010712432222198453 0.011412997454361031 -0.053188062861374674 -0.024256148112305115 -0.052734176146130719 0.094990529635991652 0.04327868126306423 -0.056494415683303351 -0.036640150513107012 -0.025637886339725986 -0.055017376761415576 -0.054088401933847875 -0.022732511978251754 0.066078899794061549 0.089019094095628637 0.090238569242240246 0.068671575489150705 -0.049686018430834152 -0.053220604439059717 -0.035732844777011462 -0.029300608576300458 0.08684570847978336 0.09216151647843121 0.070678858127446273 0.082250957773127131 -0.047135744653559963
leaf_weight=4.136923611164093 3.1349599361419669 4.9310068339109421 6.3893924206495285 6.2276521176099777 4.6492751687765104 6.8834572285413715 46.408023461699486 6.3542608916759491 25.094375506043438 6.4750058650970468 4.8825815469026592 649.44925847649574 3.9214302450418499 3.7715351134538659 8.8422845453023893 494.85248523950577 8.7107075750827772 5.9462685585021946 317.84194326400757 98.260247945785522 7.9617111086845389 213.31290297210217 20.142997205257416 28.885464921593666 4.5566102415323249 302.20433586835861 27.941218584775925 19.967231556773186 143.12477989494801 44.33445343375206
leaf_count=25 18 20 27 25 21 35 321 38 173 26 20 4618 25 21 61 3460 54 24 1274 394 32 1469 139 188 29 1211 112 80 573 306
internal_value=-0.000491047 0.0792983 -0.052651 0.0859816 0.0403117 0.00568549 -0.048911 -0.0534617 -0.0512858 0.0864466 0.070464 -0.0563083 -0.0111012 -0.00170186 -0.0514882 -0.0519801 -0.0431383 0.0811501 0.0867461 0.0855533 0.0857727 -0.0524308 -0.0447663 -0.0402526 -0.049133 0.0860029 0.0851591 0.082491 0.0838697 -0.0535167
internal_weight=2529.59 999.956 1529.64 950.413 9.58028 20.9658 49.543 1508.67 855.087 940.833 17.3039 653.586 14.5764 10.655 848.732 790.862 38.3617 12.4213 923.529 605.687 599.46 752.5 57.8707 37.7277 29.651 591.498 493.238 191.033 171.066 539.187
internal_count=14819 4151 10668 3812 41 108 339 10560 5917 3771 70 4643 81 56 5879 5491 256 50 3701 2427 2402 5235 388 249 202 2370 1976 765 685 3766
is_linear=0
shrinkage=0.05


Tree=10
num_leaves=31
num_cat=0
split_feature=4 1 0 2 5 2 5 3 2 6 5 5 5 5 5 2 6 6 2 3 0 0 6 0 6 5 3 2 0 6
split_gain=3872.85 309.298 27.827 7.61281 7.09862 5.34846 4.82623 3.81087 1.85919 1.77328 1.42072 1.36215 1.31681 2.91173 1.30319 1.28903 1.24956 1.16238 1.02718 0.952801 1.79158 0.872891 0.79507 0.784372 0.904371 0.766643 2.12409 2.33666 1.13013 1.12794
threshold=-1.0000000180025095e-35 -1.0000000180025095e-35 0.45351939568959276 -0.64109218493520015 -0.827950909416581 -0.64109218493520015 -0.59117277971013016 1.0000000180025095e-35 -0.64109218493520015 1.2218946662748598 -1.064729039123032 0.59271786882212429 -0.35439465000367926 0.11916160940922241 1.3030522579414772 1.0000000180025095e-35 -0.51478593945844275 0.52722242398153862 1.0000000180025095e-35 -1.2335978218892349 -1.0000000180025095e-35 1.7852104480562385 -1.2094581817517636 -0.21232613049373006 0.87455854512819908 -0.59117277971013016 1.1906218557433741 1.1749238298809153 -0.54524889358539141 1.5692307874215203
decision_type=8 8 10 10 8 10 8 10 8 10 8 10 10 10 8 8 8 10 10 10 8 10 10 10 10 8 10 8 10 8
left_child=2 5 7 12 21 -2 -4 10 9 16 -1 18 19 -14 15 -8 -9 -18 -10 -3 -21 -5 -22 24 -19 26 -20 28 -28 -27
right_child=1 3 6 4 -6 -7 14 8 11 -11 -12 -13 13 -15 -16 -17 17 23 25 20 22 -23 -24 -25 -26 29 27 -29 -30 -31
leaf_value=-0.026162510092644305 0.015540499287593212 0.084246763398442573 0.041368206219721745 0.062588991038763697 0.011900039316628613 -0.052409237632914232 0.021239053839285826 -0.021591484831203742 -0.05596870339039705 -0.015822846879339714 -0.05579230512510918 -0.048539669248775875 0.037224090465230356 0.089539975196120683 -0.03562253150631977 -0.014871171146218659 -0.057182228627604394 -0.029232946856146049 -0.051070407650085227 0.050894454798585356 0.083301544539123723 0.089074579228361345 0.078421566581271529 -0.015279551355271618 -0.060541516033241177 -0.053430947848514404 -0.028453003052273169 -0.060227525216971771 0.0087923251490603978 -0.042986516707044981
leaf_weight=4.0720338076353073 3.0957055687904349 562.05533881485462 6.4517123401165009 7.2009870707988721 7.2127501368522671 44.882780253887177 3.9035166800022099 5.0583215802907944 160.59297010302544 6.3959783166646949 625.35253807902336 331.90603943169117 4.9517672061920148 5.745746061205864 3.8340292423963573 6.736308380961419 16.575233802199367 4.8084856420755369 39.029126033186913 4.8952604979276657 209.20894967019558 5.4769159257411957 138.86925211548805 3.1266892850399008 4.432923749089241 213.43703553080559 4.6921910196542731 3.6652852743864051 3.5987568199634543 29.41181842982769
leaf_count=25 18 2266 27 29 31 321 20 34 1156 40 4618 2370 20 23 25 36 118 34 281 20 843 22 558 19 31 1538 33 26 25 212
internal_value=-0.000503548 0.0758229 -0.0518464 0.0821067 0.051501 -0.0480249 0.00540239 -0.0526691 -0.0504373 -0.0399762 -0.0556006 -0.0509747 0.0827643 0.0653235 -0.0106293 -0.00162313 -0.0445197 -0.0485267 -0.0527532 0.0829682 0.0809322 0.0740309 0.0813546 -0.036927 -0.0442511 -0.0509958 -0.0454219 -0.0269831 -0.0122863 -0.052166
internal_weight=2470.68 993.595 1477.08 945.617 19.8907 47.9785 20.9256 1456.16 826.731 40.3976 629.425 786.333 925.726 10.6975 14.4739 10.6398 34.0017 28.9433 454.427 915.029 352.973 12.6779 348.078 12.3681 9.24141 293.834 50.9854 11.9562 8.29095 242.849
internal_count=14819 4151 10668 3812 82 339 108 10560 5917 276 4643 5641 3730 43 81 56 236 202 3271 3687 1421 51 1401 84 65 2115 365 84 58 1750
is_linear=0
shrinkage=0.05


Tree=11
num_leaves=31
num_cat=0
split_feature=4 1 0 0 6 3 5 3 5 2 5 5 5 6 5 2 6 0 6 3 2 3 2 2 0 6 6 5 2 5
split_gain=3569.55 280.317 26.7755 7.39201 5.32904 5.11442 4.32616 3.89078 1.91224 1.6673 1.42123 1.24397 1.21302 1.24284 1.16974 1.25628 1.87337 3.42041 1.89287 1.00973 0.960672 0.938477 0.914977 1.03546 0.823704 1.11277 0.698427 0.852467 0.815103 1.11943
threshold=-1.0000000180025095e-35 -1.0000000180025095e-35 0.45351939568959276 -0.21232613049373006 -1.2094581817517636 -0.74875388636271312 -0.59117277971013016 1.0000000180025095e-35 -1.064729039123032 -0.27788898197197709 -1.064729039123032 -0.35439465000367926 1.3030522579414772 0.52722242398153862 1.539830387647928 -0.64109218493520015 0.87455854512819908 -0.54524889358539141 -0.51478593945844275 -1.2335978218892349 -1.3674985908616462 1.1906218557433741 0.81172062691769209 -0.27788898197197709 0.45351939568959276 -0.51478593945844275 -0.51478593945844275 1.3030522579414772 0.81172062691769209 -0.59117277971013016
decision_type=8 8 10 8 10 10 8 10 8 10 8 10 8 8 10 8 10 10 8 10 10 10 8 10 8 10 8 8 8 8
left_child=2 5 7 4 -3 -2 -4 10 -9 11 -1 19 13 -8 15 16 18 -18 -10 -5 -13 24 23 -16 -17 -26 27 -23 29 -28
right_child=1 3 6 9 -6 -7 12 8 14 -11 -12 20 -14 -15 22 21 17 -19 -20 -21 -22 26 -24 -25 25 -27 28 -29 -30 -31
leaf_value=-0.025252639850949582 0.014659790619431345 0.071271764842407589 0.038966837735364107 0.080832139599256572 -0.003066546791863523 -0.051612279485704661 0.011011572786408392 -0.021721608811449022 -0.020804437500945881 0.055871123600296058 -0.055120337022800774 0.078765161885000282 -0.034624965590589252 -0.024825425579472926 -0.053565235659954052 -0.0525746462942756 -0.050866591238037155 0.0064573356715415366 -0.055076147496625809 0.077410641611256062 0.049037482989671199 -0.059422530293151636 -0.051668948028256202 -0.033363552801741747 -0.028263395831472915 -0.049172372246243878 -0.033005073762649224 -0.033920088071583442 -0.04260105292295082 -0.051205469189917377
leaf_weight=4.0094359964132309 3.1208688616752616 4.9585590362548828 6.5053946077823639 558.25087048113346 4.6920555084943754 43.337491393089294 6.9035574048757526 6.0996383726596832 4.9889970272779465 7.6510452181100836 601.92186415195465 4.9866123497486115 3.7494427710771587 3.7245771288871774 8.2552739977836591 461.09470035135746 5.4278905391693115 4.9986968636512739 20.936081036925319 351.34426870942116 5.9727009534835798 21.879752740263939 18.829302117228508 27.383724004030228 7.8450455963611594 33.689472004771233 9.2752760648727399 3.8540305197238949 69.88217431306839 94.76531520485878
leaf_count=25 18 20 27 2271 21 321 35 38 34 31 4618 20 25 21 61 3460 39 30 153 1425 24 164 139 188 56 250 67 28 511 699
internal_value=-0.000513322 0.0727243 -0.0510658 0.078663 0.035129 -0.0471604 0.00513457 -0.051901 -0.0496101 0.0791156 -0.0549227 0.0793088 -0.0101734 -0.00154733 -0.0498246 -0.050346 -0.0412826 -0.0233845 -0.0484809 0.0795105 0.0625639 -0.0508152 -0.0427534 -0.038043 -0.0519672 -0.0452231 -0.0479151 -0.0556031 -0.0467776 -0.0495829
internal_weight=2410.33 984.314 1426.02 937.856 9.65061 46.4584 20.883 1405.14 799.205 928.205 605.931 920.554 14.3776 10.6281 793.106 738.637 36.3517 10.4266 25.9251 909.595 10.9593 702.286 54.4683 35.639 502.629 41.5345 199.657 25.7338 173.923 104.041
internal_count=14819 4151 10668 3812 41 339 108 10560 5917 3771 4643 3740 81 56 5879 5491 256 69 187 3696 44 5235 388 249 3766 306 1469 192 1277 766
is_linear=0
shrinkage=0.05


Tree=12
num_leaves=31
num_cat=0
split_feature=4 1 0 2 2 3 6 5 6 0 5 2 6 5 5 6 2 6 0 2 2 1 6 3 6 6 5 2 0 5
split_gain=3296.19 254.976 25.7718 9.90026 5.09406 3.97196 3.9682 2.66662 1.98036 2.85503 1.8883 1.83089 1.43378 1.42234 1.19349 1.18137 0.998051 2.43564 1.98836 1.05032 0.981404 1.113 0.992309 0.881342 1.05877 1.52255 0.963693 1.89366 0.849671 1.08774
threshold=-1.0000000180025095e-35 -1.0000000180025095e-35 0.45351939568959276 1.0000000180025095e-35 -0.64109218493520015 1.0000000180025095e-35 -0.8621220606051031 -0.35439465000367926 -0.51478593945844275 1.4522876849645774 -1.064729039123032 -1.3674985908616462 0.52722242398153862 -1.064729039123032 0.35593973911567334 1.0000000180025095e-35 -0.64109218493520015 0.87455854512819908 -0.54524889358539141 1.0000000180025095e-35 -1.0000000180025095e-35 1.0000000180025095e-35 -1.2094581817517636 1.1906218557433741 0.87455854512819908 -0.51478593945844275 -0.59117277971013016 0.81172062691769209 -0.54524889358539141 1.539830387647928
decision_type=8 8 10 10 10 10 8 10 10 10 8 10 10 8 10 10 8 10 10 10 8 10 10 10 10 8 8 10 10 10
left_child=2 4 5 7 -2 13 -4 15 -8 12 -7 -9 -10 -1 16 20 17 -12 -19 -18 21 -3 -23 -21 25 -25 27 -27 -16 -30
right_child=1 3 6 -5 -6 10 8 11 9 -11 14 -13 -14 -15 28 -17 19 18 -20 23 -22 22 -24 24 -26 26 -28 -29 29 -31
leaf_value=-0.024366154611762378 0.015705533220344198 0.079924934357780683 0.051671397353111007 0.0026940409843676143 -0.050881085271330617 -0.02091282258230517 -0.034805415952918521 0.07503109407466968 0.0095016901853612976 0.036126078174659765 -0.050873386793942987 0.034877553480800426 -0.032309432063560337 -0.054475305456668489 -0.044732917508927099 0.052818701850843114 -0.055368031887913088 -0.043508295869939373 0.012214869972764462 -0.051631156622620245 0.081562443789739869 0.076536771596872583 0.072619153650962706 -0.058956358260823655 -0.054332962823211477 0.012805877127830941 -0.039595483264619029 -0.043770301872293867 -0.05096237244496974 -0.040352052658909711
leaf_weight=3.9491050392389297 3.0837028026580802 139.9289545416832 3.7219043374061584 4.6360236555337897 41.898228168487549 6.0208075791597366 4.267345577478415 4.9733236879110336 3.7983522862195951 4.5890404731035224 17.185014605522159 6.6149668246507627 4.4555716812610626 579.17388957738876 193.8398135304451 5.3490766882896414 125.14065541327 3.1029307693243027 3.3071717768907538 164.41879393160343 83.147286117076874 420.2893251478672 262.64927762746811 9.0142805576324463 20.103094682097435 2.7520895302295685 30.541656076908112 3.1973254680633545 165.56718856096268 28.280967950820923
leaf_count=25 18 577 16 20 321 38 23 20 20 23 128 27 26 4618 1481 22 971 23 20 1279 343 1728 1075 70 152 20 232 24 1272 207
internal_value=-0.000520893 0.0699404 -0.0503082 0.0755781 -0.0463163 -0.0511563 0.0048822 0.0759442 -0.00529557 0.00450969 -0.0488048 0.0521102 -0.0130685 -0.0542714 -0.0490239 0.0762473 -0.0510201 -0.0410622 -0.014759 -0.0516816 0.0763856 0.0758625 0.0750301 -0.0496761 -0.0447767 -0.0405549 -0.0360093 -0.0175992 -0.0470737 -0.0494144
internal_weight=2349 972.57 1376.43 927.588 44.9819 1355.59 20.8322 922.952 17.1103 12.843 772.472 11.5883 8.25392 583.123 766.451 911.364 378.763 23.5951 6.4101 355.168 906.015 822.868 682.939 230.027 65.6084 45.5054 36.4911 5.94941 387.688 193.848
internal_count=14819 4151 10668 3812 339 10560 108 3792 92 69 5917 47 46 4643 5879 3745 2919 171 43 2748 3723 3380 2803 1777 498 346 276 44 2960 1479
is_linear=0
shrinkage=0.05


Tree=13
num_leaves=31
num_cat=0
split_feature=4 1 0 2 0 3 5 0 5 2 6 5 5 6 6 2 2 1 6 5 3 4 3 2 6 6 0 5 2 3
split_gain=3048.52 232.649 24.8403 9.19938 5.00194 4.05983 3.61806 2.62381 4.5239 1.8946 1.64283 1.4337 1.42386 1.24543 1.20719 1.084 1.01599 1.10795 1.33996 0.946028 1.07957 0.91937 0.98081 0.821738 1.23069 1.81407 0.979446 1.04672 1.43361 1.02339
threshold=-1.0000000180025095e-35 -1.0000000180025095e-35 0.45351939568959276 1.0000000180025095e-35 -1.0000000180025095e-35 1.0000000180025095e-35 -0.59117277971013016 -1.0000000180025095e-35 -1.064729039123032 -0.64109218493520015 1.2218946662748598 0.59271786882212429 -1.064729039123032 -0.51478593945844275 0.52722242398153862 1.0000000180025095e-35 -1.0000000180025095e-35 1.0000000180025095e-35 -1.2094581817517636 1.0662741282350263 -1.0000000180025095e-35 1.0000000180025095e-35 inf -0.27788898197197709 1.0000000180025095e-35 -0.51478593945844275 -0.54524889358539141 1.539830387647928 0.81172062691769209 1.1906218557433741
decision_type=8 8 10 10 8 10 8 8 10 8 10 10 8 8 10 10 8 10 10 10 8 10 8 8 10 10 10 10 8 10
left_child=2 4 5 7 -2 12 -4 8 -3 10 13 15 -1 -7 -15 -11 17 -9 -19 20 -8 -20 -23 24 25 -13 29 -28 -29 -25
right_child=1 3 6 -5 -6 9 19 16 -10 11 -12 23 -14 14 -16 -17 -18 18 21 -21 -22 22 -24 26 -26 -27 27 28 -30 -31
leaf_value=-0.023502558956982861 -0.050967984124440563 0.076488968131771279 0.035297903481434627 0.0025578338167792387 0.0069146780283852148 -0.018178393093705499 -0.01990787960121021 0.07706662460243914 0.023040802095109655 -0.054014719827102535 -0.013434717657829243 -0.053146901567975149 -0.053854293174190618 -0.055349262038135061 -0.033729849210059573 -0.048622583821327191 0.078794072169629303 0.073930379202494081 0.076154948569090664 -0.028851014264583381 0.013516395155696298 0.066792349915902285 0.076578570582920696 -0.044683095742440032 -0.058649240292576635 -0.014360109638885383 -0.050126922569672751 -0.028516117964673644 -0.053546330459839309 -0.034875382941128769
leaf_weight=3.8910095691680908 39.428688138723373 9.0624664872884768 6.5779411941766739 4.6386839002370825 4.1225870996713629 4.7649266421794891 4.2560569941997528 137.3005063533783 7.030243143439292 143.78425960987806 6.1620968282222739 9.0596347823739034 557.11945249140263 14.869952149689203 11.412592291831968 264.9726994484663 82.56498409807682 409.8416696190834 41.976790815591812 4.3878113627433768 5.5873575061559695 193.32392959296703 29.511676922440529 92.349325411021709 27.40468343347311 4.5178947970271102 106.11018635332584 14.296979472041128 9.5363793075084704 37.357243806123734
leaf_count=25 316 37 27 20 23 34 23 575 29 1156 40 72 4618 118 84 2115 346 1709 175 28 30 798 123 729 218 36 847 103 75 290
internal_value=-0.000526505 0.0674194 -0.0495673 0.072792 -0.0454888 -0.0504298 0.00463193 0.0731498 0.0531397 -0.0480148 -0.0370171 -0.0485916 -0.0536438 -0.0416976 -0.0459615 -0.0505193 0.0735098 0.0729724 0.0721392 -0.00954246 -0.000935462 0.0693671 0.0680884 -0.0459706 -0.0525504 -0.0402407 -0.044932 -0.0480001 -0.0385314 -0.0418583
internal_weight=2287.22 958.802 1328.42 915.251 43.5513 1307.61 20.8092 910.612 16.0927 746.599 37.2096 709.389 561.01 31.0475 26.2825 408.757 894.52 811.955 674.654 14.2312 9.84341 264.812 222.836 300.632 40.9822 13.5775 259.65 129.944 23.8334 129.707
internal_count=14819 4151 10668 3812 339 10560 108 3792 66 5917 276 5641 4643 236 202 3271 3726 3380 2805 81 53 1096 921 2370 326 108 2044 1025 178 1019
is_linear=0
shrinkage=0.05


Tree=14
num_leaves=31
num_cat=0
split_feature=4 1 0 2 3 3 6 5 5 6 0 0 5 3 3 0 5 0 2 6 2 6 6 2 5 5 5 6 6 2
split_gain=2823.45 212.864 23.9365 8.58728 4.83825 4.15187 3.35829 2.69782 1.94657 1.85105 2.54575 1.83413 1.42558 1.23754 1.17677 2.00472 1.09027 1.02249 1.49636 1.22855 0.957842 1.51676 1.25526 1.83792 1.62012 0.946114 0.845205 0.827532 0.735509 1.03045
threshold=-1.0000000180025095e-35 -1.0000000180025095e-35 0.45351939568959276 1.0000000180025095e-35 -0.74875388636271312 1.0000000180025095e-35 -0.8621220606051031 -0.35439465000367926 -1.064729039123032 -0.51478593945844275 1.1193649218729158 1.1193649218729158 -1.064729039123032 1.1906218557433741 -1.2335978218892349 -1.0000000180025095e-35 0.35593973911567334 1.0000000180025095e-35 -1.0000000180025095e-35 0.87455854512819908 0.44851742395446897 -1.0000000180025095e-35 0.17988630283487808 1.1749238298809153 -0.35439465000367926 0.59271786882212429 0.59271786882212429 -1.2094581817517636 0.52722242398153862 0.81172062691769209
decision_type=8 8 10 10 10 10 8 10 8 10 10 10 8 10 10 8 10 10 8 8 8 8 10 10 8 10 10 10 8 10
left_child=2 4 5 7 -2 12 -4 14 -7 -8 -11 -9 -1 16 -3 -16 -10 20 -19 -20 -15 -22 23 24 -23 -24 -26 -17 -27 -30
right_child=1 3 6 -5 -6 8 9 11 13 10 -12 -13 -14 17 15 27 -18 18 19 -21 21 22 25 -25 26 28 -28 -29 29 -31
leaf_value=-0.022661431980740374 0.015680620947295436 0.072376353617431374 0.047082577896028599 0.0024285909505709206 -0.049438217036093517 -0.018320795681537976 -0.03389970510889613 0.02514858999744218 -0.051094584604967797 -0.016560638416744815 0.028127175435154746 0.065186504064414938 -0.053254647893037202 -0.048901613816779287 0.038303765238205077 0.071158108679563944 -0.046485143338091978 -0.009269353155851999 -0.022332547346986982 -0.058372441432876614 -0.052367514012540174 0.020715707236252948 -0.047433682011039924 -0.049636425509259396 -0.044009772037842843 -0.050000139147036139 -0.012363611664693068 0.066108838366067013 -0.013829869367704901 -0.038229324170307055
leaf_weight=3.8351105749607086 3.077012598514556 542.76843844354153 3.7720276862382889 4.6411970406770697 39.080935165286064 5.7727340459823608 4.1936033070087495 5.3510929197072965 255.31907298415899 6.8021979331970197 5.9964106231927872 6.1453993767499924 535.76478052139282 89.453337512910366 5.3632273823022842 200.57334062457085 257.83371066302061 5.0079982355237007 4.1337853670120221 5.5252537354826927 25.093499451875687 2.5188570767641068 31.704089261591434 5.610449254512786 3.4624876230955142 5.7801459357142448 5.4010656252503395 136.28149591386318 6.6841877996921601 12.271630734205244
leaf_count=25 18 2303 16 20 321 38 23 22 2126 38 31 25 4618 728 22 850 2114 39 33 45 205 20 256 45 28 46 43 570 53 98
internal_value=-0.000530389 0.0651273 -0.0488431 0.0702648 -0.0446853 -0.0497197 0.00440412 0.070616 -0.0472389 -0.00506989 0.00437652 0.0465507 -0.0530372 -0.0474721 0.0709286 0.0686324 -0.0487786 -0.0441638 -0.0314488 -0.0429484 -0.0451559 -0.041755 -0.0381285 -0.0262147 -0.01467 -0.0417155 -0.024726 0.0691153 -0.0343866 -0.0296256
internal_weight=2225.22 943.282 1281.94 901.124 42.1579 1261.17 20.7642 896.483 721.572 16.9922 12.7986 11.4965 539.6 715.8 884.987 342.218 513.153 202.647 14.667 9.65904 187.98 98.5264 73.4329 16.9929 11.3824 56.4401 8.86355 336.855 24.736 18.9558
internal_count=14819 4151 10668 3812 339 10560 108 3792 5917 92 69 47 4643 5879 3745 1442 4240 1639 117 78 1522 794 589 136 91 453 71 1420 197 151
is_linear=0
shrinkage=0.05


Tree=15
num_leaves=31
num_cat=0
split_feature=4 1 0 2 2 3 5 0 5 2 6 5 5 3 6 6 2 2 1 6 4 3 0 6 5 3 2 6 2 5
split_gain=2617.99 195.222 23.0926 8.04675 4.81008 4.24867 3.05749 2.65591 4.20259 1.98123 1.64107 1.48922 1.42732 1.30777 1.26569 1.25514 1.08875 1.04634 1.15695 1.37116 0.934057 0.975203 0.914083 1.24771 0.864335 1.01007 0.859729 0.848317 1.10543 1.38624
threshold=-1.0000000180025095e-35 -1.0000000180025095e-35 0.45351939568959276 1.0000000180025095e-35 -0.64109218493520015 1.0000000180025095e-35 -0.59117277971013016 -1.0000000180025095e-35 -1.064729039123032 -0.64109218493520015 1.2218946662748598 1.539830387647928 -1.064729039123032 1.1906218557433741 -0.51478593945844275 0.52722242398153862 0.81172062691769209 -1.0000000180025095e-35 1.0000000180025095e-35 -1.2094581817517636 1.0000000180025095e-35 inf 0.45351939568959276 -0.51478593945844275 1.0662741282350263 1.0000000180025095e-35 -0.27788898197197709 -0.51478593945844275 0.44851742395446897 -0.59117277971013016
decision_type=8 8 10 10 10 10 8 8 10 8 10 10 8 10 8 10 8 8 10 10 10 8 8 10 10 10 8 8 8 8
left_child=2 4 5 7 -2 12 -4 8 -3 10 14 13 -1 22 -7 -16 26 18 -9 -20 -21 -22 -11 -24 25 -8 -13 -15 -29 -30
right_child=1 3 6 -5 -6 9 24 17 -10 11 -12 16 -14 27 15 -17 -18 -19 19 20 21 -23 23 -25 -26 -27 -28 28 29 -31
leaf_value=-0.021842404828663394 0.016583851067917977 0.07088228814015457 0.032195432750159104 0.002305951254643869 -0.048757783915574164 -0.015560022074205255 -0.019276746404776002 0.072380395028222633 0.019166200626073104 -0.049891354468870046 -0.010944281276579856 -0.049750210116953228 -0.052673935774977809 -0.053226274127664189 -0.05424388489047708 -0.031491133429362043 -0.0489025546090254 0.074136020409764608 0.06909976730032899 0.071374450049045579 0.061799731456981824 0.07172563981445261 -0.022587614172815705 -0.046110583392072801 -0.027686885458636873 0.013115749636684736 -0.028829056617581273 -0.04756894582434873 -0.018360630736715428 -0.040968713038492331
leaf_weight=3.7813654989004135 3.0434387326240531 8.9059952050447446 6.6274540275335312 4.6435720324516288 37.77498733997345 4.5529597401618958 4.2175254076719302 132.3661615550518 7.0284616053104392 402.69868946820498 5.9399641156196585 6.1298331618309021 515.11183485388756 22.234713800251484 13.809863135218626 10.802605405449865 16.508957467973232 79.539002448320389 396.04153454303741 40.554027780890465 188.02158661186695 28.495689615607262 6.9594264999032012 29.673302590847015 4.2934490740299216 5.6047831773757935 24.687451228499416 67.426871478557587 7.4207777008414268 78.560116276144981
leaf_count=25 18 37 27 20 321 34 23 575 29 3481 40 52 4618 192 118 84 139 346 1709 175 798 123 56 252 28 30 188 570 59 652
internal_value=-0.000532974 0.0630249 -0.0481312 0.0679526 -0.0438859 -0.0490233 0.00418027 0.0682986 0.0480711 -0.0464743 -0.0348989 -0.0470879 -0.0524493 -0.0477456 -0.0397776 -0.0442575 -0.0385411 0.0686713 0.0681179 0.067254 0.0644104 0.0631061 -0.0492035 -0.0416417 -0.00897305 -0.000793015 -0.0329905 -0.044099 -0.0427761 -0.0390175
internal_weight=2163.46 926.414 1237.04 885.596 40.8184 1216.3 20.7432 880.952 15.9345 697.406 35.1054 662.3 518.893 614.974 29.1654 24.6125 47.3262 865.018 785.479 653.113 257.071 216.517 439.331 36.6327 14.1158 9.82231 30.8173 175.642 153.408 85.9809
internal_count=14819 4151 10668 3812 339 10560 108 3792 66 5917 276 5641 4643 5262 236 202 379 3726 3380 2805 1096 921 3789 308 81 53 240 1473 1281 711
is_linear=0
shrinkage=0.05


Tree=16
num_leaves=31
num_cat=0
split_feature=4 1 0 0 2 3 6 5 5 6 0 2 5 5 3 0 2 6 0 2 2 3 6 6 5 2 2 0 5 0
split_gain=2430.04 179.42 22.2621 11.3038 7.56648 4.34447 2.85552 2.74458 1.98832 1.73004 2.25129 1.70905 1.42894 1.27363 1.21897 1.95398 1.05429 2.43476 1.95153 1.15652 1.04678 0.947874 1.15754 1.63636 0.953031 1.94784 0.948565 1.25333 1.46889 0.914567
threshold=-1.0000000180025095e-35 -1.0000000180025095e-35 0.45351939568959276 1.0000000180025095e-35 1.0000000180025095e-35 1.0000000180025095e-35 -0.8621220606051031 -0.35439465000367926 -1.064729039123032 -0.51478593945844275 1.1193649218729158 -1.3674985908616462 -1.064729039123032 0.35593973911567334 -1.2335978218892349 -1.0000000180025095e-35 -0.64109218493520015 0.87455854512819908 -0.54524889358539141 1.0000000180025095e-35 -0.64109218493520015 1.1906218557433741 0.87455854512819908 -0.51478593945844275 -0.59117277971013016 0.81172062691769209 0.81172062691769209 -0.21232613049373006 1.0000000180025095e-35 -0.54524889358539141
decision_type=8 8 10 10 10 10 8 10 8 10 10 10 8 10 10 8 8 10 10 10 10 10 10 8 8 10 10 8 8 10
left_child=2 3 5 -2 7 12 -4 14 -7 -8 -11 -9 -1 16 -3 -16 17 -10 -19 -18 -17 -21 23 -23 25 -25 -26 28 -28 -15
right_child=1 4 6 -5 -6 8 9 11 13 10 -12 -13 -14 29 15 20 19 18 -20 21 -22 22 -24 24 26 -27 27 -29 -30 -31
leaf_value=-0.021045136789542011 -0.049667703308678667 0.067998847526036743 0.043091384123110664 0.065725825664769214 0.0021895665872287361 -0.015921902232971928 -0.033006041325436879 0.06428999570796172 -0.048071766025919019 -0.015683333951233409 0.026371555829932752 0.025028613142436693 -0.052109924893059302 -0.041237238909869828 0.03413434152474077 0.064950521725004637 -0.053106340148965751 -0.040642881722879061 0.016581602387891924 -0.048872112110265084 0.040849129830348961 -0.057251146889815419 -0.051988008795046309 0.019130938834310999 -0.045635071632578079 -0.040781524768263716 -0.05782583966922325 -0.0059818068082254259 -0.018836897968814999 -0.046425578610159668
leaf_weight=3.7297271639108658 37.274152785539627 522.38659802079201 3.8073493391275406 2.2504059672355643 4.6458168625831595 5.5511266887187958 4.1220715790987077 4.8245377391576767 15.079058162868025 6.7134397774934751 6.0501713901758194 6.5146492123603803 495.15906718373299 170.40391770005226 5.3454191088676453 320.61108791828156 107.7154091373086 2.8160926476120949 3.1636222600936881 142.2611747533083 4.5693978667259207 7.7386195510625839 17.545339599251747 2.5630144625902176 12.456948414444925 2.8821966946125031 4.562721073627471 4.8176159337162963 5.1337795481085768 169.34890074282885
leaf_count=25 327 2303 16 12 20 38 23 20 128 38 31 27 4618 1481 22 1401 971 23 20 1279 19 70 152 20 108 24 39 41 44 1479
internal_value=-0.000534316 0.0610891 -0.0474336 -0.0430976 0.0658283 -0.0483406 0.00397593 0.0661704 -0.0457227 -0.00484375 0.00425141 0.0417333 -0.0518777 -0.0459701 0.0664953 0.064119 -0.0481888 -0.0373656 -0.0103678 -0.0489296 0.0646119 -0.0466797 -0.0412743 -0.0365931 -0.0316615 -0.0125812 -0.0355136 -0.0268267 -0.0371833 -0.0438234
internal_weight=2102.04 908.422 1193.62 39.5246 868.898 1172.93 20.693 864.252 674.04 16.8857 12.7636 11.3392 498.889 668.488 852.913 330.526 328.736 21.0588 5.97971 307.677 325.18 199.961 57.7002 40.1549 32.4163 5.44521 26.9711 14.5141 9.6965 339.753
internal_count=14819 4151 10668 339 3812 10560 108 3792 5917 92 69 47 4643 5879 3745 1442 2919 171 43 2748 1420 1777 498 346 276 44 232 124 83 2960
is_linear=0
shrinkage=0.05


Tree=17
num_leaves=31
num_cat=0
split_feature=4 1 0 0 2 3 0 5 5 2 6 0 6 5 5 3 2 2 1 6 4 3 0 6 2 6 2 5 2 5
split_gain=2257.5 165.189 21.4815 10.4534 7.13553 4.44243 2.7035 3.94726 2.59078 2.00419 1.55943 4.31598 1.60176 1.55036 1.43029 1.35648 1.12138 1.08921 1.21674 1.45406 0.959904 0.992579 0.951773 1.27176 0.879838 0.870502 1.11778 1.34966 3.38618 1.03437
threshold=-1.0000000180025095e-35 -1.0000000180025095e-35 0.45351939568959276 1.0000000180025095e-35 1.0000000180025095e-35 1.0000000180025095e-35 -1.0000000180025095e-35 -1.064729039123032 -0.59117277971013016 -0.64109218493520015 0.87455854512819908 -0.54524889358539141 -0.51478593945844275 1.539830387647928 -1.064729039123032 1.1906218557433741 0.81172062691769209 -1.0000000180025095e-35 1.0000000180025095e-35 -1.2094581817517636 1.0000000180025095e-35 inf 0.45351939568959276 -0.51478593945844275 -0.27788898197197709 -0.51478593945844275 0.44851742395446897 -0.59117277971013016 1.1749238298809153 1.3030522579414772
decision_type=8 8 10 10 10 10 8 10 8 8 10 10 8 10 8 10 8 8 10 10 10 8 8 10 8 8 8 8 8 8
left_child=2 3 5 -2 6 14 7 -3 -4 10 12 -12 -7 15 -1 22 24 18 -8 -20 -21 -22 -11 -24 -15 29 -27 28 -28 -17
right_child=1 4 8 -5 -6 9 17 -9 -10 13 11 -13 -14 16 -16 25 -18 -19 19 20 21 -23 23 -25 -26 26 27 -29 -30 -31
leaf_value=-0.020269336100640339 -0.048995635124133706 0.066156458013835101 0.029446593971233184 0.060485020103092327 0.0020791152431354864 -0.013068631483864883 0.068483614993601269 0.015725506937675715 -0.0084347266341580889 -0.048594561207730397 -0.048762573560269085 0.015627194430741648 -0.046743939929040329 -0.048461990904026642 -0.051560554518432757 -0.056877464458594408 -0.047551219663941033 0.070291399979025421 0.065055249859810704 0.067345888580059701 0.057455956729290186 0.067677979393278576 -0.020220391489587541 -0.044601388479645454 -0.026594056236428361 -0.046114871329328427 0.012308210304712037 -0.03924138207615871 -0.057524445994929355 -0.025774372292511456
leaf_weight=3.6801443845033646 35.930343225598335 8.6927807331085187 6.6605022698640823 2.3211956173181525 4.6479391902685157 4.3622443974018097 126.72206085920334 7.0082912743091574 14.002629533410074 374.64897581189871 5.2739277631044388 5.1377355456352216 18.533762745559219 5.7213418483734131 475.90176378190517 17.426403813064098 15.418540224432943 76.073354795575142 380.23956821858883 38.898025929927826 181.72945666313171 27.318143784999847 6.6262830048799506 27.739684998989105 23.461780667304996 62.91490113735199 4.2066259905695915 73.924869380891323 2.9556152448058128 3.1573912650346783
leaf_count=25 327 37 27 12 20 34 575 29 81 3481 44 33 165 52 4618 164 139 346 1709 175 798 123 56 252 188 570 33 652 26 28
internal_value=-0.00053494 0.0592943 -0.0467453 -0.0423521 0.0638614 -0.0476682 0.0642006 0.0436462 0.00377584 -0.0449797 -0.0330324 -0.0169888 -0.040328 -0.0456234 -0.0513204 -0.0463217 -0.036644 0.064589 0.0640143 0.0631127 0.0601337 0.0587918 -0.0478641 -0.0399004 -0.0308813 -0.0424886 -0.0411138 -0.0372335 -0.0165094 -0.0521065
internal_weight=2041.34 889.581 1151.76 38.2515 851.33 1131.09 846.682 15.7011 20.6631 651.51 33.3077 10.4117 22.896 618.202 479.582 573.601 44.6017 830.981 754.907 628.185 247.946 209.048 409.015 34.366 29.1831 164.586 144.002 81.0871 7.16224 20.5838
internal_count=14819 4151 10668 339 3812 10560 3792 66 108 5917 276 77 199 5641 4643 5262 379 3726 3380 2805 1096 921 3789 308 240 1473 1281 711 59 192
is_linear=0
shrinkage=0.05


Tree=18
num_leaves=31
num_cat=0
split_feature=4 1 0 0 0 5 3 6 5 6 0 5 2 5 3 6 2 6 2 3 6 6 0 5 2 3 2 6 6 2
split_gain=2098.85 152.33 20.7249 9.69421 7.03285 7.55978 4.53822 2.4249 2.02087 1.59836 2.00728 1.43124 1.36396 1.33525 1.0985 1.10287 1.04963 2.3171 1.20886 0.958449 1.19575 1.65148 0.946565 1.21293 1.48304 2.23188 1.24635 1.5457 1.19521 0.998015
threshold=-1.0000000180025095e-35 -1.0000000180025095e-35 0.45351939568959276 1.0000000180025095e-35 -1.0000000180025095e-35 -1.064729039123032 1.0000000180025095e-35 -0.8621220606051031 -1.064729039123032 -0.51478593945844275 1.1193649218729158 -1.064729039123032 -0.27788898197197709 0.35593973911567334 -1.2335978218892349 -1.2094581817517636 -0.64109218493520015 0.87455854512819908 1.0000000180025095e-35 1.1906218557433741 0.87455854512819908 -0.51478593945844275 -0.54524889358539141 1.539830387647928 -0.64109218493520015 0.70577792021685226 0.81172062691769209 0.17988630283487808 -0.51478593945844275 -0.27788898197197709
decision_type=8 8 10 10 8 10 10 8 8 10 10 8 10 10 10 10 8 10 10 10 10 8 10 10 10 10 8 10 10 8
left_child=2 3 6 -2 5 -3 11 -4 -8 -9 -11 -1 14 16 -6 -16 17 -10 -18 -20 21 -21 29 24 25 -24 27 28 -25 -15
right_child=1 4 7 -5 12 -7 8 9 13 10 -12 -13 -14 22 15 -17 18 -19 19 20 -22 -23 23 26 -26 -27 -28 -29 -30 -31
leaf_value=-0.019514727746572605 -0.048334445559961289 0.063825797975649787 0.039474107527534601 0.055887648351462683 0.06437182757835673 -0.0023315314195332866 -0.013644410372942449 -0.031966534553308668 -0.046752648768911144 -0.014925625146267919 0.024807751012347709 -0.051023933613582984 0.04143559970084023 -0.048066580659419676 0.063058782649382014 0.057038728368247117 -0.052079199085539679 -0.0093691886463471586 -0.047558872525038494 -0.056496645096217005 -0.050943508444447227 -0.029771511372792034 -0.050046349587086973 -0.029864496036365502 -0.048546580862091356 -0.0086349845828774877 -0.050652409681713043 -0.040697985802211456 0.010973563509501627 -0.03769821023264578
leaf_weight=3.6325645446777344 34.633741572499275 8.5629932284355181 3.8333835452795029 2.3848038762807837 493.76704762876034 8.7106994390487653 5.3489423394203186 4.0487809181213441 14.135317094624044 6.6389276534318906 6.0984282493591309 457.33266481757164 7.4691554605960837 28.175375014543533 185.60663263499737 128.92424754798412 99.814814426004887 5.8647876232862464 132.22846308350563 7.1166655719280243 16.414612166583538 30.791179440915585 7.0107614174485189 3.5522922277450562 121.3537992015481 6.0713098868727684 7.9960667863488224 8.611587814986704 3.6148491725325576 131.66908317059278
leaf_count=25 327 37 16 12 2277 37 38 23 128 38 31 4618 31 264 853 577 971 43 1279 70 152 276 65 30 1154 53 75 72 30 1217
internal_value=-0.000534674 0.0576254 -0.0460671 -0.0416203 0.0620356 0.0304643 -0.0470059 0.0035933 -0.0442466 -0.00460066 0.00409804 -0.0507756 0.0627041 -0.0445088 0.0629007 0.0605912 -0.0468646 -0.0357904 -0.047638 -0.0452618 -0.0396703 -0.0347888 -0.0422395 -0.0449813 -0.0468223 -0.0308276 -0.0345708 -0.0264213 -0.00926724 -0.0395258
internal_weight=1981.41 870.059 1111.35 37.0185 833.041 17.2737 1090.74 20.6195 629.77 16.7861 12.7374 460.965 815.767 624.421 808.298 314.531 306.366 20.0001 286.366 186.551 54.3225 37.9078 318.055 158.211 134.436 13.0821 23.7748 15.7787 7.16714 159.844
internal_count=14819 4151 10668 339 3812 74 10560 108 5917 92 69 4643 3738 5879 3707 1430 2919 171 2748 1777 498 346 2960 1479 1272 118 207 132 60 1481
is_linear=0
shrinkage=0.05


end of trees

feature_importances:
Friends_circle_size=131
Social_event_attendance=109
Post_frequency=109
Time_spent_Alone=99
Going_outside=64
Stage_fear=30
Drained_after_socializing=28

parameters:
[boosting: gbdt]
[objective: binary]
[metric: auc]
[tree_learner: serial]
[device_type: cpu]
[data_sample_strategy: bagging]
[data: ]
[valid: ]
[num_iterations: 1000]
[learning_rate: 0.05]
[num_leaves: 31]
[num_threads: 0]
[seed: 42]
[deterministic: 0]
[force_col_wise: 0]
[force_row_wise: 0]
[histogram_pool_size: -1]
[max_depth: -1]
[min_data_in_leaf: 20]
[min_sum_hessian_in_leaf: 0.001]
[bagging_fraction: 1]
[pos_bagging_fraction: 1]
[neg_bagging_fraction: 1]
[bagging_freq: 0]
[bagging_seed: 400]
[bagging_by_query: 0]
[feature_fraction: 1]
[feature_fraction_bynode: 1]
[feature_fraction_seed: 30056]
[extra_trees: 0]
[extra_seed: 12879]
[early_stopping_round: 0]
[early_stopping_min_delta: 0]
[first_metric_only: 0]
[max_delta_step: 0]
[lambda_l1: 0]
[lambda_l2: 0]
[linear_lambda: 0]
[min_gain_to_split: 0]
[drop_rate: 0.1]
[max_drop: 50]
[skip_drop: 0.5]
[xgboost_dart_mode: 0]
[uniform_drop: 0]
[drop_seed: 17869]
[top_rate: 0.2]
[other_rate: 0.1]
[min_data_per_group: 100]
[max_cat_threshold: 32]
[cat_l2: 10]
[cat_smooth: 10]
[max_cat_to_onehot: 4]
[top_k: 20]
[monotone_constraints: ]
[monotone_constraints_method: basic]
[monotone_penalty: 0]
[feature_contri: ]
[forcedsplits_filename: ]
[refit_decay_rate: 0.9]
[cegb_tradeoff: 1]
[cegb_penalty_split: 0]
[cegb_penalty_feature_lazy: ]
[cegb_penalty_feature_coupled: ]
[path_smooth: 0]
[interaction_constraints: ]
[verbosity: -1]
[saved_feature_importance_type: 0]
[use_quantized_grad: 0]
[num_grad_quant_bins: 4]
[quant_train_renew_leaf: 0]
[stochastic_rounding: 1]
[linear_tree: 0]
[max_bin: 255]
[max_bin_by_feature: ]
[min_data_in_bin: 3]
[bin_construct_sample_cnt: 200000]
[data_random_seed: 175]
[is_enable_sparse: 1]
[enable_bundle: 1]
[use_missing: 1]
[zero_as_missing: 0]
[feature_pre_filter: 1]
[pre_partition: 0]
[two_round: 0]
[header: 0]
[label_column: ]
[weight_column: ]
[group_column: ]
[ignore_column: ]
[categorical_feature: ]
[forcedbins_filename: ]
[precise_float_parser: 0]
[parser_config_file: ]
[objective_seed: 16083]
[num_class: 1]
[is_unbalance: 0]
[scale_pos_weight: 1]
[sigmoid: 1]
[boost_from_average: 1]
[reg_sqrt: 0]
[alpha: 0.9]
[fair_c: 1]
[poisson_max_delta_step: 0.7]
[tweedie_variance_power: 1.5]
[lambdarank_truncation_level: 30]
[lambdarank_norm: 1]
[label_gain: ]
[lambdarank_position_bias_regularization: 0]
[eval_at: ]
[multi_error_top_k: 1]
[auc_mu_weights: ]
[num_machines: 1]
[local_listen_port: 12400]
[time_out: 120]
[machine_list_filename: ]
[machines: ]
[gpu_platform_id: -1]
[gpu_device_id: -1]
[gpu_use_dp: 0]
[num_gpu: 1]

end of parameters

pandas_categorical:[]
