tree
version=v4
num_class=1
num_tree_per_iteration=1
label_index=0
max_feature_idx=6
objective=binary sigmoid:1
feature_names=Time_spent_Alone Stage_fear Social_event_attendance Going_outside Drained_after_socializing Friends_circle_size Post_frequency
feature_infos=[-1.0446330382228837:2.6175173557853921] [-0.56478182284430711:1.7705952273107579] [-1.912303395306481:1.7197286343257496] [-1.9608637251790175:1.4330438235066347] [-0.55237242946563847:1.8103727605800204] [-1.8934524930956105:1.6582194525011531] [-1.7304623634717544:1.7428988479948502]
tree_sizes=3381 3411 3418 3434 3417 3448 3434 3456 3440 3457 3452 3467 3458 3463 3470 3465 3472 3455 3466 3461 3453 3455 3460 3462 3461 3432 3453 3455 3465 3473 3469 3443 3461 3455 3474 3449 3448 3461 3441 3455 3437 3443 3465 3447 3473 3441 3440 3429 3437 3444 3412 3471 3463 3425 3432 3433 3433 3444 3454 3430 3404 3466 3451 3416 3427 3448 3426 3433 3434 3455 3453 3444 3447 3459 3457 3419 3457 3417 3460 3421 3428 3429 3437 3396 3435 3430 3421 3409 3418 3409 3460 3404 3465 3433 3413 3400 3447 3424 3406 3406 3442 3435 3417 3435 3437 3417 3455 3395 3475 3383 3452 3414 3446 3434 3404 3461 3423 3457 3420 3407 3455 3417 3439 3422 3409 3437 3400 3429 3396 3457 3398 3438 3425 3397 3444 3416 3430 3425 3386 3410 3444 3405 3448 3418 3412 3401 3378 3440 3441 3431 3438 3399 3413 3392 3425 3442 3427

Tree=0
num_leaves=31
num_cat=0
split_feature=4 1 0 0 3 5 0 2 5 3 5 3 6 3 3 6 5 5 5 5 5 3 0 2 5 5 3 6 5 1
split_gain=10992.1 1401.25 46.807 45.2428 19.5887 12.7434 6.43453 4.6382 4.62265 4.13784 3.80386 3.41737 2.57039 2.84397 1.8309 1.79011 3.21848 1.77997 1.53253 3.97916 1.5257 1.38442 1.17672 1.82312 1.17097 1.19279 0.941383 0.929766 1.03919 0.909246
threshold=-1.0000000180025095e-35 -1.0000000180025095e-35 -1.0000000180025095e-35 0.45351939568959276 -1.2335978218892349 -0.59117277971013016 -1.0000000180025095e-35 -0.64109218493520015 -1.064729039123032 1.0000000180025095e-35 -0.35439465000367926 -1.2335978218892349 -1.5567943028984239 -1.2335978218892349 -0.2639099508361914 -1.2094581817517636 -1.7750634282423847 1.3030522579414772 -1.5382852985359337 -1.3015071688294826 -1.064729039123032 0.70577792021685226 1.7852104480562385 -1.3674985908616462 1.539830387647928 -1.064729039123032 1.1906218557433741 -0.51478593945844275 -0.59117277971013016 1.0000000180025095e-35
decision_type=8 8 8 10 10 8 8 10 10 10 10 10 10 10 10 10 8 8 10 10 8 10 10 8 10 8 10 10 8 10
left_child=3 6 4 9 8 -5 -2 10 -3 20 12 -9 -4 29 15 16 -15 21 -17 22 -1 -7 23 -20 25 -11 -27 -28 -29 -14
right_child=1 2 7 5 -6 17 -8 11 -10 24 -12 -13 13 14 -16 18 -18 -19 19 -21 -22 -23 -24 -25 -26 26 27 28 -30 -31
leaf_value=-1.0800451745123274 -1.1057705554575148 -0.86341520731425769 -0.85922216792323647 -0.9679789169715034 -1.0129757305078846 -1.0592789031469352 -1.0434784792819627 -0.87158375811358157 -0.93814232018214661 -1.0838705402901627 -0.89943326171595483 -0.92322402178746821 -0.85590674142801049 -0.89611534241885271 -0.89968626209808678 -0.86549738692977163 -0.85972801424511847 -1.0852367423536753 -0.90724013065031284 -0.87111021893680918 -1.1082653115110441 -1.0246684508712813 -0.91475687945535356 -0.8634152073142578 -1.0974238445807127 -1.1050643655974224 -1.1081043626072324 -1.0907553380905415 -1.1015967250469991 -0.86360382394017454
leaf_weight=4.8155009746551514 64.527713060379028 4.2376408576965323 256.37727189064026 5.5859811305999756 7.1269414424896231 7.7048015594482404 4.4302608966827384 7.5121815204620361 4.0450208187103263 7.3195614814758301 7.3195614814758292 5.5859811305999738 46.614049434661865 6.7417013645172119 5.2007410526275626 36.019947290420532 61.638412475585938 3.8524007797241273 5.3933610916137695 48.732869863510132 887.5931396484375 4.6228809356689453 7.1269414424896231 4.237640857696535 72.617754697799683 758.53771352767944 48.540249824523926 24.462744951248169 229.21784639358521 216.89016389846802
leaf_count=25 335 22 1331 29 37 40 23 39 21 38 38 29 242 35 27 187 320 20 28 253 4608 24 37 22 377 3938 252 127 1190 1126
internal_value=-1.04359 -0.886314 -0.865984 -1.1048 -0.952203 -1.03309 -1.10177 -0.864127 -0.89991 -1.10556 -0.863577 -0.893607 -0.863199 -0.865524 -0.870463 -0.869569 -0.863315 -1.05557 -0.873781 -0.878337 -1.10811 -1.0463 -0.899355 -0.887957 -1.10357 -1.10399 -1.10412 -1.10176 -1.10055 -0.862242
internal_weight=2854.63 799.758 730.8 2054.87 15.4096 21.7661 68.958 715.391 8.28266 2033.1 702.293 13.0982 694.973 438.596 175.092 169.891 68.3801 16.1801 101.511 65.4908 892.409 12.3277 16.7579 9.631 1140.7 1068.08 1060.76 302.221 253.681 263.504
internal_count=14820 4152 3794 10668 80 113 358 3714 43 10555 3646 68 3608 2277 909 882 355 84 527 340 4633 64 87 50 5922 5545 5507 1569 1317 1368
is_linear=0
shrinkage=1


Tree=1
num_leaves=31
num_cat=0
split_feature=4 1 0 2 0 5 0 5 3 5 3 6 5 5 5 5 2 6 2 5 5 2 6 0 3 5 0 0 5 6
split_gain=9496.31 1116.04 43.182 37.5312 12.4997 11.0964 6.16988 5.79341 4.10709 2.40832 2.16471 2.43085 1.66123 3.41959 1.65258 1.49771 1.44157 1.38625 1.32112 1.21618 1.15487 1.17995 1.53666 1.08645 1.05396 1.04582 1.25201 1.22725 0.962029 1.1293
threshold=-1.0000000180025095e-35 -1.0000000180025095e-35 0.45351939568959276 1.0000000180025095e-35 -1.0000000180025095e-35 -0.59117277971013016 -1.0000000180025095e-35 -1.064729039123032 1.0000000180025095e-35 -0.35439465000367926 -1.2335978218892349 -1.2094581817517636 -1.5382852985359337 -1.3015071688294826 1.3030522579414772 -1.064729039123032 -1.0042953878984231 0.52722242398153862 -1.0042953878984231 -1.7750634282423847 1.539830387647928 -0.64109218493520015 1.2218946662748598 0.78644215878125423 1.1906218557433741 -1.5382852985359337 1.4522876849645774 2.1181332111478999 -0.59117277971013016 1.0000000180025095e-35
decision_type=8 8 10 10 8 8 8 10 10 10 10 10 10 10 8 8 10 8 8 10 10 8 10 10 10 10 10 8 8 10
left_child=2 6 8 4 7 -4 -2 -3 15 10 23 16 -13 18 17 -1 -12 -7 -14 -18 21 22 -10 -6 -23 -21 -27 -28 29 -26
right_child=1 3 5 -5 9 14 -8 -9 20 -11 11 12 13 -15 -16 -17 19 -19 -20 25 -22 24 -24 -25 28 26 27 -29 -30 -31
leaf_value=-0.0352726552581384 -0.060955615502369088 0.14031710165751818 0.069282491378278174 0.010118162840361841 0.16331624483051421 0.010410099843365212 0.0001012757233873096 0.075270628837359771 -0.055117098321837733 0.1303311513289723 0.16041755554010609 0.15669712462176499 0.11722548871679846 0.15034449368154434 -0.040401279079681496 -0.063482686516042483 0.13242108113644924 -0.024246206807925698 0.14585114545175984 0.16861810653981402 -0.05254811118514089 -0.060574283806112454 -0.029451526238164934 0.15806928246899529 -0.066618426080647483 0.16034944212147131 0.1264820506156441 0.15821486031224552 -0.057898924253528473 -0.042208870754867185
leaf_weight=4.7309126704931259 62.587485611438751 7.1306519061326981 5.7855728715658188 4.4089819043874732 140.32942244410515 7.6946068555116591 4.430487096309661 6.5837847739458066 43.58480130136013 8.2222968041896802 133.23151405155659 40.622568547725677 13.334813982248304 56.506637573242188 3.7750363349914613 859.82492065429688 8.1134309172630292 4.6167641133070036 5.7766852378845241 8.969560548663134 70.729498207569122 701.46322010457516 6.7328742593526831 332.24015349149704 6.1782643347978619 12.098615303635603 8.3501935750246066 4.7973725646734193 258.60132178664207 20.331402450799942
leaf_count=25 335 35 29 22 672 40 23 33 233 40 638 195 65 272 20 4608 39 24 28 43 377 3753 36 1591 33 58 40 23 1382 108
internal_value=-0.000129992 0.138987 -0.0599708 0.155591 0.156407 0.00989783 -0.0569192 0.109091 -0.0607457 0.157247 0.157536 0.15415 0.148542 0.144161 -0.0114602 -0.0633283 0.157864 -0.00258602 0.125878 0.149826 -0.0587298 -0.0591515 -0.0516829 0.159627 -0.0595324 0.153953 0.148742 0.138061 -0.056969 -0.0478977
internal_weight=2851.78 857.735 1994.05 790.717 786.308 21.872 67.018 13.7144 1972.18 772.593 764.371 291.801 116.241 75.6181 16.0864 864.556 175.561 12.3114 19.1115 42.3292 1107.62 1036.89 50.3177 472.57 986.574 34.2157 25.2462 13.1476 285.111 26.5097
internal_count=14820 4152 10668 3794 3772 113 358 68 10555 3704 3664 1401 560 365 84 4633 841 64 93 203 5922 5545 269 2263 5276 164 121 63 1523 141
is_linear=0
shrinkage=0.05


Tree=2
num_leaves=31
num_cat=0
split_feature=4 1 0 2 0 5 0 3 3 5 2 6 3 5 5 6 3 5 5 0 6 6 5 2 2 5 5 5 5 3
split_gain=8335.63 918.218 41.2617 29.9425 9.79612 9.71245 5.92516 5.23664 4.09684 1.88236 1.82205 1.60338 1.62961 1.5342 1.47522 1.26159 1.16135 1.15132 1.29001 1.02524 0.9952 0.965668 2.13365 0.94895 0.847336 0.836604 0.802187 0.878361 1.19363 1.77394
threshold=-1.0000000180025095e-35 -1.0000000180025095e-35 0.45351939568959276 1.0000000180025095e-35 -1.0000000180025095e-35 -0.59117277971013016 -1.0000000180025095e-35 -1.2335978218892349 1.0000000180025095e-35 -0.35439465000367926 -0.64109218493520015 -1.5567943028984239 -0.2639099508361914 1.3030522579414772 -1.064729039123032 0.52722242398153862 -1.2335978218892349 -1.064729039123032 0.35593973911567334 -0.54524889358539141 0.52722242398153862 -1.2094581817517636 -1.7750634282423847 0.81172062691769209 -1.0042953878984231 1.539830387647928 -0.827950909416581 -1.5382852985359337 -1.3015071688294826 -0.74875388636271312
decision_type=8 8 10 10 8 8 8 8 10 10 10 10 10 8 8 8 10 8 10 10 10 10 8 10 8 8 8 10 10 10
left_child=2 6 8 4 7 -4 -2 -3 14 10 11 -6 16 15 -1 -7 -13 -10 -19 20 23 22 -18 -20 26 -22 27 -23 29 -29
right_child=1 3 5 -5 9 13 -8 -9 17 -11 -12 12 -14 -15 -16 -17 21 18 19 -21 25 24 -24 -25 -26 -27 -28 28 -30 -31
leaf_value=-0.034120464551024084 -0.059799096375698295 0.12450160813188255 0.063810491428005128 0.0095682232413848572 0.14410714567269498 0.009839206276443779 9.6211945718847734e-05 0.063226473331036537 -0.037293348888347046 0.11744623533345244 0.12175917023740293 0.14170948528951141 0.11330650064433852 -0.03918912900492829 -0.062366811786552123 -0.023313347019346967 0.11593731988127796 -0.059422294340559026 -0.059275451363018164 -0.058187139267587146 -0.052001910763828429 0.13620554047413069 0.14374184704949283 -0.050923967308390432 0.14020836291065805 -0.039447946663277028 0.14061958273341243 0.09902634921286628 0.13008841389578205 0.13740457709668161
leaf_weight=4.6482667326927185 60.657127127051353 8.36443944275379 5.9627852737903595 4.4287482202053061 295.07094779610634 7.7329944074153874 4.4307019859552375 5.9792881160974494 6.9730794876813889 8.6559321582317335 12.261766850948332 303.03763625025749 5.8842192739248267 3.699163198471072 832.15132141113281 4.5628255158662805 7.6433160156011581 531.44349640607834 102.17185662686825 261.55483970046043 106.46939289569855 22.768534645438194 70.922934919595718 50.988291233778 36.119775712490082 15.160509020090101 16.974070206284523 9.0239807367324811 26.417831182479858 4.5187212377786627
leaf_count=25 335 39 29 22 1331 40 23 29 38 40 56 1368 27 20 4608 24 35 2929 563 1441 587 103 320 281 164 83 77 42 120 21
internal_value=-0.000224738 0.125183 -0.0588038 0.139233 0.139922 0.00934672 -0.0557219 0.0989586 -0.0595866 0.140639 0.140887 0.141181 0.139465 -0.0109569 -0.0622099 -0.00246329 0.139775 -0.0575442 -0.0576764 -0.0559465 -0.0538137 0.136758 0.141037 -0.0564952 0.133856 -0.0504371 0.130977 0.128367 0.123901 0.111832
internal_weight=2836.68 903.16 1933.52 838.072 833.643 21.9578 65.0878 14.3437 1911.56 819.3 810.644 798.382 503.311 15.995 836.8 12.2958 497.427 1074.76 1067.79 536.345 274.79 194.389 78.5663 153.16 115.823 121.63 79.7031 62.7291 39.9605 13.5427
internal_count=14820 4152 10668 3794 3772 113 358 68 10555 3704 3664 3608 2277 84 4633 64 2250 5922 5884 2955 1514 882 355 844 527 670 363 286 183 63
is_linear=0
shrinkage=0.05


Tree=3
num_leaves=31
num_cat=0
split_feature=4 1 0 0 5 5 0 3 5 2 3 5 5 5 6 3 3 5 2 6 3 5 6 0 0 3 6 2 6 5
split_gain=7402.24 773.39 39.4661 23.5772 13.8093 8.53781 5.69783 4.1048 2.22875 1.88916 2.21623 1.83025 1.45731 1.42405 1.31466 1.33259 1.25239 1.15375 1.20438 1.53803 1.08594 0.985662 1.14695 1.22912 1.13193 0.968442 0.823614 0.894432 0.806077 1.74371
threshold=-1.0000000180025095e-35 -1.0000000180025095e-35 0.45351939568959276 -1.0000000180025095e-35 -0.827950909416581 -0.59117277971013016 -1.0000000180025095e-35 1.0000000180025095e-35 -1.3015071688294826 -0.64109218493520015 -1.2335978218892349 -0.35439465000367926 -1.064729039123032 1.3030522579414772 -1.5567943028984239 -0.2639099508361914 0.70577792021685226 1.539830387647928 -0.64109218493520015 1.2218946662748598 1.1906218557433741 -0.59117277971013016 1.0000000180025095e-35 -0.87817165667705288 -0.54524889358539141 -1.2335978218892349 1.2218946662748598 0.44851742395446897 -1.2094581817517636 -1.7750634282423847
decision_type=8 8 10 8 8 8 8 10 10 10 10 10 8 8 10 10 10 10 8 10 10 8 10 8 10 10 10 8 10 8
left_child=2 6 7 4 8 -4 -2 12 -3 11 -11 14 -1 16 -5 25 -7 18 19 -9 -20 22 -22 -24 -25 -16 -19 -28 29 -27
right_child=1 3 5 9 -6 13 -8 17 -10 10 -12 -13 -14 -15 15 -17 -18 26 20 -21 21 -23 23 24 -26 28 27 -29 -30 -31
leaf_value=-0.033001329306456634 -0.058707481494008951 0.1285876004046512 0.05902035728161209 0.13087410670781363 0.0091742960686201826 -0.014818188216739164 9.1396394962574545e-05 -0.052650168082117289 0.083062108556811953 0.12654731581812881 0.087981710376138722 0.10504197511533034 -0.061323558392131217 -0.038012103177669884 0.12876314565464461 0.10354777127005926 0.018097369588542671 -0.05250828588650025 -0.058342620216551615 -0.026364356177140592 -0.064660925093929178 -0.055542993767192107 -0.014336344742109104 -0.065190996471256549 -0.036232942284250801 0.10589628432788444 -0.020269879419009984 -0.049438016326745528 0.12174085706056165 0.13054922542277073
leaf_weight=4.5676831156015396 58.74439001083374 4.6605637967586526 6.1201121807098389 308.28687663376331 6.2284997999668148 7.6269228011369687 4.4309062510728827 41.088494658470154 6.3531009107828114 8.8462593853473646 6.4351429939270011 8.5587561726570112 804.69003295898438 3.6249315738678005 316.45157466828823 6.1105239391326895 4.6528361588716507 56.075702577829361 659.27421532571316 6.4367299526929846 5.7853768318891552 243.42451618611813 3.9324356913566589 5.0041645169258162 10.362808644771572 7.9413314163684845 4.4582936912775022 6.4029736965894699 120.83925928175449 74.095718681812286
leaf_count=25 335 21 29 1331 30 40 23 233 29 39 29 38 4608 20 1368 27 24 316 3753 36 33 1382 22 28 58 35 25 36 527 320
internal_value=-0.000295567 0.114365 -0.0577005 0.126566 0.0686767 0.0088358 -0.0545835 -0.058492 0.102327 0.12773 0.110307 0.128046 -0.0611637 -0.0104752 0.128282 0.126761 -0.00234639 -0.0564175 -0.0568533 -0.0490901 -0.0572509 -0.0545705 -0.0451336 -0.0392799 -0.045663 0.127034 -0.0500674 -0.0374652 0.124338 0.128163
internal_weight=2811.51 937.983 1873.53 874.808 17.2422 22.0248 63.1753 1851.5 11.0137 857.565 15.2814 842.284 809.258 15.9047 833.725 525.438 12.2798 1042.25 975.309 47.5252 927.784 268.509 25.0848 19.2994 15.367 519.328 66.937 10.8613 202.876 82.0371
internal_count=14820 4152 10668 3794 80 113 358 10555 50 3714 68 3646 4633 84 3608 2277 64 5922 5545 269 5276 1523 141 108 86 2250 377 61 882 355
is_linear=0
shrinkage=0.05


Tree=4
num_leaves=31
num_cat=0
split_feature=4 1 0 0 6 5 0 3 2 5 3 6 5 5 3 5 5 5 6 0 2 0 2 6 2 0 5 0 6 1
split_gain=6631.31 662.962 37.7852 19.9512 12.4914 7.53252 5.48575 4.12738 1.68863 1.44324 1.38185 1.56323 1.34178 2.21872 1.33836 1.32155 1.16696 1.32301 1.14956 1.07959 1.78715 1.04764 1.01295 1.00649 0.972091 0.950133 1.74856 0.9732 1.11145 0.908164
threshold=-1.0000000180025095e-35 -1.0000000180025095e-35 0.45351939568959276 -1.0000000180025095e-35 -1.2094581817517636 -0.59117277971013016 -1.0000000180025095e-35 1.0000000180025095e-35 -0.27788898197197709 -1.064729039123032 -1.2335978218892349 -1.2094581817517636 -1.5382852985359337 -1.3015071688294826 -1.7184417574157564 1.3030522579414772 -1.064729039123032 0.35593973911567334 0.52722242398153862 1.7852104480562385 -1.3674985908616462 -0.54524889358539141 -1.0042953878984231 0.52722242398153862 0.81172062691769209 2.1181332111478999 -1.7750634282423847 1.4522876849645774 -1.5567943028984239 1.0000000180025095e-35
decision_type=8 8 10 8 10 8 8 10 10 8 10 10 10 10 10 8 8 10 8 10 8 10 10 10 10 8 10 10 10 10
left_child=2 6 7 4 14 -4 -2 9 10 -1 29 22 -13 19 -3 18 -9 -18 -7 20 -14 23 -12 24 -19 26 -24 -28 -29 -5
right_child=1 3 5 8 -6 15 -8 16 -10 -11 11 12 13 -15 -16 -17 17 21 -20 -21 -22 -23 25 -25 -26 -27 27 28 -30 -31
leaf_value=-0.031913381663931144 -0.057673388924285085 0.12045936080038565 0.054785482209699969 0.12378267768372186 0.018418488458743002 0.0094286275004165539 8.6823278576576702e-05 -0.034450723136048307 0.090891305433735692 -0.060345020124475561 0.11992221700888371 0.11782535640151348 0.085075355887330742 0.11184830108886096 0.082784177591865613 -0.036867526638018629 -0.057307482184179075 -0.057149314106570995 -0.022325642543325471 0.079900259952459016 0.12280045374597273 -0.056014673498399586 0.083780051063718483 -0.047965019960927391 -0.048438895642891985 0.12371526809230947 0.12089707793112713 0.090984891557393865 0.12019169699595994 0.11831078388442536
leaf_weight=4.4892545789480209 56.855833604931831 5.0397627204656601 6.2597445100545883 91.062741309404373 8.1570375561714155 7.7595559507608387 4.4311002343893042 6.6395685225725174 5.9259390085935584 777.54109954833984 152.8463177382946 46.334674432873726 6.7171144187450409 65.775511130690575 4.428602412343027 3.5524627566337612 498.9345016926527 95.923891916871071 4.504811257123948 8.81658887863159 5.8940354436635989 245.75196152925491 6.3729545623063997 114.83226254582405 48.088593751192093 12.142880499362944 16.226150840520866 8.0914150178432447 5.4522423148155204 453.24446846544743
leaf_count=25 335 22 29 381 38 40 23 38 26 4608 640 195 29 278 20 20 2929 563 24 38 25 1441 27 670 281 51 68 34 23 1899
internal_value=-0.000349604 0.105637 -0.0566539 0.116443 0.0637685 0.00836007 -0.0534973 -0.0574547 0.117492 -0.0601818 0.117672 0.115143 0.11095 0.107296 0.102838 -0.0100135 -0.0553435 -0.0554818 -0.002235 0.0933229 0.102707 -0.0536765 0.117928 -0.0514566 -0.0542407 0.111615 0.107549 0.112638 0.102743 0.119226
internal_weight=2778.09 963.815 1814.28 902.528 17.6254 22.0766 61.2869 1792.2 884.903 782.03 878.977 334.67 133.538 87.2032 9.46837 15.8168 1010.17 1003.53 12.2644 21.4277 12.6111 504.597 201.132 258.845 144.012 48.2856 36.1428 29.7698 13.5437 544.307
internal_count=14820 4152 10668 3794 80 113 358 10555 3714 4633 3688 1408 565 370 42 84 5922 5884 64 92 54 2955 843 1514 844 203 152 125 57 2280
is_linear=0
shrinkage=0.05


Tree=5
num_leaves=31
num_cat=0
split_feature=4 1 0 0 5 5 0 3 5 2 3 5 5 5 5 2 6 2 5 6 3 3 5 6 0 0 6 2 5 0
split_gain=5981.51 576.106 36.2061 17.3897 11.1096 6.6661 5.28708 4.16438 1.84729 1.58172 1.86387 1.64095 1.43236 1.22608 1.18181 1.23785 1.54436 1.15985 3.80286 1.12908 1.14708 1.12659 1.01497 1.1713 1.21033 1.14848 0.82466 0.879873 0.820826 1.13366
threshold=-1.0000000180025095e-35 -1.0000000180025095e-35 0.45351939568959276 -1.0000000180025095e-35 -0.827950909416581 -0.59117277971013016 -1.0000000180025095e-35 1.0000000180025095e-35 -1.3015071688294826 -0.64109218493520015 -1.2335978218892349 -0.35439465000367926 -1.064729039123032 1.3030522579414772 1.539830387647928 -0.64109218493520015 1.2218946662748598 1.0000000180025095e-35 0.35593973911567334 -1.5567943028984239 -0.2639099508361914 1.1906218557433741 -0.59117277971013016 1.0000000180025095e-35 -0.87817165667705288 -0.54524889358539141 1.2218946662748598 0.44851742395446897 0.35593973911567334 -0.87817165667705288
decision_type=8 8 10 8 8 8 8 10 10 10 10 10 8 8 10 8 10 8 10 10 10 10 8 10 8 10 10 8 10 10
left_child=2 6 7 4 8 -4 -2 12 -3 11 -11 19 -1 17 15 16 -9 -7 -19 -5 -21 28 23 -23 -25 -26 -16 -28 -17 -30
right_child=1 3 5 9 -6 13 -8 14 -10 10 -12 -13 -14 -15 26 21 -18 18 -20 20 -22 22 -24 24 25 -27 27 -29 29 -31
leaf_value=-0.03085500309762015 -0.056690303732977836 0.11174695656407026 0.05100949687892891 0.11196335538806307 0.0062892816730431957 0.019925727421036224 8.2478739364217696e-05 -0.050371854707655567 0.071384031127987108 0.108091453612835 0.073708115518251668 0.088252763090316877 -0.059424240527414122 -0.035753103805760682 -0.050228041713814342 -0.05805502464814663 -0.0234089893776806 -0.044636823847888051 0.023454389830790033 0.1084986670514492 0.087309136730188266 -0.062987570994045602 -0.053394775539390031 -0.011301537234903012 -0.063451521425405652 -0.033359845813642874 -0.017462186496658066 -0.047067555218821333 -0.049691137441383086 -0.056472435163299618
leaf_weight=4.413050040602684 54.996973946690559 4.9303379207849511 6.3836151957511902 325.02707058191299 6.3544078767299679 4.0097718685865376 4.4312842786312094 38.668821200728416 6.6691781133413288 9.3693320602178591 6.8036285042762747 9.0751145482063276 750.78884124755859 3.4818521142005947 52.839862793684006 327.43584063649178 6.1562516540288916 4.3942665904760361 3.8445673286914825 547.83935825526714 6.4622578769922248 5.4007098227739361 228.68898510932922 3.7836331874132156 4.6772405654192015 9.844806164503094 4.2886433452367765 6.0502508729696274 88.663389086723328 202.13872097432613
leaf_count=25 335 21 29 1331 30 21 23 233 29 39 29 38 4608 20 316 1991 36 23 20 2250 27 33 1382 22 28 58 25 36 536 1226
internal_value=-0.000391251 0.0984357 -0.055657 0.108156 0.0594292 0.00791629 -0.052457 -0.0564678 0.0885402 0.109123 0.0936271 0.109405 -0.0592573 -0.00957146 -0.0543152 -0.0547717 -0.0466688 -0.00212894 -0.0128628 0.109624 0.108252 -0.0551889 -0.0523739 -0.042526 -0.0364892 -0.0430517 -0.0477012 -0.034787 -0.0563381 -0.0544049
internal_weight=2737.91 981.959 1755.95 922.531 17.9539 22.1141 59.4283 1733.84 11.5995 904.577 16.173 888.404 755.202 15.7305 978.637 915.458 44.8251 12.2486 8.23883 879.329 554.302 870.633 252.395 23.7064 18.3057 14.522 63.1788 10.3389 618.238 290.802
internal_count=14820 4152 10668 3794 80 113 358 10555 50 3714 68 3646 4633 84 5922 5545 269 64 43 3608 2277 5276 1523 141 108 86 377 61 3753 1762
is_linear=0
shrinkage=0.05


Tree=6
num_leaves=31
num_cat=0
split_feature=4 1 0 0 3 5 0 3 5 2 5 5 5 5 3 5 3 6 0 6 2 5 5 0 2 2 3 5 2 6
split_gain=5424.99 506.072 34.7173 15.4542 10.6957 5.9164 5.10023 4.21153 1.75883 1.48025 1.42412 1.27611 1.191 1.33778 1.18621 1.13654 1.12597 1.11198 1.05657 1.02296 1.00079 0.958905 2.33994 0.931737 1.56654 0.88711 0.855489 1.10518 1.43715 1.01868
threshold=-1.0000000180025095e-35 -1.0000000180025095e-35 0.45351939568959276 -1.0000000180025095e-35 -1.2335978218892349 -0.59117277971013016 -1.0000000180025095e-35 1.0000000180025095e-35 -1.064729039123032 -0.27788898197197709 -1.064729039123032 -0.35439465000367926 -1.064729039123032 0.35593973911567334 -1.2335978218892349 1.3030522579414772 0.70577792021685226 -1.2094581817517636 -0.54524889358539141 0.52722242398153862 0.81172062691769209 -1.5382852985359337 -1.3015071688294826 1.7852104480562385 -1.3674985908616462 -1.0042953878984231 1.1906218557433741 -0.35439465000367926 1.1749238298809153 -0.51478593945844275
decision_type=8 8 10 8 10 8 8 10 10 10 8 10 8 10 10 8 10 10 10 10 10 10 10 10 8 10 10 8 8 8
left_child=2 6 7 4 8 -4 -2 10 -3 11 -1 14 -9 26 -5 16 -7 25 19 20 -15 -19 23 24 -23 -16 -14 28 29 -28
right_child=1 3 5 9 -6 15 -8 12 -10 -11 -12 -13 13 18 17 -17 -18 21 -20 -21 -22 22 -24 -25 -26 -27 27 -29 -30 -31
leaf_value=-0.029824820175323365 -0.055752462944649361 0.10941285391981199 0.047617695728564419 0.10392630104733958 0.012559338060038517 -0.0139850634031096 7.8351268641472128e-05 -0.031691716588457167 0.06775475122370743 0.077788963062731198 -0.058555096076064142 0.084281617329742944 -0.056712274443377945 -0.055259990769278594 0.10433356505758136 -0.034666874419569553 0.017219369796883485 0.10237275979373524 -0.054030738464426888 -0.045690416768989994 -0.046151725188103558 0.072005143089649074 0.09832711293963671 0.067405353572853738 0.10658168249931238 0.096681811669027048 -0.06227931931974684 -0.055630361818599663 -0.062734422413267085 -0.038937112639618673
leaf_weight=4.3391190469264984 53.172408565878868 5.3595016449689865 6.4934372156858444 557.37037979066372 8.046582490205763 7.550157353281973 4.4314594119787207 6.3175757080316544 4.8057047873735446 6.1981271207332602 724.50363922119141 9.7146129757165891 335.6608959287405 89.999208152294159 157.92454820871353 3.4131729602813747 4.6845926344394684 48.120886296033859 230.4511784017086 108.44415970146656 45.358239516615868 7.0156909227371216 66.203218042850494 9.1945189982652646 6.1450979113578814 49.830833047628403 5.3812182545661926 80.015184327960014 10.506096437573431 35.566526398062706
leaf_count=25 335 22 29 2252 37 40 23 38 21 26 4608 40 2111 563 638 20 24 195 1441 670 281 29 269 38 25 202 34 500 65 219
internal_value=-0.000423804 0.0923829 -0.054705 0.101236 0.055627 0.00749524 -0.0514574 -0.0555265 0.0897186 0.102141 -0.0583841 0.102307 -0.0533288 -0.053474 0.102501 -0.00915442 -0.00203712 0.100194 -0.0516033 -0.0493088 -0.0522078 0.0966914 0.0936042 0.0796178 0.0881498 0.102498 -0.0553732 -0.0519542 -0.0462374 -0.0420047
internal_weight=2692.22 993.534 1698.68 935.93 18.2118 22.1414 57.6039 1676.54 10.1652 917.718 728.843 911.52 947.7 941.383 901.805 15.6479 12.2347 344.435 474.253 243.802 135.357 136.679 88.5585 22.3553 13.1608 207.755 467.13 131.469 51.4538 40.9477
internal_count=14820 4152 10668 3794 80 113 358 10555 43 3714 4633 3688 5922 5884 3648 84 64 1396 2955 1514 844 556 361 92 54 840 2929 818 318 253
is_linear=0
shrinkage=0.05


Tree=7
num_leaves=31
num_cat=0
split_feature=4 1 0 0 6 0 5 3 2 3 5 5 5 2 6 3 5 6 3 6 6 5 0 0 3 2 5 6 2 5
split_gain=4942.3 448.488 33.318 13.965 9.66883 5.34059 5.26155 4.26983 1.43846 1.6601 1.41808 1.40681 1.21671 1.27601 1.55423 1.15096 1.05375 1.04599 1.05949 1.04149 1.03208 1.56318 1.18813 1.16187 0.973308 0.921593 1.35877 0.828054 0.865765 0.820915
threshold=-1.0000000180025095e-35 -1.0000000180025095e-35 0.45351939568959276 -1.0000000180025095e-35 -1.2094581817517636 1.1193649218729158 -0.59117277971013016 1.0000000180025095e-35 -0.64109218493520015 -1.2335978218892349 -1.064729039123032 -0.35439465000367926 1.539830387647928 -0.64109218493520015 1.2218946662748598 1.1906218557433741 1.3030522579414772 -1.5567943028984239 -0.2639099508361914 0.52722242398153862 1.0000000180025095e-35 -0.59117277971013016 -0.87817165667705288 -0.54524889358539141 -1.7184417574157564 1.1749238298809153 0.11916160940922241 1.2218946662748598 0.44851742395446897 0.35593973911567334
decision_type=8 8 10 8 10 8 8 10 10 10 8 10 10 8 10 10 8 10 10 8 10 8 8 10 10 10 10 10 8 10
left_child=2 5 7 4 24 25 -4 10 11 -10 -1 17 13 14 -9 29 19 -5 -19 -8 -17 22 -22 -24 -3 -2 -27 -14 -29 -15
right_child=1 3 6 8 -6 -7 16 12 9 -11 -12 -13 27 15 -16 20 -18 18 -20 -21 21 -23 23 -25 -26 26 -28 28 -30 -31
leaf_value=-0.028821645984833083 -0.057226602712369401 0.10002301145520485 0.044551289795683173 0.098921921161285592 0.012701000354329887 0.013472447379040584 0.0090871117273750024 -0.048245784101270471 0.09514858854455438 0.063199825706219279 -0.057732136551648362 0.077192724882797992 -0.048090783166147205 -0.056279158416579239 -0.020563494212098618 -0.055707553575581353 -0.033607144247048415 0.095623883056559986 0.075560628196478546 -0.021261935467459386 -0.0088545991220941277 -0.049933105157153601 -0.062105874491974772 -0.030968671943713666 0.068770466725511847 -0.061962116581701199 -0.022684284980392311 -0.014778816111375921 -0.044827405084018161 -0.052506020780320295
leaf_weight=4.2674928903579712 43.759420365095139 5.3407668471336365 6.5907295197248459 332.04184697568417 8.4021077901124936 3.0828700065612784 7.7798468470573399 36.356443449854851 9.6387669742107409 7.0325731188058844 698.74365234375 9.3449425846338254 49.732691958546638 305.5860950499773 5.8922803252935401 65.414648666977882 3.3464798331260708 560.4928784519434 6.6582945734262458 4.4402488321065912 3.6665946841239929 154.24725042283535 4.3933954238891628 9.4192440360784513 4.6693255007267016 3.8740577399730665 5.1011838614940643 4.1303712129592878 5.7124446630477905 272.88650558888912
leaf_count=25 284 22 29 1331 38 16 40 233 39 29 4608 38 316 1991 36 423 20 2250 27 24 22 992 28 58 20 25 33 25 36 1762
internal_value=-0.000449135 0.0872213 -0.0537919 0.0953675 0.0522494 -0.0504936 0.00710591 -0.0546246 0.0962255 0.0816714 -0.0575566 0.0964926 -0.0523779 -0.0528578 -0.044385 -0.0532966 -0.00874808 0.0966932 0.0953883 -0.00194041 -0.0503631 -0.0483272 -0.0341562 -0.0408725 0.0854449 -0.0542331 -0.0396381 -0.0454684 -0.032218 -0.0544992
internal_weight=2642.05 999.439 1642.61 943.622 18.4122 55.8175 22.1573 1620.45 925.209 16.6713 703.011 908.538 917.438 857.862 42.2487 815.614 15.5666 899.193 567.151 12.2201 237.141 171.726 17.4792 13.8126 10.0101 52.7347 8.97524 59.5755 9.84282 578.473
internal_count=14820 4152 10668 3794 80 358 113 10555 3714 68 4633 3646 5922 5545 269 5276 84 3608 2277 64 1523 1100 108 86 42 342 58 377 61 3753
is_linear=0
shrinkage=0.05


Tree=8
num_leaves=31
num_cat=0
split_feature=4 1 0 0 5 3 0 5 3 3 2 6 5 5 5 5 5 0 6 2 2 5 2 5 3 5 2 6 0 5
split_gain=4518.95 400.318 31.9959 12.846 8.93381 8.34223 5.10599 4.68831 4.336 1.42845 2.46647 1.67674 1.41381 1.21818 1.36566 1.1053 1.97596 1.09309 1.04031 1.03524 1.01096 4.57905 0.91706 1.32815 0.859544 1.11241 1.46879 1.02279 1.07353 0.848603
threshold=-1.0000000180025095e-35 -1.0000000180025095e-35 0.45351939568959276 -1.0000000180025095e-35 -1.064729039123032 -1.2335978218892349 1.1193649218729158 -0.59117277971013016 1.0000000180025095e-35 -1.2335978218892349 -0.64109218493520015 -1.2094581817517636 -1.064729039123032 -1.064729039123032 0.35593973911567334 -1.5382852985359337 -1.3015071688294826 -0.54524889358539141 0.52722242398153862 0.81172062691769209 0.81172062691769209 0.59271786882212429 1.1749238298809153 0.11916160940922241 1.1906218557433741 -0.35439465000367926 1.1749238298809153 -0.51478593945844275 -0.54524889358539141 1.539830387647928
decision_type=8 8 10 8 8 8 8 8 10 10 10 10 8 8 10 10 10 10 10 10 10 10 10 10 10 8 8 8 10 10
left_child=2 6 8 4 -3 -6 22 -4 12 -5 11 -11 -1 -10 24 -13 -17 18 19 -16 21 -9 -2 -24 -15 26 27 -26 -29 -20
right_child=1 3 7 9 5 -7 -8 20 13 10 -12 15 -14 14 17 16 -18 -19 29 -21 -22 -23 23 -25 25 -27 -28 28 -30 -31
leaf_value=-0.027844463035555319 -0.056404404789576749 0.086815246906553512 0.041763351682935941 0.092678646476836213 0.065499507200466225 -0.025711637162664072 0.012714814104311273 0.012396574019060046 -0.029031447252586363 0.09207040672192511 0.059464661114589895 0.091082864770828942 -0.056950503897474386 -0.054992959592159919 -0.053498101867854156 0.06889862421063439 0.085980267911580185 -0.052216551352976065 -0.045250618668084941 -0.043942439154066343 0.0093589797304345478 -0.055059877678257631 -0.061245721262894182 -0.02186319819714011 -0.060915339179557049 -0.053891470831778955 -0.061442293266340632 -0.04609798700501451 -0.028253478001621903 -0.031611440161350854
leaf_weight=4.1981875896453857 42.216614589095116 8.5248170644044858 6.6768446862697601 573.89007323980331 4.7386070042848587 5.3226477801799792 3.1027133464813224 5.663154751062395 6.0133352726697922 208.44567778706551 7.0987788885831824 48.235183551907539 673.556396484375 313.09001407027245 84.239058822393417 22.578066721558571 67.678426802158356 215.96770222485065 89.230718553066254 42.71659417450428 5.297177165746688 4.5266359001398087 3.7271255403757078 5.029971644282341 5.00002421438694 74.901813149452209 9.8328953832387906 15.981488555669779 17.833447977900509 13.075420409440992
leaf_count=25 284 35 29 2296 20 25 16 30 38 834 29 193 4608 2111 563 91 271 1441 587 281 29 25 25 33 34 500 65 104 115 83
internal_value=-0.000469082 0.0827541 -0.052914 0.0903134 0.0491554 0.0172466 -0.0495594 0.00674032 -0.0537585 0.0911378 0.0886401 0.0892371 -0.0567702 -0.0514596 -0.0516125 0.0849727 0.0817072 -0.049664 -0.0472594 -0.0502829 -0.00835904 -0.0175698 -0.0533499 -0.0386249 -0.0535994 -0.0500679 -0.0441809 -0.0398081 -0.0366871 -0.0435074
internal_weight=2588.39 1000.59 1587.8 946.512 18.5861 10.0613 54.0764 22.1638 1565.64 927.926 354.036 346.937 677.755 887.883 881.869 138.492 90.2565 445.229 229.262 126.956 15.487 10.1898 50.9737 8.7571 436.64 123.55 48.6479 38.815 33.8149 102.306
internal_count=14820 4152 10668 3794 80 45 358 113 10555 3714 1418 1389 4633 5922 5884 555 362 2955 1514 844 84 55 342 58 2929 818 318 253 219 670
is_linear=0
shrinkage=0.05


Tree=9
num_leaves=31
num_cat=0
split_feature=4 1 0 2 0 3 5 5 5 5 3 0 5 2 6 3 6 6 5 0 0 5 2 5 2 5 5 5 1 2
split_gain=4144.66 359.495 30.7476 16.3744 4.88533 4.41056 4.18579 4.14604 2.23106 1.41096 1.27618 1.55548 1.23708 1.32094 1.56285 1.18194 1.12221 1.05766 1.54863 1.18887 1.15288 0.926582 1.1001 3.58576 0.913655 1.29956 0.8992 1.87441 0.872951 0.834713
threshold=-1.0000000180025095e-35 -1.0000000180025095e-35 0.45351939568959276 1.0000000180025095e-35 1.1193649218729158 1.0000000180025095e-35 -0.59117277971013016 -0.35439465000367926 0.11916160940922241 -1.064729039123032 -1.2335978218892349 -1.0000000180025095e-35 1.539830387647928 -0.64109218493520015 1.2218946662748598 1.1906218557433741 -1.2094581817517636 1.0000000180025095e-35 -0.59117277971013016 -0.87817165667705288 -0.54524889358539141 1.3030522579414772 1.0000000180025095e-35 0.35593973911567334 1.1749238298809153 0.11916160940922241 -1.5382852985359337 -1.3015071688294826 1.0000000180025095e-35 -0.27788898197197709
decision_type=8 8 10 10 8 10 8 10 10 8 10 8 10 8 10 10 10 10 8 8 10 8 8 10 10 10 10 10 10 10
left_child=2 4 5 7 24 9 -4 10 -9 -1 28 -12 13 14 -7 -15 -13 -17 19 -19 -21 22 -8 -24 -2 -26 -18 -28 -3 -14
right_child=1 3 6 -5 -6 12 21 8 -10 -11 11 16 29 15 -16 17 26 18 -20 20 -22 -23 23 -25 25 -27 27 -29 -30 -31
leaf_value=-0.026892407433507876 -0.055618957759178966 0.092587987170617905 0.039215940925143578 -0.0056187389002520004 0.012005030030741104 -0.04621917709175255 0.019761920950580009 0.031946459937890713 0.076992001000147081 -0.056205854666799095 0.056989315302588342 0.087107893540500803 -0.056284513031336705 -0.052797254113237872 -0.017820927637599453 -0.054071283651684336 0.086810535616065485 -0.0062310024312927882 -0.048011103467658162 -0.060849929405021798 -0.028897308648477522 -0.031788680943666929 -0.043567694727846329 0.022770555046617194 -0.06057972462721542 -0.02106404409291196 0.066113685942361569 0.082581503435209383 0.087341804584054966 -0.040520882936314125
leaf_weight=4.1312064975500107 40.710411548614502 95.001882165670395 6.7529870718717575 4.860405981540679 3.121356487274169 34.146385908126831 4.0132414698600742 5.162006735801695 5.8799677640199661 648.97991180419922 5.1029980033636093 209.77955201268196 10.274786129593847 540.45890147984028 5.6458118110895148 61.100670903921127 48.694993034005165 3.5446212440729141 144.78648386895657 4.1011925935745266 9.057956397533415 3.2323081493377712 4.3085675090551376 3.863693967461586 3.5833366960287076 4.961542010307312 23.171145960688591 67.958400905132294 479.59045967459679 45.969835728406906
leaf_count=25 284 381 29 22 16 233 21 21 24 4608 22 841 69 3753 36 423 195 22 992 28 58 20 23 20 25 33 93 272 1923 308
internal_value=-0.000484724 0.0788527 -0.0520664 0.0859184 -0.048655 -0.0529235 0.00638892 0.0863915 0.0559337 -0.0560204 0.0867534 0.0843951 -0.050569 -0.0510712 -0.04219 -0.0515344 0.0847951 -0.048468 -0.046348 -0.0319326 -0.0388557 -0.00798929 -0.0016763 -0.0122042 -0.0524991 -0.0376351 0.0813253 0.0783943 0.0882092 -0.0434006
internal_weight=2531.95 997.578 1534.37 945.202 52.3766 1512.2 22.1708 940.341 11.042 653.111 929.299 354.707 859.087 802.842 39.7922 763.05 349.604 222.591 161.49 16.7038 13.1591 15.4178 12.1855 8.17226 49.2553 8.54488 139.825 91.1295 574.592 56.2446
internal_count=14820 4152 10668 3794 358 10555 113 3772 45 4633 3727 1423 5922 5545 269 5276 1401 1523 1100 108 86 84 64 43 342 58 560 365 2304 377
is_linear=0
shrinkage=0.05


Tree=10
num_leaves=31
num_cat=0
split_feature=4 1 0 2 2 3 5 5 5 6 2 5 6 0 5 5 0 2 6 6 3 3 5 2 6 0 3 6 5 2
split_gain=3811 324.436 29.5549 14.9001 4.86775 4.49205 3.91892 3.75353 1.99149 1.72716 1.45861 1.40923 1.29943 1.96986 1.2441 1.43071 1.15719 2.15561 4.51884 1.89373 1.09043 0.87817 1.12374 1.50539 1.03014 1.05865 0.837996 0.821865 0.818508 1.49417
threshold=-1.0000000180025095e-35 -1.0000000180025095e-35 0.45351939568959276 1.0000000180025095e-35 -0.64109218493520015 1.0000000180025095e-35 -0.35439465000367926 -0.59117277971013016 0.11916160940922241 0.87455854512819908 0.81172062691769209 -1.064729039123032 -1.5567943028984239 -0.21232613049373006 -1.064729039123032 0.35593973911567334 0.45351939568959276 1.0000000180025095e-35 0.17988630283487808 1.2218946662748598 -1.2335978218892349 1.1906218557433741 -0.35439465000367926 1.1749238298809153 -0.51478593945844275 -0.54524889358539141 0.70577792021685226 0.52722242398153862 0.11916160940922241 1.1749238298809153
decision_type=8 8 10 10 10 10 10 10 10 8 8 8 10 8 8 10 8 10 8 10 10 10 8 8 8 10 10 10 10 10
left_child=2 4 5 6 -2 11 12 -4 -8 10 -9 -1 -3 -14 -7 21 -17 -18 -19 26 -15 -16 23 24 -23 -26 -20 -27 -6 -30
right_child=1 3 7 -5 28 14 8 9 -10 -11 -12 -13 13 20 15 16 17 18 19 -21 -22 22 -24 -25 25 27 -28 -29 29 -31
leaf_value=-0.025964739767738051 0.010224181954414352 0.085313926045574459 0.034922386282334482 -0.0053471435535395288 -0.060294349023669591 -0.026488730479043439 0.030286018782249364 -0.01173167206821437 0.07277253965024702 -0.03813321081594534 0.026721565660302312 -0.055494290317060303 0.050355664473839372 0.083469058399359128 -0.053432289388001875 -0.048569531959447826 -0.055990602524225087 -0.054913095769857145 0.018928040367421281 -0.043145538046189667 0.079045137995746542 -0.059732179847961447 -0.052277638370942937 -0.060320239454688118 -0.044174938560006677 -0.013390888531306511 -0.012359559139930967 -0.035538480186114697 -0.051933214599720848 -0.02213658895394054
leaf_weight=4.0665406733751297 3.3765711635351172 339.44742275774479 7.4685502499341991 4.8521320372819892 18.035455375909805 5.7315944880247116 5.1724780648946744 7.2528137415647471 5.9090111404657364 3.7048232257366189 3.7366789728403091 625.04379272460938 5.0575181096792221 347.55039568245411 291.9477961063385 384.98548030853271 11.601703763008116 9.3287042230367678 4.4128032475709897 2.874450057744979 232.45261387526989 4.6363321542739868 70.04131144285202 9.1903659105300886 15.085329443216319 7.3581769764423433 4.1554013937711716 9.72480760514736 24.216338023543361 5.0920082926750174
leaf_count=25 21 1370 33 22 129 38 21 39 24 21 20 4608 21 1401 2111 2727 82 66 31 20 935 34 500 65 104 50 29 65 174 34
internal_value=-0.000496836 0.0754021 -0.0512462 0.0820454 -0.047777 -0.052116 0.0824987 0.00605991 0.0529412 -0.00860976 0.00134331 -0.0553034 0.082853 0.0814251 -0.0497031 -0.0498643 -0.0478061 -0.0387269 -0.0290843 -0.00802724 0.081696 -0.0519698 -0.0482903 -0.0422184 -0.0376982 -0.0345225 0.0037542 -0.0259988 -0.0519136 -0.0467564
internal_weight=2473.51 991.162 1482.35 940.442 50.7204 1460.18 935.589 22.1629 11.0815 14.6943 10.9895 629.11 924.508 585.061 831.074 825.343 417.359 32.3731 20.7714 11.4427 580.003 407.984 116.036 45.995 36.8046 32.1683 8.5682 17.083 47.3438 29.3083
internal_count=14820 4152 10668 3794 358 10555 3772 113 45 80 59 4633 3727 2357 5922 5884 2955 228 146 80 2336 2929 818 318 253 219 60 115 337 208
is_linear=0
shrinkage=0.05


Tree=11
num_leaves=31
num_cat=0
split_feature=4 1 0 2 0 3 5 5 5 5 0 2 5 2 6 3 6 3 6 5 0 0 2 5 2 5 6 2 5 0
split_gain=3511.71 294.059 28.4387 13.6428 4.70455 4.57989 3.73737 3.37434 1.79138 1.40834 1.30149 1.50937 1.28274 1.37156 1.57545 1.22065 1.11388 1.09384 1.09186 1.53795 1.18541 1.14949 0.917011 1.25046 0.887903 4.32368 0.875322 0.90332 0.870771 1.2888
threshold=-1.0000000180025095e-35 -1.0000000180025095e-35 0.45351939568959276 1.0000000180025095e-35 1.1193649218729158 1.0000000180025095e-35 -0.35439465000367926 -0.59117277971013016 0.11916160940922241 -1.064729039123032 -1.0000000180025095e-35 -1.3674985908616462 1.539830387647928 -0.64109218493520015 1.2218946662748598 1.1906218557433741 -1.5567943028984239 -1.2335978218892349 1.0000000180025095e-35 -0.59117277971013016 -0.87817165667705288 -0.54524889358539141 1.1749238298809153 0.11916160940922241 0.81172062691769209 0.59271786882212429 1.2218946662748598 0.44851742395446897 0.35593973911567334 -0.87817165667705288
decision_type=8 8 10 10 8 10 10 8 10 8 8 10 10 8 10 10 10 10 10 8 8 10 10 10 10 10 10 8 10 10
left_child=2 4 5 6 22 9 10 -4 -8 -1 11 -3 13 14 -7 28 -12 -18 -17 20 -20 -22 -2 -24 25 -9 -14 -28 -15 -30
right_child=1 3 7 -5 -6 12 8 24 -10 -11 16 -13 26 15 -16 18 17 -19 19 -21 21 -23 23 -25 -26 -27 27 -29 29 -31
leaf_value=-0.025060819167636247 -0.05418922751774418 0.08356264797681924 0.034837293850713345 -0.0050883123948824013 0.012688583366414617 -0.044277235006215818 0.028728424382227252 0.012756016649514949 0.068989068742668955 -0.054812263846177482 0.081940792372781124 0.051797748576384084 -0.044224606073686862 -0.053182661702114081 -0.015111400211554112 -0.052562271148512807 0.080090437769033879 0.075623066129367145 -0.0037345755007313661 -0.046173625692271014 -0.059755602334730401 -0.026869192008490209 -0.059378678074891479 -0.019460966296247585 0.0092115179997170355 -0.05359460496459361 -0.0084950310358413127 -0.040741075185225711 -0.043514694991844766 -0.051466994143962531
leaf_weight=4.0041722357273102 37.894366711378098 6.3920513093471518 6.876490443944931 4.8442106544971457 3.1028617322444907 32.060958236455917 5.1800625175237638 5.6434426754713076 5.9210335165262222 601.77076721191406 331.32610827684402 9.0126471817493421 44.125094458460808 265.23254485428333 5.4117035567760459 57.03536619246006 340.99339672923088 229.0697518736124 3.4323234111070633 135.82835493981838 3.8229574710130683 8.7132008820772153 3.3053175508975965 4.8270222246646881 5.2973595708608618 4.3461886048316956 3.7797942161560041 5.105338528752327 73.556552574038506 165.77424810826778
leaf_count=25 284 26 29 22 16 233 21 30 24 4608 1350 37 316 1991 36 423 1387 927 22 992 28 58 25 33 29 25 25 36 536 1226
internal_value=-0.000506259 0.072323 -0.050449 0.0786029 -0.0469025 -0.0513325 0.0790398 0.00574867 0.0502024 -0.0546156 0.079389 0.0649783 -0.0488585 -0.0493892 -0.0400652 -0.049879 0.0796353 0.0782953 -0.0466641 -0.044448 -0.0297698 -0.036898 -0.0509198 -0.0356852 -0.00733615 -0.0161111 -0.0413415 -0.0270234 -0.0512096 -0.0490229
internal_weight=2413.69 981.869 1431.82 932.739 49.1296 1409.65 927.895 22.1635 11.1011 605.775 916.794 15.4047 803.878 750.868 37.4727 713.396 901.389 570.063 208.832 151.797 15.9685 12.5362 46.0267 8.13234 15.287 9.98963 53.0102 8.88513 504.563 239.331
internal_count=14820 4152 10668 3794 358 10555 3772 113 45 4633 3727 63 5922 5545 269 5276 3664 2314 1523 1100 108 86 342 58 84 55 377 61 3753 1762
is_linear=0
shrinkage=0.05


Tree=12
num_leaves=31
num_cat=0
split_feature=4 1 0 2 2 3 0 2 5 6 5 5 2 6 3 6 3 5 5 6 5 2 5 0 3 2 2 2 6 0
split_gain=3242.02 267.488 27.3649 12.5603 4.70056 4.67113 3.82743 3.05259 3.02444 2.69201 1.40805 1.28547 1.37004 1.52528 1.23046 1.1698 1.20905 1.44758 1.33027 1.09433 1.51302 1.18575 0.883803 1.29109 0.973422 1.10685 0.878115 1.53352 1.56656 1.49082
threshold=-1.0000000180025095e-35 -1.0000000180025095e-35 0.45351939568959276 1.0000000180025095e-35 -0.64109218493520015 1.0000000180025095e-35 -1.0000000180025095e-35 -1.3674985908616462 -0.59117277971013016 -1.2094581817517636 -1.064729039123032 1.539830387647928 -0.64109218493520015 1.2218946662748598 1.1906218557433741 -0.8621220606051031 -1.2335978218892349 -1.5382852985359337 -1.7750634282423847 1.0000000180025095e-35 -0.59117277971013016 0.81172062691769209 0.35593973911567334 -0.87817165667705288 0.70577792021685226 -0.27788898197197709 -0.27788898197197709 0.44851742395446897 1.2218946662748598 -0.21232613049373006
decision_type=8 8 10 10 10 10 8 8 8 8 8 10 8 10 10 10 10 10 8 10 8 8 10 10 10 10 10 8 10 8
left_child=2 4 5 6 -2 10 7 -3 -4 -9 -1 12 13 -7 22 -8 -17 18 -18 -16 21 -21 -14 24 25 -24 -13 28 29 -28
right_child=1 3 8 -5 -6 11 15 9 -10 -11 -12 26 14 -15 19 16 17 -19 -20 20 -22 -23 23 -25 -26 -27 27 -29 -30 -31
leaf_value=-0.024180101183560326 0.011181449380018388 0.079176382954461832 0.032837561408483158 -0.0048416724275343326 -0.050382117494427475 -0.043375712747291344 0.077045305168426129 0.059203533770765718 -0.007011555179531107 0.0076625454025639785 -0.054156600489699683 -0.0542852225978308 -0.052462989032395317 -0.014497542964066999 -0.05181471054010918 0.076640669440160972 0.056077227271428123 0.060254938273023861 0.087038942216315029 -0.019845943824842331 -0.045298159867291771 -0.049861556904441426 -0.053282611146232041 -0.050692917453278009 -0.04886132983882889 -0.032662123653543922 -0.021732518835272899 -0.044676819268187708 0.0084729403195351379 -0.059542904094435502
leaf_weight=3.9440739899873734 3.3343022018671027 6.4083306640386581 6.9290806800127029 4.83662986755371 44.231703326106071 31.115133106708527 793.82507775723934 5.422478660941124 15.221444740891458 4.7550604194402712 579.17690277099609 9.3330784738063794 255.67037354409695 5.3601488769054404 55.016665637493134 55.170446246862411 4.8841391801834106 35.239276707172394 11.975121840834619 10.95836992561817 131.63781641423702 4.7021885514259329 8.3228474557399732 160.03633259236813 33.256500989198685 29.840691223740578 9.2269307523965818 26.507052093744274 2.8642170727252951 3.6337027102708843
leaf_count=25 21 26 29 22 337 233 3265 22 84 20 4608 69 1991 36 423 227 20 143 49 75 992 33 63 1226 250 223 68 194 19 27
internal_value=-0.000513296 0.0695596 -0.0496735 0.0755214 -0.0460666 -0.050571 0.075945 0.052144 0.00545396 0.035123 -0.0539538 -0.0480338 -0.0485757 -0.039132 -0.0490753 0.0763831 0.0714823 0.0660197 0.0780693 -0.0457977 -0.0435503 -0.0288583 -0.0504366 -0.0481982 -0.0426082 -0.0371591 -0.0404056 -0.0373383 -0.024968 -0.0324156
internal_weight=2352.84 970.083 1382.75 922.517 47.566 1360.6 917.68 16.5859 22.1505 10.1775 583.121 777.482 725.917 36.4753 689.442 901.094 107.269 52.0985 16.8593 202.315 147.298 15.6606 487.127 231.456 71.42 38.1635 51.565 42.2319 15.7249 12.8606
internal_count=14820 4152 10668 3794 358 10555 3772 68 113 42 4633 5922 5545 269 5276 3704 439 212 69 1523 1100 108 3753 1762 536 286 377 308 114 95
is_linear=0
shrinkage=0.05


Tree=13
num_leaves=31
num_cat=0
split_feature=4 1 0 2 0 3 0 2 5 6 6 5 5 5 6 3 2 0 6 2 6 5 5 3 5 2 6 0 6 5
split_gain=2997.77 244.104 26.3562 11.6191 10.0722 4.76639 3.78073 2.76791 2.72343 2.42592 1.60823 1.40815 1.31901 1.50133 1.22533 1.34502 1.21611 1.20469 1.14327 1.18998 0.923289 1.37887 1.2493 0.895622 1.15356 1.57182 1.05173 1.0687 0.860544 1.29867
threshold=-1.0000000180025095e-35 -1.0000000180025095e-35 0.45351939568959276 1.0000000180025095e-35 1.0000000180025095e-35 1.0000000180025095e-35 -1.0000000180025095e-35 -1.3674985908616462 -0.59117277971013016 -1.2094581817517636 0.87455854512819908 -1.064729039123032 -1.064729039123032 0.35593973911567334 -1.5567943028984239 -1.2335978218892349 0.81172062691769209 -0.54524889358539141 0.52722242398153862 0.81172062691769209 -0.8621220606051031 -1.5382852985359337 -1.7750634282423847 1.1906218557433741 -0.35439465000367926 1.1749238298809153 -0.51478593945844275 -0.54524889358539141 0.17988630283487808 -0.59117277971013016
decision_type=8 8 10 10 10 10 8 8 10 8 8 8 8 10 10 10 8 10 10 10 10 10 8 10 8 8 8 10 10 8
left_child=2 4 5 6 -2 11 7 -3 -4 -9 16 -1 -7 23 -8 -16 -10 18 19 -15 -17 22 -22 -14 25 26 -25 -28 -29 -30
right_child=1 3 8 -5 -6 12 14 9 10 -11 -12 -13 13 17 15 20 -18 -19 -20 -21 21 -23 -24 24 -26 -27 27 28 29 -31
leaf_value=-0.023322111423974019 -0.050880295583150374 0.075268938603689384 0.029343892884197888 -0.0046066795411790406 0.051358103275333356 -0.022368290224200726 0.076037157135732891 0.056165506003934676 -0.010170832283413053 0.0072699469458419892 -0.036558705574391816 -0.053524379860145459 -0.051245974208241313 -0.049673332131451801 0.074190191256153101 0.070939959505691666 0.024887235653033357 -0.048112914404931525 -0.038243715382889371 -0.038583415879407355 0.053783981671958553 0.057692452902477057 0.08395267511599952 -0.058263800851861197 -0.050062461844799046 -0.058905135037118722 -0.041516966347292739 -0.0039748650569712022 -0.015271847956905142 -0.049223865698842233
leaf_weight=3.8862131536006927 43.52434479445219 6.4039865136146545 7.6385989636182812 4.8293782323598853 2.5501430928707114 5.2991274148225784 325.78727516531944 5.4297627508640289 7.1195702701806987 4.7610969692468661 3.5929654240608224 557.27301406860352 261.96825142204762 71.451250173151493 336.38133400678635 174.98326034843922 3.7906803339719772 182.89289605617523 88.080869942903519 36.56976942718029 4.8389183878898621 34.970992878079414 11.798971444368364 4.137570433318615 63.344442069530487 8.301958426833151 13.879995584487913 4.4843935370445278 6.5839846283197403 4.9220319092273694
leaf_count=25 344 26 33 22 14 38 1364 22 39 20 21 4608 2111 563 1404 724 20 1441 670 281 20 143 49 34 500 65 104 33 45 37
internal_value=-0.000518356 0.0670588 -0.0489159 0.0727425 -0.0452216 -0.0498281 0.0731551 0.0495093 0.00518113 0.0333218 -0.00754499 -0.0533152 -0.0472257 -0.0474021 0.0735966 0.0721844 0.00200982 -0.0451939 -0.0424715 -0.0459189 0.0692066 0.0633297 0.0751785 -0.0496787 -0.0457926 -0.0394 -0.0346384 -0.0313659 -0.0225545 -0.0297958
internal_weight=2291.48 956.259 1335.22 910.185 46.0745 1313.08 905.356 16.5948 22.1418 10.1909 14.5032 561.159 751.917 746.617 888.761 562.973 10.9103 378.995 196.102 108.021 226.592 51.6089 16.6379 367.623 105.654 42.3099 34.008 29.8704 15.9904 11.506
internal_count=14820 4152 10668 3794 358 10555 3772 68 113 42 80 4633 5922 5884 3704 2340 59 2955 1514 844 936 212 69 2929 818 318 253 219 115 82
is_linear=0
shrinkage=0.05


Tree=14
num_leaves=31
num_cat=0
split_feature=4 1 0 0 0 5 3 3 5 3 2 6 5 5 2 6 3 6 5 0 0 5 5 2 2 6 5 5 0 2
split_gain=2775.76 223.377 25.3849 11.1926 9.3979 6.84784 5.82107 4.86648 2.4517 1.44563 2.29012 1.76315 1.40842 1.33024 1.42198 1.52726 1.27219 1.13228 1.47651 1.2178 1.15408 1.08207 2.10931 0.911916 1.51503 1.10554 0.911898 0.904281 0.901893 1.45317
threshold=-1.0000000180025095e-35 -1.0000000180025095e-35 0.45351939568959276 -1.0000000180025095e-35 1.0000000180025095e-35 -1.064729039123032 -1.2335978218892349 1.0000000180025095e-35 -0.59117277971013016 -1.2335978218892349 -0.64109218493520015 -1.2094581817517636 -1.064729039123032 1.539830387647928 -0.64109218493520015 1.2218946662748598 1.1906218557433741 1.0000000180025095e-35 -0.59117277971013016 -0.87817165667705288 -0.54524889358539141 -1.5382852985359337 -1.3015071688294826 0.81172062691769209 -0.27788898197197709 1.2218946662748598 0.82949599852857525 -0.35439465000367926 0.45351939568959276 1.0000000180025095e-35
decision_type=8 8 10 8 10 8 8 10 8 10 10 10 8 10 8 10 10 10 8 8 10 10 10 8 8 8 8 10 8 10
left_child=2 4 7 5 -2 -3 -7 12 -4 -5 11 -11 -1 14 15 26 27 -18 19 -19 -21 -13 -23 24 -15 -26 -9 -16 -29 -30
right_child=1 3 8 9 -6 6 -8 13 -10 10 -12 21 -14 23 16 -17 17 18 -20 20 -22 22 -24 -25 25 -27 -28 28 29 -31
leaf_value=-0.022486440478352018 -0.050147724458179992 0.065324788626138747 0.029350112895516246 0.072645539912094742 0.047515961164520448 0.044301913237744128 -0.030555848325708613 -0.036961861952019261 -0.0064190286397165612 0.07208753616349374 0.040385167494266509 0.070858959540159305 -0.052912961975602781 -0.052335403771707846 -0.052676982734334979 -0.012005820889969024 -0.050439068168593143 3.7237118885005826e-05 -0.043546477154557006 -0.05856535364324475 -0.024295846136346281 0.048111836124689195 0.065923087893827087 -0.04756225440646035 -0.033156185265971083 -0.0079125137977397765 -0.05863070131942958 -0.048471323157639551 -0.05389570669625985 -0.031635480260729133
leaf_weight=3.830549493432045 41.991159729659557 8.5788218379020673 7.0138156116008759 540.22576154768467 2.6167274713516226 4.9460442662239075 5.468048572540285 23.071069076657295 15.113475933670999 196.52662742137909 7.1045176833868018 45.839521467685699 536.06500625610352 7.8239194452762604 120.70009981095791 5.1558787524700156 51.310715921223164 3.2699054628610611 123.45657744258642 3.4914367794990531 8.2899530827999097 22.323811933398247 65.083353400230408 17.528551071882248 17.506404332816601 5.7656285911798539 6.1494268774986294 301.81179454922676 11.437119767069818 20.424265936017036
leaf_count=25 344 35 29 2296 14 20 25 184 84 834 29 193 4608 62 1010 36 423 22 992 28 58 91 271 136 137 42 49 2485 94 164
internal_value=-0.000521806 0.0647841 -0.0481737 0.0702203 -0.0444187 0.0322461 0.00499692 -0.0491009 0.00491892 0.0710426 0.068472 0.0690771 -0.0526971 -0.0464309 -0.0470034 -0.0370951 -0.0475321 -0.0440944 -0.041744 -0.0269589 -0.0344517 0.0646371 0.0613741 -0.0384422 -0.0333013 -0.0269021 -0.041522 -0.0489683 -0.0476267 -0.0396261
internal_weight=2229.92 940.704 1289.22 896.097 44.6079 18.9929 10.4141 1267.09 22.1273 877.104 336.878 329.773 539.896 727.193 678.568 34.3764 644.192 189.819 138.508 15.0513 11.7814 133.247 87.4072 48.6245 31.096 23.272 29.2205 454.373 333.673 31.8614
internal_count=14820 4152 10668 3794 358 80 45 10555 113 3714 1418 1389 4633 5922 5545 269 5276 1523 1100 108 86 555 362 377 241 179 233 3753 2743 258
is_linear=0
shrinkage=0.05


Tree=15
num_leaves=31
num_cat=0
split_feature=4 1 0 6 0 3 0 5 2 3 5 5 5 5 2 5 0 6 2 6 3 5 2 6 0 2 3 5 6 2
split_gain=2573.33 204.911 24.4621 10.7438 8.7861 4.96791 4.55482 2.21202 1.65508 1.57176 1.40871 1.37133 1.34638 1.56482 1.32068 3.41656 1.24543 1.16709 1.23339 1.01216 0.915807 1.16615 1.61226 1.05973 1.04998 0.91315 1.10316 0.969949 1.4296 1.31732
threshold=-1.0000000180025095e-35 -1.0000000180025095e-35 0.45351939568959276 0.17988630283487808 1.0000000180025095e-35 1.0000000180025095e-35 -0.21232613049373006 -0.59117277971013016 -0.64109218493520015 -1.2335978218892349 -1.064729039123032 -0.35439465000367926 -1.064729039123032 0.35593973911567334 0.81172062691769209 0.59271786882212429 -0.54524889358539141 0.52722242398153862 0.81172062691769209 -1.5567943028984239 1.1906218557433741 -0.35439465000367926 1.1749238298809153 -0.51478593945844275 -0.54524889358539141 -0.64109218493520015 0.70577792021685226 1.3030522579414772 1.0000000180025095e-35 0.81172062691769209
decision_type=8 8 10 10 10 10 8 10 10 10 8 10 8 10 10 10 10 10 10 10 10 8 8 8 10 10 8 10 10 8
left_child=2 4 5 6 -2 10 -3 -4 11 -10 -1 19 -7 20 15 -9 17 18 -15 -8 -14 22 23 -22 -25 26 -18 -27 29 -29
right_child=1 3 7 -5 -6 12 8 14 9 -11 -12 -13 13 16 -16 -17 25 -19 -20 -21 21 -23 -24 24 -26 27 -28 28 -30 -31
leaf_value=-0.021672730400191811 -0.049430922761664838 0.03251692120707609 0.026263474300851221 -0.0095914380949400635 0.044087973637530364 -0.019955510792535432 0.071468306480743121 0.0087805514599662276 0.066887543467091054 0.035611433897603233 -0.052319913455304706 0.049876571785355053 -0.04989381604431032 -0.048231698199476605 0.013958378074913886 -0.051864722588118785 -0.050308167747014701 -0.036269714313235391 -0.036582172778805662 0.067870397484122422 -0.057416044540169388 -0.048655698007296966 -0.058098942769953858 -0.03977194322686016 -0.020515874873244567 -0.050233241906190162 -0.022988295390472265 -0.018588455703702201 -0.048016416433164552 -0.048988738571960795
leaf_weight=3.777039423584938 40.50781437009573 8.7970021367073041 7.7217040956020382 4.4479704052209845 2.6775352954864493 5.0619399398565292 308.64867597818375 5.2780945152044279 8.9601455777883547 7.2813058495521537 515.55476760864258 9.2927945554256421 243.68139710277319 66.733528755605221 4.9657680988311759 4.1471689939498901 6.5185199305415136 83.138702683150768 34.449902385473251 533.09115985035896 3.823402613401413 59.173689812421799 7.7443885132670394 13.120437882840633 15.374958783388138 110.86075289547443 8.5308422744274122 10.110802337527273 29.465164981782436 5.5030095800757399
leaf_count=25 344 37 33 20 14 38 1341 28 38 30 4608 38 2111 563 27 25 55 670 281 2290 34 500 65 104 115 941 71 84 244 46
internal_value=-0.0005239 0.062705 -0.0474454 0.0679204 -0.0436327 -0.048388 0.0683139 0.00467449 0.068677 0.052866 -0.052097 0.0689788 -0.0456492 -0.0458355 -0.00690938 -0.0179037 -0.0435101 -0.0406589 -0.0442654 0.0691897 -0.0482449 -0.0441959 -0.0376086 -0.0326986 -0.0293822 -0.0465836 -0.0348217 -0.0477187 -0.0415347 -0.0293029
internal_weight=2168.44 923.704 1244.74 880.519 43.1853 1222.62 876.071 22.1127 867.274 16.2415 519.332 851.033 703.291 698.23 14.391 9.42526 355.311 184.322 101.183 841.74 342.918 99.2369 40.0632 32.3188 28.4954 170.989 15.0494 155.94 45.079 15.6138
internal_count=14820 4152 10668 3794 358 10555 3774 113 3737 68 4633 3669 5922 5884 80 53 2955 1514 844 3631 2929 818 318 253 219 1441 126 1315 374 130
is_linear=0
shrinkage=0.05


Tree=16
num_leaves=31
num_cat=0
split_feature=4 1 0 0 0 5 6 3 5 3 2 6 5 5 2 6 3 6 5 5 5 2 0 0 2 6 5 1 5 5
split_gain=2387.8 188.315 23.5627 10.6217 8.2281 6.09469 7.4765 5.0724 1.99397 1.52542 2.12791 1.84281 1.40886 1.35522 1.46543 1.51998 1.31377 1.17452 1.15586 1.12051 2.11592 1.07832 1.31554 1.40966 1.0549 1.58149 0.994114 0.962159 0.944054 0.940721
threshold=-1.0000000180025095e-35 -1.0000000180025095e-35 0.45351939568959276 -1.0000000180025095e-35 1.0000000180025095e-35 -1.064729039123032 -1.2094581817517636 1.0000000180025095e-35 -0.59117277971013016 -1.2335978218892349 -0.64109218493520015 -1.2094581817517636 -1.064729039123032 1.539830387647928 -0.64109218493520015 1.2218946662748598 1.1906218557433741 -0.51478593945844275 -0.59117277971013016 -1.5382852985359337 -1.3015071688294826 1.1749238298809153 -0.87817165667705288 -0.54524889358539141 0.81172062691769209 0.87455854512819908 1.3030522579414772 1.0000000180025095e-35 0.82949599852857525 -0.35439465000367926
decision_type=8 8 10 8 10 8 10 10 8 10 10 10 8 10 8 10 10 10 8 10 10 8 8 10 8 10 10 10 8 10
left_child=2 4 7 5 -2 -3 -7 12 -4 27 11 -11 -1 14 15 28 29 26 21 -13 -21 22 -19 -24 -20 -26 -18 -5 -9 -16
right_child=1 3 8 9 -6 6 -8 13 -10 10 -12 19 -14 -15 16 -17 17 18 24 20 -22 -23 23 -25 25 -27 -28 -29 -30 -31
leaf_value=-0.020880654315606664 -0.048727705950508585 0.060156369492288433 0.026310635194903259 0.073140561625864881 0.041009333870144611 0.049886079673191391 -0.035361708577197046 -0.034980438181147905 -0.0058807951021003779 0.067685131620851283 0.036797166728233993 0.066392115448818775 -0.051743019315961918 -0.036588925102027797 -0.051481170972841099 -0.0096973774654032716 -0.055323970132215017 0.0070466412698896629 -0.045874818404516439 0.043196413939486387 0.061228440725306782 -0.058440413718838936 -0.057844282566356257 -0.018260611828195869 -0.029705276286848256 -0.046895964691795147 -0.025214942637268145 0.067345742262272676 -0.057806593444811476 -0.046138609708666803
leaf_weight=3.7256341427564621 39.074263714253902 8.4744132757186872 7.0792587995529175 85.798078253865242 2.7331175655126563 4.6786006391048431 5.7122510522604006 21.756544291973114 15.008903175592424 189.08483737707138 7.0654707401990882 44.255733206868172 495.74054718017578 45.985595181584358 112.00729525089264 4.9748243987560263 24.390307232737545 2.9637046754360199 79.768136657774448 21.915264099836349 63.139537170529366 2.4480661004781714 3.2799214497208586 7.1570651680231085 32.075897805392742 22.952344708144665 3.0886244848370543 433.84429316222668 5.7207884192466762 311.658616758883
leaf_count=25 344 35 29 381 14 19 26 184 84 834 29 193 4608 377 1010 36 218 21 685 91 271 20 28 51 276 197 27 1915 49 2743
internal_value=-0.000524974 0.060778 -0.0467286 0.0657931 -0.0428612 0.0286872 0.00302209 -0.0476866 0.00443656 0.0666214 0.0639372 0.0645394 -0.0515128 -0.0448772 -0.0454781 -0.0351285 -0.0460362 -0.0424333 -0.0406992 0.0599396 0.0565823 -0.0279264 -0.0223521 -0.0307002 -0.042201 -0.0368755 -0.0519397 0.0683025 -0.0397329 -0.0475511
internal_weight=2107.56 905.776 1201.78 863.968 41.8074 18.8653 10.3909 1179.69 22.0882 845.103 325.461 318.395 499.466 680.228 634.242 32.4522 601.79 178.124 150.645 129.311 85.0548 15.8488 13.4007 10.437 134.796 55.0282 27.4789 519.642 27.4773 423.666
internal_count=14820 4152 10668 3794 358 80 45 10555 113 3714 1418 1389 4633 5922 5545 269 5276 1523 1278 555 362 120 100 79 1158 473 245 2296 233 3753
is_linear=0
shrinkage=0.05


Tree=17
num_leaves=31
num_cat=0
split_feature=4 1 0 0 0 3 3 3 3 0 3 2 6 5 5 5 5 0 2 6 6 5 5 0 3 5 2 6 0 0
split_gain=2217.78 173.414 22.7125 10.1491 7.71684 5.76132 5.17783 1.84768 2.56186 3.64653 1.53159 2.07748 1.84811 1.49283 1.40871 1.36824 1.62637 1.30793 2.46461 5.08898 2.10327 1.10219 2.03452 0.952361 0.939704 1.1829 1.62696 1.05553 1.02917 0.923794
threshold=-1.0000000180025095e-35 -1.0000000180025095e-35 0.45351939568959276 -1.0000000180025095e-35 1.0000000180025095e-35 -1.2335978218892349 1.0000000180025095e-35 -0.2639099508361914 1.0000000180025095e-35 1.1193649218729158 -1.2335978218892349 -0.64109218493520015 -1.2094581817517636 -1.064729039123032 -1.064729039123032 -1.064729039123032 0.35593973911567334 0.45351939568959276 1.0000000180025095e-35 0.17988630283487808 1.2218946662748598 -1.5382852985359337 -1.3015071688294826 0.78644215878125423 1.1906218557433741 -0.35439465000367926 1.1749238298809153 -0.51478593945844275 -0.54524889358539141 1.7852104480562385
decision_type=8 8 10 8 10 10 10 8 10 10 10 10 10 10 8 8 10 8 10 8 10 10 10 10 10 8 8 8 10 10
left_child=2 4 6 5 -2 13 14 -4 -9 -10 23 12 -12 -3 -1 -8 24 -18 -19 -20 -21 -14 29 -5 -17 26 27 -26 -29 -23
right_child=1 3 7 10 -6 -7 15 8 9 -11 11 -13 21 -15 -16 16 17 18 19 20 -22 22 -24 -25 25 -27 -28 28 -30 -31
leaf_value=-0.020109929353625749 -0.048036080880395488 0.071409011687082621 0.027693797747132196 0.069707378252858068 0.038228500498260834 -0.0033335763771858485 -0.01764534828296651 -0.033289167022865072 -0.017598668959032143 0.040865975673274241 0.065743912761751386 0.035088234714324859 0.064384957818747604 0.033415405462918733 -0.051180224446876366 -0.048595779306934123 -0.042784312809003466 -0.052029075709085021 -0.050860137111981674 0.017382756976984243 -0.036860735213214361 0.050190796470660819 0.059174851354949279 0.064965255615871464 -0.056630190163210116 -0.047298465913972777 -0.057285388705117235 -0.038122997882131325 -0.018617411889069849 0.029309745015297085
leaf_weight=3.676282986998558 37.690237268805504 5.1743039786815643 6.0742575526237488 150.33576884865761 2.7839668542146674 8.3921931087970716 4.8464456647634506 5.2589714676141766 5.7954888790845853 4.940810814499855 185.03744153678417 7.0397621542215338 43.375985264778137 5.1673145741224307 476.61764144897461 226.6210425645113 306.93492364138365 9.2167781591415423 7.4991414397954923 7.274120934307577 2.3690918609499931 12.579296261072161 62.090915590524673 358.00398796796799 3.5134849846363068 55.274645529687405 7.168891265988349 12.431554540991787 14.829583585262299 9.1492207795381528
leaf_count=25 344 22 28 680 14 37 38 28 31 26 834 29 193 21 4608 2111 2727 82 66 60 20 53 271 1616 34 500 65 104 115 38
internal_value=-0.000524841 0.0590041 -0.0460213 0.0638393 -0.0421025 0.0274468 -0.0469953 0.00421716 -0.00469818 0.00930657 0.064663 0.061949 0.0625546 0.052425 -0.0509424 -0.0441142 -0.0443106 -0.0418664 -0.0311782 -0.0199675 0.00405651 0.0579149 0.0545667 0.0663677 -0.0468576 -0.0426319 -0.0358338 -0.0308366 -0.0275123 0.0413984
internal_weight=2047.16 886.82 1160.34 846.346 40.4742 18.7338 1138.27 22.0695 15.9953 10.7363 827.612 319.273 312.233 10.3416 480.294 657.98 653.133 333.294 26.3591 17.1424 9.64321 127.195 83.8194 508.34 319.839 93.2182 37.9435 30.7746 27.2611 21.7285
internal_count=14820 4152 10668 3794 358 80 10555 113 85 57 3714 1418 1389 43 4633 5922 5884 2955 228 146 80 555 362 2296 2929 818 318 253 219 91
is_linear=0
shrinkage=0.05


Tree=18
num_leaves=31
num_cat=0
split_feature=4 1 0 2 0 3 3 5 5 5 5 2 6 5 3 2 0 2 5 6 5 0 0 6 2 2 2 6 5 2
split_gain=2061.3 159.936 21.9132 9.98279 7.24653 5.28449 4.18319 2.67202 1.75948 1.40815 1.40248 1.52044 1.51812 1.3701 1.35689 1.32716 1.24994 1.24211 3.19096 1.22143 1.43843 1.22057 1.13922 1.05475 1.03773 0.981015 1.62441 1.15568 0.980207 2.94902
threshold=-1.0000000180025095e-35 -1.0000000180025095e-35 0.45351939568959276 0.44851742395446897 1.0000000180025095e-35 1.0000000180025095e-35 1.0000000180025095e-35 -0.35439465000367926 -0.59117277971013016 -1.064729039123032 1.539830387647928 -0.64109218493520015 1.2218946662748598 0.11916160940922241 1.1906218557433741 -0.64109218493520015 -1.0000000180025095e-35 0.81172062691769209 0.59271786882212429 1.0000000180025095e-35 -0.59117277971013016 -0.87817165667705288 -0.54524889358539141 -1.5567943028984239 -1.3674985908616462 0.81172062691769209 -0.27788898197197709 1.2218946662748598 0.35593973911567334 -0.64109218493520015
decision_type=8 8 10 10 10 10 10 10 10 8 10 8 10 10 10 10 8 10 10 10 8 8 10 10 10 8 10 10 10 10
left_child=2 4 5 6 -2 9 7 15 -4 -1 11 12 -7 -9 -13 16 24 18 -10 -16 21 -21 -23 -18 -3 26 -12 -28 -22 -30
right_child=1 3 8 -5 -6 10 -8 13 17 -11 25 14 -14 -15 19 -17 23 -19 -20 20 28 22 -24 -25 -26 -27 27 -29 29 -31
leaf_value=-0.01936027843403031 -0.047354227556570407 0.064391503946739301 0.023108649012046734 -0.013082033110482616 0.035703947082062558 -0.037940969551925816 0.014649057468170999 0.018611975850232162 0.0082804345012097557 -0.050629636176471232 -0.050107741547563228 -0.046181587309561838 -0.0073099327393659312 0.055380323385881391 -0.047886918170684273 0.047326113229719642 0.065960177239412582 0.013754922317081877 -0.050798740893885502 0.0046944252071450011 -0.045247962490677925 -0.057038817923607502 -0.020842851325850956 0.062145487786025591 0.037500354000952502 -0.044746055200119213 -0.027954471503545648 0.0015761733191633071 0.01446295052642978 -0.038259231337193861
leaf_weight=3.6289311945438385 36.355271950364113 6.2002515196800223 7.7916044145822552 4.4011096954345694 2.830524504184722 25.829290457069877 4.5568939298391333 5.0184483528137189 5.3005666285753232 458.17873764038086 6.9056257158517864 395.21655466407537 4.7961392104625693 5.1170158237218857 44.675271987915039 13.270864889025686 285.76685446500778 4.9715382903814307 4.0181553512811661 3.081133097410202 50.639076434075832 3.0210250169038773 7.7518232613801938 495.23201644420624 8.5139491707086545 15.555105552077292 16.854232013225559 4.1236915290355673 2.7859377562999716 55.314620770514011
leaf_count=25 344 26 33 20 14 233 20 21 28 4608 62 3753 36 22 423 58 1329 27 25 22 466 28 58 2263 35 136 147 32 25 501
internal_value=-0.0005239 0.0573502 -0.0453207 0.062021 -0.0413547 -0.0463121 0.0624223 0.0626881 0.0039947 -0.0503839 -0.0433581 -0.0439933 -0.033144 0.0371749 -0.044584 0.0630077 0.0632693 -0.00642697 -0.017194 -0.0408091 -0.0382299 -0.0230563 -0.0309933 0.0635413 0.0488317 -0.0346858 -0.0290737 -0.0221495 -0.0401631 -0.0357312
internal_weight=1987.7 867.263 1120.44 828.077 39.1858 1098.36 823.676 819.119 22.0819 461.808 636.55 593.111 30.6254 10.1355 562.485 808.984 795.713 14.2903 9.31872 167.269 122.594 13.854 10.7728 780.999 14.7142 43.4387 27.8835 20.9779 108.74 58.1006
internal_count=14820 4152 10668 3794 358 10555 3774 3754 113 4633 5922 5545 269 43 5276 3711 3653 80 53 1523 1100 108 86 3592 61 377 241 179 992 526
is_linear=0
shrinkage=0.05


Tree=19
num_leaves=31
num_cat=0
split_feature=4 1 0 0 3 3 5 6 2 5 0 3 2 6 5 5 5 0 6 2 5 2 5 5 1 2 3 5 6 2
split_gain=1916.96 147.686 21.1084 9.83805 7.17233 5.38979 5.27503 6.52942 1.69636 1.97276 1.87258 1.63329 1.98715 1.94576 1.4148 1.65851 1.40707 1.377 1.2525 1.35954 1.17347 1.83045 1.14213 2.05641 1.02216 0.981207 1.15388 1.04896 1.54662 1.38694
threshold=-1.0000000180025095e-35 -1.0000000180025095e-35 0.45351939568959276 -1.0000000180025095e-35 -0.74875388636271312 1.0000000180025095e-35 -1.064729039123032 -1.2094581817517636 -1.0000000180025095e-35 0.11916160940922241 1.1193649218729158 -1.2335978218892349 -0.64109218493520015 -1.2094581817517636 0.35593973911567334 -1.064729039123032 -1.064729039123032 -0.54524889358539141 0.52722242398153862 0.81172062691769209 0.11916160940922241 1.1749238298809153 -1.5382852985359337 -1.3015071688294826 1.0000000180025095e-35 -0.64109218493520015 0.70577792021685226 1.3030522579414772 1.0000000180025095e-35 0.81172062691769209
decision_type=8 8 10 8 8 10 8 10 8 8 10 10 10 10 10 8 8 10 10 10 10 10 10 10 10 10 10 10 10 8
left_child=2 4 5 6 -2 16 -3 -8 10 -10 -4 24 13 -13 15 -7 -1 18 19 -16 -6 -22 -15 -24 -5 26 -19 -27 29 -29
right_child=1 3 8 11 20 14 7 -9 9 -11 -12 12 -14 22 17 -17 -18 25 -20 -21 21 -23 23 -25 -26 27 -28 28 -30 -31
leaf_value=-0.018631451475329085 0.049704318459654527 0.054196313697891789 -0.0032058085786386241 0.068138652575736022 -0.057033082984139449 -0.015410684834366426 0.04438660579339012 -0.035515427744046389 -0.036499418388545611 0.0066873179308846427 0.03831400609496044 0.062274414247633775 0.031884257986419924 0.06081510576120748 -0.045536458800420281 -0.045505433089091857 -0.05008950417815803 -0.047868468765726591 -0.032259224404893642 -0.032514517578956077 -0.045407750840984813 -0.0078298507525942085 0.037242662794705471 0.055362419148612278 0.061946189781134531 -0.047788538372449903 -0.018177798648496366 -0.013262074921108811 -0.045368034983065741 -0.046405812145048186
leaf_weight=3.5835232585668564 2.0776398181915283 8.2258793115615827 5.3515893518924695 79.761116430163383 14.179604157805441 4.6493298932909966 4.6580182313919067 5.6680280864238757 4.2896487861871737 6.894168421626091 5.5133089572191238 176.52136604487896 6.9577664434909812 41.530793696641922 58.385498844087124 298.40196213126183 440.41436004638672 5.6893811374902707 73.954394169151783 30.521991275250912 17.71864872425795 3.9660302102565756 21.21410907804966 59.789159655570984 405.07870994508266 96.68019337952137 7.7028013244271278 9.1249772608280164 25.967176519334316 4.8256549760699263
leaf_count=25 11 35 26 381 138 38 19 26 22 39 26 834 29 193 563 2929 4608 55 670 281 175 34 91 271 1915 941 71 84 244 46
internal_value=-0.000522306 0.055796 -0.0446289 0.0603154 -0.0406162 -0.0456362 0.0243243 0.000527906 0.00379227 -0.00987732 0.0178631 0.0611597 0.0582996 0.0589142 -0.0426089 -0.0450437 -0.0498356 -0.0402503 -0.0370669 -0.041066 -0.0458485 -0.0385349 0.0540735 0.050617 0.0629649 -0.0437069 -0.0307912 -0.0449731 -0.0381543 -0.0247268
internal_weight=1929.3 847.347 1081.95 809.405 37.9419 1059.9 18.5519 10.326 22.0487 11.1838 10.8649 790.853 306.013 299.055 615.903 303.051 443.998 312.852 162.862 88.9075 35.8643 21.6847 122.534 81.0033 484.84 149.99 13.3922 136.598 39.9178 13.9506
internal_count=14820 4152 10668 3794 358 10555 80 45 113 61 52 3714 1418 1389 5922 2967 4633 2955 1514 844 347 209 555 362 2296 1441 126 1315 374 130
is_linear=0
shrinkage=0.05


Tree=20
num_leaves=31
num_cat=0
split_feature=4 1 0 0 3 3 3 5 3 2 6 3 3 0 5 5 5 0 6 2 5 2 5 5 3 5 2 6 2 6
split_gain=1783.72 136.58 20.368 9.44183 6.67581 5.49819 5.03865 3.5577 1.64648 1.95082 1.95761 1.55091 2.38222 3.14953 1.42017 1.63073 1.40534 1.37307 1.23764 1.35874 1.18105 1.7771 1.12903 1.98646 1.02791 1.24344 1.73465 1.11014 1.10895 1.94275
threshold=-1.0000000180025095e-35 -1.0000000180025095e-35 0.45351939568959276 -1.0000000180025095e-35 -0.74875388636271312 1.0000000180025095e-35 -1.2335978218892349 -0.827950909416581 -1.2335978218892349 -0.64109218493520015 -1.2094581817517636 -0.2639099508361914 1.0000000180025095e-35 1.1193649218729158 0.35593973911567334 -1.064729039123032 -1.064729039123032 -0.54524889358539141 0.52722242398153862 1.5381270328441383 0.11916160940922241 1.1749238298809153 -1.5382852985359337 -1.3015071688294826 1.1906218557433741 -0.35439465000367926 1.1749238298809153 -0.51478593945844275 0.44851742395446897 0.87455854512819908
decision_type=8 8 10 8 8 10 8 10 10 10 10 8 10 10 10 8 8 10 10 10 10 10 10 10 10 8 8 8 8 10
left_child=2 4 5 6 -2 16 -3 -8 -5 10 -10 -4 -13 -14 15 -7 -1 18 19 -16 -6 -22 -12 -24 -17 26 27 -26 -29 -30
right_child=1 3 11 8 20 14 7 -9 9 -11 22 12 13 -15 17 24 -18 -19 -20 -21 21 -23 23 -25 25 -27 -28 28 29 -31
leaf_value=-0.017923215921165327 0.046223200818325483 0.049001193435660076 0.024969297448164098 0.061406722743828801 -0.056652806392044334 -0.014806379356705889 0.025694155792836737 -0.037294845465237515 0.060707534305437218 0.03043766167631759 0.05918150041867748 -0.032478777567746149 -0.016584244213047199 0.03765462234127729 -0.041493319582896905 -0.04674252471575064 -0.049558220549462143 -0.042979523243621282 -0.031416271693020879 -0.0074785463378176757 -0.044713295591540331 -0.0074815709087751123 0.035740509914060019 0.053660318627697559 -0.055708691383363422 -0.045253553658999524 -0.05635213952334122 -0.031411533722476417 0.0093784930610612653 -0.041140917648566526
leaf_weight=3.5400021821260452 2.1212269961833954 9.3678231537342054 6.1290128231048584 472.59779667854309 13.576299734413622 4.5984575152397156 4.8611265122890472 4.1601847708225268 172.13531328737736 6.9248705506324759 40.567879930138588 5.1809531599283245 5.7200531959533674 5.0301463156938553 83.11369102448225 203.58296271413565 423.3131103515625 145.03532560169697 72.187259308993816 3.0434090197086325 17.109671190381054 3.9437083452939978 21.005815371870995 58.631011486053467 3.1258890405297279 49.738901488482952 6.4399875178933135 16.987910412251949 5.2207943052053505 2.9945270270109177
leaf_count=25 11 40 28 2296 138 38 20 20 834 29 193 28 31 26 815 2111 4608 1441 670 29 175 34 91 271 34 500 65 147 46 26
internal_value=-0.000519832 0.0543436 -0.043939 0.0587255 -0.0398798 -0.0449641 0.0233172 -0.00335327 0.0595691 0.0566671 0.0572884 0.00359524 -0.00462776 0.00879477 -0.041862 -0.0443468 -0.0492959 -0.0394648 -0.0362455 -0.0402918 -0.0451541 -0.0377391 0.0523922 0.0489336 -0.0448183 -0.0401827 -0.0329286 -0.0276037 -0.024118 -0.00903609
internal_weight=1871.99 827.003 1044.98 790.252 36.7509 1022.92 18.3891 9.02131 771.863 299.265 292.34 22.0602 15.9312 10.7502 596.069 292.689 426.853 303.38 158.344 86.1571 34.6297 21.0534 120.205 79.6368 288.091 84.508 34.7691 28.3291 25.2032 8.21532
internal_count=14820 4152 10668 3794 358 10555 80 40 3714 1418 1389 113 85 57 5922 2967 4633 2955 1514 844 347 209 555 362 2929 818 318 253 219 72
is_linear=0
shrinkage=0.05


Tree=21
num_leaves=31
num_cat=0
split_feature=4 1 0 0 0 3 2 6 3 2 6 5 5 2 6 3 5 6 5 2 2 5 5 2 6 0 5 5 5 5
split_gain=1660.45 126.438 19.6418 9.08951 7.1341 5.60295 4.89026 5.43034 1.66207 1.91704 1.97174 1.48607 1.46334 1.62093 1.57144 1.45642 1.4029 1.3054 1.24089 1.71041 1.19766 3.01468 1.16292 1.17883 1.77081 1.14558 1.1228 1.11809 1.92208 1.07155
threshold=-1.0000000180025095e-35 -1.0000000180025095e-35 0.45351939568959276 -1.0000000180025095e-35 0.78644215878125423 1.0000000180025095e-35 -1.3674985908616462 -1.2094581817517636 -1.2335978218892349 -0.64109218493520015 -1.2094581817517636 -0.59117277971013016 1.539830387647928 -0.64109218493520015 0.52722242398153862 1.1906218557433741 -1.064729039123032 -0.51478593945844275 0.11916160940922241 1.1749238298809153 0.81172062691769209 0.59271786882212429 -0.59117277971013016 0.81172062691769209 0.87455854512819908 -0.21232613049373006 1.3030522579414772 -1.5382852985359337 -1.3015071688294826 -0.35439465000367926
decision_type=8 8 10 8 10 10 8 10 10 10 10 10 10 8 10 10 8 10 10 10 10 10 8 8 10 10 10 10 10 10
left_child=2 4 5 6 18 16 -3 -8 -5 10 -10 -4 13 14 25 29 -1 26 -2 -20 21 -13 -19 -24 -25 -7 -17 -12 -29 -15
right_child=1 3 11 8 -6 12 7 -9 9 -11 27 20 -14 15 -16 17 -18 22 19 -21 -22 -23 23 24 -26 -27 -28 28 -30 -31
leaf_value=-0.017235324767485457 -0.05649722814276234 0.059256194242486827 0.020895840726548986 0.059943969258682242 0.053805640075559463 -0.048080972545328532 0.038555576618824847 -0.028138024208335416 0.059235218728863774 0.02906322741815125 0.057642779452192643 0.0076519276944449002 -0.031889970098051917 -0.048801305363661764 -0.016720505277878901 -0.053352088734886817 -0.049034266542903458 -0.022880615105979801 -0.043872584417385341 -0.0071470390245311202 0.013562960746615026 -0.05009317782414037 -0.042290068098106738 -0.023861295807071456 -0.043520857033063694 -0.016401286497048789 -0.018884766482172553 0.034306090459349209 0.052045944174418747 -0.042567735111988678
leaf_weight=3.4983094781637192 13.193924114108084 6.0134602934122086 7.8336896449327496 460.23849959671497 1.9508751034736622 12.023956790566443 5.921337157487871 6.2987261414527893 167.70600175857544 6.890622839331626 39.593134164810181 5.3246063739061338 39.963476747274399 93.386176869273186 12.305830940604208 20.29827465116978 406.86221694946289 14.154122449457644 16.53399977833033 3.922444373369216 4.9741925150156012 3.9273024946451187 67.850083217024803 27.663701385259628 19.548054501414299 3.7416837885975864 2.674076445400714 20.795350626111031 57.45721161365509 263.37417740374804
leaf_count=25 139 26 33 2296 9 120 25 29 834 29 193 28 377 1010 112 218 4608 120 176 34 27 25 685 276 197 37 27 91 271 2743
internal_value=-0.000516901 0.0529717 -0.0432544 0.057226 -0.0391524 -0.0442969 0.0223435 0.00417894 0.0580711 0.0551235 0.0557524 0.0034075 -0.0411205 -0.0418074 -0.0301107 -0.0424525 -0.0487632 -0.0383573 -0.0445417 -0.0368306 -0.00622256 -0.01686 -0.0364048 -0.0380684 -0.0320013 -0.0405624 -0.04934 0.0507959 0.0473316 -0.0441994
internal_weight=1815.92 806.516 1009.4 770.914 35.6012 987.344 18.2335 12.2201 752.681 292.442 285.552 22.0598 576.984 537.02 28.0715 508.949 410.361 152.188 33.6504 20.4564 14.2261 9.25191 129.216 115.062 47.2118 15.7656 22.9724 117.846 78.2526 356.76
internal_count=14820 4152 10668 3794 358 10555 80 54 3714 1418 1389 113 5922 5545 269 5276 4633 1523 349 210 80 53 1278 1158 473 157 245 555 362 3753
is_linear=0
shrinkage=0.05


Tree=22
num_leaves=31
num_cat=0
split_feature=4 1 0 0 0 3 5 6 3 6 2 6 2 5 0 5 5 0 2 6 6 5 2 5 2 1 3 5 2 6
split_gain=1546.28 117.154 18.9111 8.75844 6.62132 5.70571 4.50816 5.25252 1.67997 2.50864 1.49932 1.51981 1.4749 1.87276 1.54206 1.46037 1.65908 1.4545 2.71792 5.37702 2.11757 1.39964 1.34594 1.24795 1.65876 1.11142 1.0473 1.25555 1.77502 1.10345
threshold=-1.0000000180025095e-35 -1.0000000180025095e-35 0.45351939568959276 -1.0000000180025095e-35 0.78644215878125423 1.0000000180025095e-35 -1.064729039123032 -1.2094581817517636 -1.2335978218892349 -0.51478593945844275 -0.64109218493520015 -1.2094581817517636 -1.0000000180025095e-35 0.11916160940922241 1.1193649218729158 0.35593973911567334 -1.064729039123032 0.45351939568959276 1.0000000180025095e-35 0.17988630283487808 0.52722242398153862 -1.064729039123032 0.81172062691769209 0.11916160940922241 1.1749238298809153 1.0000000180025095e-35 1.1906218557433741 -0.35439465000367926 1.1749238298809153 -0.51478593945844275
decision_type=8 8 10 8 10 10 8 10 10 10 10 10 8 8 10 10 8 8 10 8 10 8 10 10 10 10 10 8 8 8
left_child=2 4 5 6 23 21 -3 -8 25 10 11 -10 14 -14 -4 16 -7 -17 -19 -20 -21 -1 -22 -2 -25 -5 -18 28 29 -28
right_child=1 3 12 8 -6 15 7 -9 9 -11 -12 -13 13 -15 -16 17 26 18 19 20 22 -23 -24 24 -26 -27 27 -29 -30 -31
leaf_value=-0.016567549631137352 -0.056152009948772334 0.049580693170821255 -0.0029811726154352247 0.064193489429850856 0.050170148158643436 -0.012601977103736159 0.038692404528799872 -0.033653458964855686 0.057845857413611805 0.014130373568810597 0.030234128229814024 0.050282941937337081 -0.035722148695811883 0.0065177121983553028 0.034658507127610927 -0.03893240643670362 -0.045515110169849743 -0.049657595784621422 -0.048208064964237546 0.054056123978122185 0.027628217068335733 -0.048516250156087258 -0.019898730034633567 -0.043190401631883361 -0.0068258503742910249 0.05746318279876711 -0.055119911108210934 -0.043973825085668231 -0.055820303726233381 -0.022296434046945788
leaf_weight=3.4583870321512222 12.625653833150862 7.9562411308288574 5.307781442999838 73.356523647904396 1.9866620004177082 4.4180529192090034 4.6048590242862719 5.5120114684104919 163.26065590977669 3.9583532810211173 6.3711547404527655 111.99836774170399 4.2376943379640597 6.8913784027099609 5.5837038159370422 262.44288460165262 189.37533514946699 7.8288046345114735 6.3607714995741818 2.2517406642436981 2.3634206801652908 391.04756927490234 4.0293117091059685 15.969780758023264 3.9021913409233084 374.47630441188812 2.8636005520820618 46.518486253917217 6.0052213370800009 24.190172806382183
leaf_count=25 139 35 26 381 9 38 19 26 834 18 27 539 22 39 26 2727 2111 82 66 21 22 4608 37 176 34 1915 34 500 65 219
internal_value=-0.000513423 0.0516722 -0.0425744 0.0558073 -0.0384425 -0.0436327 0.0214214 -0.000724056 0.0566547 0.053658 0.0542136 0.0547686 0.00323497 -0.00956625 0.0163154 -0.0403818 -0.0429933 -0.0378793 -0.0257756 -0.0133154 0.0123593 -0.0482362 -0.00232781 -0.0438596 -0.0360496 0.0585656 -0.0434926 -0.0386793 -0.0312293 -0.0257707
internal_weight=1761.15 785.979 975.174 751.494 34.4843 953.154 18.0731 10.1169 733.421 285.589 281.63 275.259 22.0206 11.1291 10.8915 558.648 273.371 285.277 22.834 15.0052 8.64447 394.506 6.39273 32.4976 19.872 447.833 268.953 79.5775 33.059 27.0538
internal_count=14820 4152 10668 3794 358 10555 80 45 3714 1418 1400 1373 113 61 52 5922 2967 2955 228 146 80 4633 59 349 210 2296 2929 818 318 253
is_linear=0
shrinkage=0.05


Tree=23
num_leaves=31
num_cat=0
split_feature=4 1 0 0 0 3 2 6 3 6 5 2 6 3 2 6 5 6 5 2 5 0 0 0 5 2 5 1 5 0
split_gain=1440.3 108.634 18.235 8.4299 6.15467 5.80441 4.39695 4.56856 1.70536 2.40316 1.50529 1.66927 1.59469 1.49542 1.48207 1.54877 1.3955 1.35347 1.45144 1.32849 1.72017 1.37436 1.25821 1.25611 1.25564 1.60749 1.14748 1.11468 1.10793 1.09405
threshold=-1.0000000180025095e-35 -1.0000000180025095e-35 0.45351939568959276 -1.0000000180025095e-35 0.78644215878125423 1.0000000180025095e-35 -1.3674985908616462 -1.2094581817517636 -1.2335978218892349 -0.51478593945844275 1.539830387647928 -0.64109218493520015 1.2218946662748598 1.1906218557433741 -0.64109218493520015 -1.2094581817517636 -1.064729039123032 1.0000000180025095e-35 -0.59117277971013016 -1.0000000180025095e-35 0.11916160940922241 1.1193649218729158 -0.87817165667705288 -0.54524889358539141 0.11916160940922241 1.1749238298809153 0.82949599852857525 1.0000000180025095e-35 -0.35439465000367926 0.45351939568959276
decision_type=8 8 10 8 10 10 8 10 10 10 10 8 10 10 10 10 8 10 8 8 8 10 8 10 10 10 8 10 10 8
left_child=2 4 5 6 24 16 -3 -8 27 14 11 12 26 28 15 -10 -1 -15 22 21 -21 -4 -19 -24 -2 -26 -7 -5 -13 -30
right_child=1 3 19 8 -6 10 7 -9 9 -11 -12 13 -14 17 -16 -17 -18 18 -20 20 -22 -23 23 -25 25 -27 -28 -29 29 -31
leaf_value=-0.01591964025568118 -0.055826790220191075 0.05605784362965513 -0.0028348252891115689 0.06299002982402771 0.046894192764498743 -0.027791941775941083 0.034989268581407794 -0.026666569086345973 0.056529412559863795 0.013485356733323076 -0.030031813729496433 -0.047750162762995624 -0.00040455252573761216 -0.044911735845728246 0.028901530422710542 0.04880411841646138 -0.048002872395954022 0.011419098711475001 -0.036019597705849733 -0.034482444888606308 0.0061703833447610164 0.032632832118862989 -0.055910813420450567 -0.015393148523495832 -0.042510229537009891 -0.0065176173952711264 -0.055854659367245832 0.056145009269223493 -0.042274684294410572 -0.031068071158363204
leaf_weight=3.4201759845018387 12.078086048364641 5.8645064383745193 5.3028332591056806 71.078018203377724 2.0183205902576438 17.673310048878193 5.8371435552835482 6.1912354975938797 158.82265929877758 3.9407602697610846 37.861859172582626 86.648048743605614 4.327466517686843 37.69580789655447 6.3326677978038779 109.68183368444443 375.85402679443359 2.8360580727458 93.136093772947788 4.172235846519472 6.9147102385759354 5.6324901878833771 2.6328324154019356 6.9947904273867589 15.427857309579851 3.8829036802053443 4.5884465873241487 364.36281134188175 222.50202564150095 24.141578517854214
leaf_count=25 139 26 26 381 9 184 25 29 834 18 377 1010 36 423 27 539 4608 22 992 22 39 26 28 58 176 34 49 1915 2485 258
internal_value=-0.000509649 0.0504347 -0.041895 0.0544582 -0.0377399 -0.0429709 0.0205607 0.00325384 0.0553074 0.0522539 -0.0396463 -0.0403697 -0.0281773 -0.04105 0.0528098 0.0533737 -0.0477136 -0.0367785 -0.0338752 0.00306821 -0.00912808 0.0154336 -0.0178511 -0.0264734 -0.0431819 -0.035273 -0.033576 0.0572623 -0.0428864 -0.0411778
internal_weight=1707.85 765.519 942.335 732.112 33.4072 920.313 17.8929 12.0284 714.219 278.778 541.038 503.176 26.5892 476.587 274.837 268.504 379.274 143.296 105.6 22.0223 11.0869 10.9353 12.4637 9.62762 31.3888 19.3108 22.2618 435.441 333.292 246.644
internal_count=14820 4152 10668 3794 358 10555 80 54 3714 1418 5922 5545 269 5276 1400 1373 4633 1523 1100 113 61 52 108 86 349 210 233 2296 3753 2743
is_linear=0
shrinkage=0.05


Tree=24
num_leaves=31
num_cat=0
split_feature=4 1 0 2 3 0 3 5 6 5 5 0 5 5 6 2 3 3 0 5 2 0 2 3 5 6 2 0 6 2
split_gain=1341.85 100.8 17.5763 8.19287 5.89879 5.72814 3.91852 2.9969 1.5491 1.50791 1.68075 1.49121 1.46448 1.39042 1.32977 1.50378 1.27735 2.21425 2.64141 1.26378 1.5566 1.20392 1.09812 1.26245 1.1701 1.71059 1.51012 1.23452 1.11816 1.97261
threshold=-1.0000000180025095e-35 -1.0000000180025095e-35 0.45351939568959276 0.44851742395446897 1.0000000180025095e-35 0.78644215878125423 1.0000000180025095e-35 -0.35439465000367926 -1.5567943028984239 0.35593973911567334 -1.064729039123032 -0.54524889358539141 0.11916160940922241 -1.064729039123032 0.52722242398153862 0.81172062691769209 -0.2639099508361914 1.0000000180025095e-35 1.1193649218729158 0.11916160940922241 1.1749238298809153 -0.21232613049373006 -0.64109218493520015 0.70577792021685226 1.3030522579414772 1.0000000180025095e-35 0.81172062691769209 1.0000000180025095e-35 1.2218946662748598 0.44851742395446897
decision_type=8 8 10 10 10 10 10 10 10 10 8 10 10 8 10 10 8 10 8 10 10 8 10 10 10 10 8 10 10 10
left_child=2 5 4 6 13 19 7 8 -3 10 -6 14 -9 -1 15 -11 -4 -18 -19 -2 -21 -10 23 -13 27 26 -26 -24 -27 -30
right_child=1 3 16 -5 9 -7 -8 12 21 11 -12 22 -14 -15 -16 -17 17 18 -20 20 -22 -23 24 -25 25 28 -28 -29 29 -31
leaf_value=-0.015291370563070159 -0.055520224484132033 0.057389612735781081 0.022221440868042362 -0.016008355990350411 -0.010495820055418673 0.043924133620946 0.0053972424546022075 0.0058326163706767555 0.02783817683453951 -0.042352409422909791 -0.042188827021087096 -0.04504664172360838 0.045643736183199272 -0.047492918224526337 -0.027469116212352363 -0.027601670849332422 -0.03172979158961086 -0.015354737119306525 0.034264640973330464 -0.041831212576525834 -0.0062219402671718875 0.052750147514523504 -0.047450682336024612 -0.011551695973787496 -0.0062262164874416024 -0.049300636064448483 -0.043434836968566842 -0.02997608229177804 0.015120846873972469 -0.043996503505158505
leaf_weight=3.3836174756288528 11.550863780081274 250.91776932775974 6.165741890668869 4.2542793005704871 4.2540607526898384 2.0463014692068091 4.1936327069997779 4.6556430310010892 4.9039113968610764 49.674803718924522 251.38237400352955 4.8253889232873899 4.5849408060312271 361.26576232910156 64.592536598443985 26.493098862469196 5.1008590087294605 5.6330649331212017 5.1197813004255304 14.907644346356394 3.8645375818014136 439.34071406722069 69.949874021112919 6.7461237385869026 8.0330802798271161 15.844005778431894 4.1281968355178824 11.814043015241621 2.104364112019538 4.2831280753016472
leaf_count=25 139 1368 28 20 38 9 20 21 21 563 2929 55 22 4608 670 281 28 31 26 176 34 2322 806 71 84 175 46 135 22 47
internal_value=-0.000505248 0.0492522 -0.0412173 0.0531708 -0.0423106 -0.0370435 0.0535861 0.053873 0.054249 -0.0389129 -0.0416614 -0.036296 0.0255859 -0.0471941 -0.0327464 -0.0372217 0.00291087 -0.0045993 0.00827067 -0.0425075 -0.0345005 0.0524752 -0.0402078 -0.0255193 -0.0416711 -0.0339335 -0.0188568 -0.0449258 -0.0421808 -0.0245202
internal_weight=1656.01 745.22 910.794 712.851 888.774 32.3693 708.597 704.403 695.162 524.125 255.636 268.489 9.24058 364.649 140.76 76.1679 22.0194 15.8537 10.7528 30.323 18.7722 444.245 127.728 11.5715 116.157 34.3928 12.1613 81.7639 22.2315 6.38749
internal_count=14820 4152 10668 3794 10555 358 3774 3754 3711 5922 2967 2955 43 4633 1514 844 113 85 57 349 210 2343 1441 126 1315 374 130 941 244 69
is_linear=0
shrinkage=0.05


Tree=25
num_leaves=31
num_cat=0
split_feature=4 1 0 0 3 0 3 3 6 5 2 5 6 3 2 6 6 5 5 5 2 5 5 2 5 0 5 5 0 2
split_gain=1250.16 93.5611 16.9269 8.2812 5.99147 5.33683 4.05193 1.83053 2.29778 1.50997 1.69834 1.61348 2.39212 1.55739 1.4967 1.65451 1.39969 1.38434 1.34127 1.27221 1.50608 1.22154 1.21421 1.18198 2.89051 1.17506 1.16245 2.13678 1.37489 1.34857
threshold=-1.0000000180025095e-35 -1.0000000180025095e-35 0.45351939568959276 -1.0000000180025095e-35 1.0000000180025095e-35 0.78644215878125423 -1.2335978218892349 -1.2335978218892349 -0.51478593945844275 1.539830387647928 -0.64109218493520015 -1.064729039123032 1.2218946662748598 1.1906218557433741 -0.64109218493520015 -1.2094581817517636 -0.51478593945844275 -1.064729039123032 -1.064729039123032 0.11916160940922241 1.1749238298809153 1.3030522579414772 -0.59117277971013016 0.81172062691769209 0.59271786882212429 0.78644215878125423 -1.5382852985359337 -1.3015071688294826 1.7852104480562385 -1.3674985908616462
decision_type=8 8 10 8 10 10 10 10 10 10 8 10 10 10 10 10 10 8 10 10 10 10 10 10 8 10 10 10 10 8
left_child=2 5 4 6 17 19 18 25 14 10 11 -6 -13 -12 15 -9 21 -1 -3 -2 -21 -15 -4 24 -24 -5 -17 28 29 -28
right_child=1 3 22 7 9 -7 -8 8 -10 -11 13 12 -14 16 -16 26 -18 -19 -20 20 -22 -23 23 -25 -26 -27 27 -29 -30 -31
leaf_value=-0.014682475072513843 -0.055231079281100749 0.059907109727161761 0.018512466142357485 0.059027474477794911 0.016189237379524643 0.041216951602766332 -0.0079865937421974269 0.054091817870431692 0.011316327933522248 -0.028314735281934761 -0.041587745033324956 -0.037357218154195702 0.005313288549785372 -0.05199009085352934 0.02588683560446324 0.053409436682528844 -0.033036632703331868 -0.046985254495249554 0.022283420552165069 -0.041152599758443147 -0.0059384167741305602 -0.01402265525677732 0.0072398198041522272 0.013672454493642445 -0.049596553422916662 0.053167126575657031 0.023950302255469288 0.04749806475748828 0.012263102247362866 0.0595965280718464
leaf_weight=3.3486533910036087 11.043587319552904 4.5189784169197083 7.8625767678022411 121.31922975182533 2.0510337874293354 2.071005091071128 8.0784681737422925 150.0659955739975 3.868866801261901 36.042029947042465 311.76245711743832 19.248305656015877 3.9602626860141745 17.50366568565369 6.2130919992923728 34.59130859375 114.95126131176949 347.26626205444336 4.9785386025905627 14.40853623300791 3.8470508307218543 2.4101945608854285 5.3291418850421888 4.9598192125558844 3.8552940413355827 290.01260043680668 6.0738918036222458 51.389705061912537 8.0999705046415311 4.7114412337541598
leaf_count=25 139 22 33 680 20 9 37 834 18 377 3753 215 34 218 27 186 1278 4608 21 176 34 27 28 27 25 1616 28 265 37 23
internal_value=-0.000500701 0.0481089 -0.0405395 0.0519272 -0.0416494 -0.0363524 0.0180438 0.0528077 0.049567 -0.038179 -0.0389325 -0.0263194 -0.030076 -0.0396458 0.0501337 0.0507246 -0.0351567 -0.0466767 0.040185 -0.0418354 -0.0337318 -0.0473949 0.00276011 -0.00599638 -0.016618 0.0548956 0.0459061 0.0422127 0.0278305 0.0395219
internal_weight=1605.84 725.292 880.551 693.922 858.544 31.3702 17.576 676.346 265.014 507.929 471.887 25.2596 23.2086 446.628 261.145 254.932 134.865 350.615 9.49752 29.2992 18.2556 19.9139 22.0068 14.1443 9.18444 411.332 104.866 70.275 18.8853 10.7853
internal_count=14820 4152 10668 3794 10555 358 80 3714 1418 5922 5545 269 249 5276 1400 1373 1523 4633 43 349 210 245 113 80 53 2296 539 353 88 51
is_linear=0
shrinkage=0.05


Tree=26
num_leaves=31
num_cat=0
split_feature=4 1 0 0 0 3 2 6 3 6 5 5 0 6 2 5 2 5 6 2 5 5 5 2 1 2 5 0 3 5
split_gain=1165 86.909 16.2749 8.01663 7.41916 6.07923 3.8995 3.87796 1.84654 2.20608 1.55128 1.65342 1.53257 1.48009 1.56429 1.39178 1.45592 1.37721 1.34184 1.53598 1.32075 1.65819 1.32001 1.23986 1.22073 1.16077 1.63301 1.13573 1.12908 1.35284
threshold=-1.0000000180025095e-35 -1.0000000180025095e-35 0.45351939568959276 -1.0000000180025095e-35 1.1193649218729158 1.0000000180025095e-35 -1.3674985908616462 -1.2094581817517636 -1.2335978218892349 -0.51478593945844275 0.35593973911567334 -1.064729039123032 -0.54524889358539141 -1.2094581817517636 -1.0042953878984231 0.11916160940922241 1.1749238298809153 -1.064729039123032 0.52722242398153862 0.81172062691769209 -1.5382852985359337 -1.3015071688294826 -1.7750634282423847 -1.7307017938248692 1.0000000180025095e-35 -1.0000000180025095e-35 0.11916160940922241 1.1193649218729158 1.1906218557433741 -0.35439465000367926
decision_type=8 8 10 8 10 10 8 10 10 10 10 8 10 10 10 10 10 8 10 10 10 10 10 8 10 8 8 10 10 8
left_child=2 4 5 6 15 17 -3 -8 24 13 11 -7 18 14 -10 -2 -17 -1 19 -12 -15 23 -16 -22 -5 27 -27 -4 -13 -30
right_child=1 3 25 8 -6 10 7 -9 9 -11 12 28 -14 20 22 16 -18 -19 -20 -21 21 -23 -24 -25 -26 26 -28 -29 29 -31
leaf_value=-0.014092693502132707 -0.05561241965694335 0.051548994803053944 -0.0025775998275377955 0.060043232638787407 0.066809072859470423 -0.0090238432122631117 0.030710864297453146 -0.026622704797684749 0.055087188811377842 0.010792988674482421 -0.041048572210576187 -0.043149043356097511 -0.038814964070896324 0.052498378671203653 0.023873874444390087 -0.040473741315838183 -0.0056666595540244983 -0.046478840067911538 -0.025595289746780103 -0.025711121545571664 0.0044583585805687605 0.045122377136575506 0.047830523040699159 0.03483967506995797 0.052546474973564676 -0.033733661376482697 0.0060364487477987117 0.029674587715410584 -0.027462675365096237 -0.041488233506990657
leaf_weight=3.3152263611555099 10.979291185736662 5.6254804283380508 5.2584545686840993 64.826159253716469 1.6693178862333287 4.1443986371159554 5.6858079880476016 6.1281312555074692 111.453672721982 3.8540286123752585 46.528987489640713 164.72033698856831 119.92025423049927 34.099115863442421 7.1179432719945899 13.929916344583036 3.8304035365581504 333.83856582641602 61.38268456608057 25.145603261888027 4.3450002521276474 52.767217472195625 29.919039875268936 14.785431653261186 334.47446310520172 4.1213310211896914 6.9069643318653107 5.6757818162441254 29.671542286872864 40.880399137735367
leaf_count=25 141 26 26 381 7 38 25 29 640 18 563 2111 1441 188 39 176 34 4608 670 281 20 276 167 70 1915 22 39 26 318 500
internal_value=-0.000495274 0.0470206 -0.039863 0.0507452 -0.0356659 -0.0409877 0.0172859 0.000970773 0.0516325 0.0483386 -0.0374458 -0.0403307 -0.0347156 0.0489072 0.0521288 -0.041618 -0.0329668 -0.0461604 -0.0310211 -0.0356677 0.044394 0.0405503 0.0432264 0.0279393 0.0537636 0.00261984 -0.00882585 0.014164 -0.0408822 -0.0355896
internal_weight=1557 705.49 851.511 675.081 30.4089 829.548 17.4394 11.8139 657.642 258.341 492.394 239.417 252.978 254.487 148.491 28.7396 17.7603 337.154 133.057 71.6746 105.997 71.8976 37.037 19.1304 399.301 21.9625 11.0283 10.9342 235.272 70.5519
internal_count=14820 4152 10668 3794 358 10555 80 54 3714 1418 5922 2967 2955 1400 846 351 210 4633 1514 844 554 366 206 90 2296 113 61 52 2929 818
is_linear=0
shrinkage=0.05


Tree=27
num_leaves=31
num_cat=0
split_feature=4 1 0 0 0 3 5 3 3 6 2 6 5 5 0 0 2 6 6 5 2 2 0 5 6 5 1 2 5 5
split_gain=1085.67 80.7618 15.6653 7.72891 6.84016 6.16096 3.73043 2.97847 1.86842 2.11822 1.55729 1.68821 1.54804 1.6555 6.67238 1.53885 2.9134 5.53113 2.09701 1.39689 1.40615 1.37477 1.76539 1.75422 1.35076 1.33984 1.23177 1.15178 1.14379 1.7375
threshold=-1.0000000180025095e-35 -1.0000000180025095e-35 0.45351939568959276 -1.0000000180025095e-35 1.1193649218729158 1.0000000180025095e-35 -1.064729039123032 -1.2335978218892349 -1.2335978218892349 -0.51478593945844275 -0.64109218493520015 -1.2094581817517636 0.35593973911567334 -0.59117277971013016 1.0000000180025095e-35 0.45351939568959276 1.0000000180025095e-35 0.17988630283487808 0.52722242398153862 0.11916160940922241 1.1749238298809153 -0.64109218493520015 -0.21232613049373006 -0.59117277971013016 -0.51478593945844275 1.0662741282350263 1.0000000180025095e-35 -1.0042953878984231 -1.5382852985359337 -1.3015071688294826
decision_type=8 8 10 8 10 10 8 8 10 10 10 10 10 8 10 8 10 8 10 10 10 8 8 8 10 10 10 8 10 10
left_child=2 4 5 6 19 21 -3 -8 26 10 11 -10 13 14 24 -14 -17 -18 -19 -2 -21 22 -1 -24 -7 -20 -5 28 -13 -30
right_child=1 3 -4 8 -6 12 7 -9 9 -11 -12 27 15 -15 -16 16 17 18 25 20 -22 -23 23 -25 -26 -27 -28 -29 29 -31
leaf_value=-0.041873377510965551 -0.055330346013413072 0.043319205816867726 0.0024861377056885187 0.059097898227152945 0.062640435980926945 -0.054509398379584323 0.025179006269157873 -0.029923903960430171 0.051861119861801433 0.010292491929072054 0.022769572253844725 0.049159945089595924 -0.035130726670394179 -0.042045331975211993 0.068076358501429374 -0.047568700501918894 -0.045887237090002392 0.062227811899524713 -0.020706489590258795 -0.03979407229799313 -0.0054062797091005508 -0.046277050433777188 0.039695217670146762 -0.030145436018356415 -0.031961060611253804 0.0273389395101447 0.051439453274141393 0.051486502615190999 0.020207767843949832 0.041455496859931711
leaf_weight=8.1415363401174528 10.495720416307455 7.4348489344120026 21.952943481504917 62.625852137804031 1.6908007264137257 7.7341271713376036 4.6924901902675629 5.1370676904916781 141.57214294373989 3.8397419005632392 6.1021418422460547 22.368576064705849 225.83176141232252 175.1971877515316 1.6116622686386097 6.7148176133632687 5.4673371762037251 2.1074349284172067 2.8214604407548904 13.471158228814604 3.8145569562911978 312.43945200741291 1.5781107693910597 2.0896187424659742 47.02988363057375 2.9875566959381104 324.83506065607071 30.506748303771019 13.4177308678627 34.006474539637566
leaf_count=116 141 35 113 381 7 103 20 25 834 18 27 127 2727 2281 18 82 66 21 29 176 34 4467 20 30 565 30 1915 166 63 183
internal_value=-0.000489531 0.0459718 -0.0391842 0.0496066 -0.0349995 -0.0403252 0.016595 -0.00361856 0.0504981 0.0471451 0.0477157 0.0483451 -0.0367134 -0.0396472 -0.0321946 -0.0339508 -0.020693 -0.00720916 0.0195031 -0.040942 -0.0322055 -0.0456441 -0.0288979 -9.5159e-05 -0.0351455 0.0040031 0.0526773 0.0433823 0.0398399 0.0354439
internal_weight=1509.72 686.011 823.705 656.539 29.4722 801.752 17.2644 9.82956 639.274 251.814 247.974 241.872 477.503 231.573 56.3757 245.93 20.0986 13.3838 7.91645 27.7814 17.2857 324.249 11.8093 3.66773 54.764 5.80902 387.461 100.3 69.7928 47.4242
internal_count=14820 4152 10668 3794 358 10555 80 45 3714 1418 1400 1373 5922 2967 686 2955 228 146 80 351 210 4633 166 50 668 59 2296 539 373 246
is_linear=0
shrinkage=0.05


Tree=28
num_leaves=31
num_cat=0
split_feature=4 1 0 0 0 3 2 6 6 3 6 5 2 6 3 6 5 5 2 0 5 5 5 5 5 2 2 0 0 6
split_gain=1011.74 75.0775 15.0917 7.45212 6.31617 6.23426 3.51059 3.40841 1.91501 1.92469 1.74971 1.56827 1.79537 1.65532 1.64764 1.47993 1.41512 1.40208 1.35678 1.32121 1.29124 1.25945 1.25373 3.59897 1.39225 1.23357 2.10926 2.22004 3.04498 2.10495
threshold=-1.0000000180025095e-35 -1.0000000180025095e-35 0.45351939568959276 -1.0000000180025095e-35 1.1193649218729158 1.0000000180025095e-35 -1.3674985908616462 -1.2094581817517636 -1.5567943028984239 -1.2335978218892349 -0.51478593945844275 1.539830387647928 -0.64109218493520015 0.52722242398153862 1.1906218557433741 -0.51478593945844275 -1.064729039123032 0.11916160940922241 1.1749238298809153 -0.21232613049373006 1.3030522579414772 -0.35439465000367926 -0.827950909416581 -0.35439465000367926 0.35593973911567334 -0.27788898197197709 0.44851742395446897 -0.87817165667705288 -0.21232613049373006 1.5692307874215203
decision_type=8 8 10 8 10 10 8 10 10 10 10 10 8 10 10 10 8 10 10 10 10 10 10 10 10 10 10 10 10 8
left_child=2 4 5 6 17 16 -3 -8 -5 -10 -11 12 13 19 21 20 -1 -2 -19 -7 -16 -14 -15 -24 -25 -13 27 -27 -29 -28
right_child=1 3 -4 8 -6 11 7 -9 9 10 -12 25 14 22 15 -17 -18 18 -20 -21 -22 -23 23 24 -26 26 29 28 -30 -31
leaf_value=-0.012062551012055167 -0.055063294997325013 0.048992917070194174 0.0023595736661745259 0.053121480100928854 0.058897807998042666 -0.044533279286895884 0.028529266583723054 -0.025659681414251342 0.050278264821252687 0.044021019288129112 0.0098139165779064855 -0.046509655570280826 -0.045336537377195035 -0.037933167273211929 -0.051082167235168834 -0.030492497745804138 -0.045468650888132761 -0.03911313029712684 -0.0051568905708318687 -0.0070874187136694151 -0.010564593353652493 -0.037705818469449814 0.054850948155911641 -0.055540206674817738 -0.0024286759640048459 -0.039602381347975814 -0.038652959855133666 0.033192253140314959 -0.034975017473481147 0.014299865340179683
